0.245205988523181
0.444601718310547
-0.261615064349778
-0.371180718239015
-0.159357155980243
-0.0536303620569549
0.152982684156384
0.247378436730885
0.342609665748947
0.237628398806615
0.246370036502541
-0.0686877772997542
-0.390877780909206
-0.127268844514736
-0.329505847202853
0.488823339127786
0.262394967843962
0.0694462431452453
-0.180454537123653
0.222009342034352
-0.123575900506031
0.421857994479061
0.362464419967711
0.0970737135955476
0.0427624613711436
0.34847328851394
-0.0528631380539681
-0.484696968451467
-0.32249371466343
-0.327486994130298
-0.200624174764671
-0.21627438474273
0.0587163924047334
-0.131117893509588
0.166909269609185
-0.249692615897565
-0.0218924997335274
-0.272983794491046
-0.220705815146649
-0.422688637596165
-0.168939812876635
0.274131128434233
0.358409185827688
0.178066323849049
-0.30472404036771
0.399588142006928
0.237783793717025
0.025648618958483
0.40981205863934
-0.0645112714964135
0.0238151400391396
-0.113926971709954
0.0440281366668772
0.39598806476965
0.0514249347855453
0.353548896896443
-0.375094124523501
-0.496530727016055
0.158581630167822
-0.215046131385046
-0.275088024005106
0.154312052015355
0.308819795897247
-0.195220949033222
0.278152151830698
-0.125659392674258
0.330613357536635
0.10681815267979
-0.320381589418315
0.443743543316646
-0.205546146669148
0.71183251685298
-0.0903169589559462
-0.0445319736562941
0.495624636420404
0.224531969607174
0.181164702834429
0.198409999235195
-0.256314134719715
0.0937379137577874
0.143535265797191
-0.476353769037915
0.397695041213974
0.124901360657486
-0.250168304308396
-0.359104245835498
-0.110322143235394
-0.0749899526822866
0.150781790429235
0.349719853346558
0.0990565718914818
0.172710181380388
0.0475245580158089
0.309926502766298
0.0976509144681528
0.415452329799747
-0.167413001684141
0.793482465836415
0.0711849554375856
0.16487788626044
0.742397467171533
0.0178735070067965
0.0387463980884991
0.358725688448121
0.00453185724112479
0.405354745132399
0.282996982132522
-0.266768406066228
0.18977222062358
-0.465309459608477
0.0946380158861345
-0.152055579541277
-0.250429022475346
-0.077142199550689
-0.311885062051883
0.274068802735727
0.335656677155964
-0.387809752039486
0.234597898888216
-0.162648451888851
0.292962616421563
-0.149379913585747
0.0734320816377761
-0.271260020074516
-0.611711735080832
0.0475285507240181
0.091360657382851
-0.34120767288374
-0.385384479904532
0.230269936875743
0.319724002409121
0.533669558851349
-0.183195376348201
-0.00674667901356048
0.717623525700186
-0.36027872547035
-0.0184428969644781
-0.175501410721983
0.00890378341365608
-0.483602709129268
0.322348274207836
0.0886043103358728
0.170115028776309
-0.215210933710641
-0.415743769822309
0.249558053600225
-0.377283876081593
0.0397835485118428
-0.0290610938400626
-0.393594210932812
-0.537885330523269
0.0176379065031978
-0.0431759997136563
-0.281369675544289
-0.559203200247679
-0.504816627825887
-0.700764333258836
-0.320910669568419
0.468087420018235
0.0533150606827902
0.0467775239436942
-0.231407690227581
-0.445456393590127
-0.127915328570782
0.412168214060253
0.0151062815310081
0.466448445760786
0.226600263728788
0.437189038813668
0.462510759703339
-0.0926384192725639
0.157910452841544
0.267686380046453
0.0343180366545829
-0.709941958077061
-0.153863823620226
0.492691757894242
0.247526651051264
0.473234316418351
-0.0993680893644891
0.230353279329608
-0.341084624535933
-0.828187786380941
-0.553478865524428
-0.415851175600257
0.717131794610501
0.863078118858523
0.318087095836731
-0.139686815574033
-0.517279627133849
-0.330973364761823
-0.0890943008946697
-0.439510180023074
0.0653651749888703
-0.358457077480989
-0.455959410743362
0.122574923005243
0.158352895573473
-0.0543818266043016
0.402725164779045
0.349589434261316
-0.0159169400523556
-0.811615725522896
0.173775254312281
-0.100224401109139
-0.167584167943758
-0.354947704796893
-0.107928778288136
0.395171325909963
-0.451658322896878
-0.533099058555139
-0.121487325477603
-0.20488023723098
-0.0802913655568931
0.521390645082322
0.295301587523866
0.0554880045146206
-0.760219180732305
-0.107501310935111
0.554739709599783
0.361043690843083
-0.0838556255269
-0.037862255658138
-0.0450488354942448
0.424161535739071
0.274887368931336
0.298151274778833
0.286830818338269
-0.732902628716801
-0.0185660422351405
0.6766983798533
0.334357818579067
-0.173462341336225
0.667362075200497
-0.435372047486264
-0.03071808142018
0.118061375565037
-0.832541408939473
-0.479340896327501
0.247236726541778
-0.405826469677751
0.0717973296551041
1.00718416154514
0.299167121712096
-0.122357015136334
0.390561919736554
0.377085806644573
-0.128126134647593
-0.0473224524873033
-0.50558766003523
-0.216978391413232
-0.483931143199342
-0.287232441667299
-0.362779248228587
0.255085532457457
-0.197804213242831
-0.177721051606912
0.0805513707535786
0.104365233867801
0.731024202846142
-0.338523707607687
-0.00100066279565365
-0.0510028997936433
-0.668988818150482
-0.950265694106922
-0.604671821049062
-0.899750903044743
-0.318547707753602
0.231928905584033
0.0756282259471017
0.351602087985735
-0.745244377940244
-0.448322896175568
-0.30044956879369
0.256006526193436
0.321829185372175
-0.216988474552807
-0.0330296369844696
0.581114965363479
-0.376828106525048
0.0154088756796855
0.107098849062602
0.174821622379425
-0.306542976844931
-0.0672453466420426
0.593045162481748
0.531587136082082
0.406133998994197
0.403124611045775
0.317273473049085
-0.0202080738646419
0.0717567437076148
-0.535586490750261
-0.597801498111028
-0.0423336908454856
0.565852587614014
0.0735471972689901
0.324635852654128
-0.558798102465643
-0.492753413730149
-0.281274201497691
0.364619034060146
0.430487047290249
-0.19387946391761
-0.123859240066729
0.250365911606605
-0.248206035109665
-0.173131533718834
0.32746864487269
-0.0424426021891544
-0.31754739180318
0.327524189182839
-0.014617338152484
0.418114459325342
0.542689153926476
0.914864372218564
0.0996918557703231
0.548303736092469
0.181493657365749
-0.241839163041892
-0.740207633416212
-0.623051191721548
-0.0564875473948496
0.489696976172582
0.176972750226196
0.358878216940769
-0.305216562161306
-0.0127848990813851
-0.435222393833366
0.08007928250317
-0.198513979740335
-0.262295172825106
0.177814354839568
0.544517184220066
-0.51930204861388
-0.47226039101722
-0.37553631508515
0.154924197973862
-0.181046042462486
-0.393539278152578
0.332304036197617
0.693399056810929
0.362450045804552
0.576648453043525
0.545156504953457
0.463217654770339
0.574042434289047
0.829709332090845
-0.227568445590107
0.0116510752299094
0.524951958094887
0.246025480028955
0.738311744490267
-0.304088945440554
0.247773824858149
0.173456904212134
-0.60377605699763
0.11166035632883
0.577017829970396
-0.280482952298677
-0.242032398499524
0.315910618230235
0.170236292258319
0.508844715507296
0.335621724759984
0.358485231279551
-0.265424802564992
-0.224595725158791
-0.130946857741132
0.252585818189016
0.251578239674369
0.507639655648107
0.66832853311613
0.997273547655385
1.11972775767126
0.698839515407755
0.504936977300102
0.435633786070013
0.0846048737207184
0.399956105641608
-0.0170074877759965
0.0795669490012911
-0.105362986847404
0.613871482785289
0.4337464584585
-0.313445885680392
-0.528417915063454
0.408173944256364
-0.0225333812749943
0.267616480084798
-0.331212837371384
0.300226440170978
0.201326078239946
-0.350368491988514
0.0158622941353409
0.171550686660848
0.183607077519468
0.192446120678421
0.142850433579052
0.111141375309294
0.514744742622013
0.56389835944778
0.54425896707213
1.35201729829349
0.487504873131075
-0.416459122898892
-0.052918028211744
-0.506227960753587
0.615436962120492
0.876113459576962
-0.0300808503649683
0.631227557623049
-0.470316130856147
-0.321752465593133
-0.404031477662372
0.0557892176983039
-0.138110595628456
0.259976649873058
0.261877886462461
-0.418393245242561
0.325934068282495
-0.143888207870404
0.0830124190743668
-0.224708266199973
-0.447066967858322
-0.0248970753154362
0.0522016310681709
0.0559901376679284
-0.62410627418273
0.0515714748841267
0.428288447470513
1.04448904567995
0.385005072579369
0.988067014673697
1.0004996903356
-0.526584533843792
0.936795856999573
0.414532860720481
0.205444495001562
-0.354114015778782
-0.704568736009993
0.0405269121868724
0.169813467555021
0.118603805673164
-0.153789202754313
-0.268224527023212
0.350374039841431
0.183153145808168
-0.351391904842481
0.385073018887651
0.309409171879315
0.474062201189313
0.225764032730815
-0.15991307614613
-0.0391380449524054
-0.513391872087268
-0.974601476943456
-0.246980197623166
-0.833917867265029
0.355143892283193
-0.450473448365477
0.344524010408878
0.852951274428615
0.857696936382919
0.699806045439547
-0.37450433920975
0.371151334516324
0.224673156870665
0.141659131027328
-0.296607224496477
-0.382055281225868
-0.472510896608097
0.312698308243482
0.449616082723275
-0.263696657539891
-0.230873080283851
0.360320060914531
0.254119234602954
0.161969863312622
0.424600519214563
0.418643241716047
-0.132802113588528
-0.277913446633175
-0.36340995377376
0.0922374400313551
-0.298450883054991
-1.06209954270316
-0.554944479889354
-0.351659910070653
0.245724062346417
0.0727952074680677
0.107307266947735
0.259767665129956
0.222086531153899
-0.431585326714584
-0.074863439350755
-0.00835824023523859
-0.567670572667862
-0.472516596131184
0.0332381802034253
0.400916067557456
-0.318365381593906
-0.217584556319406
-0.0692709234671321
-0.0171257442048983
-0.233420340517133
0.224606691283532
-0.0037426104984446
-0.0988019404825243
-0.725704906831486
-0.712641333720573
-0.0324898305059519
-0.0473847327107705
-0.186243855467366
-0.991013660829531
-0.346370397063916
-0.313520364003049
0.196530102104471
0.677079955887846
-0.120207231401762
0.187605975966208
-0.346198030865796
0.0218439742887489
-0.217764650209736
-0.269674946110275
0.166522444065927
-0.173982539177193
-0.347064480273237
-0.107581576499672
0.0810755070179557
0.400308413066866
-0.312654289888465
-0.306328177827563
-0.26768722017152
0.0883321116705711
-0.389508176566527
-0.052017221695738
-0.395536960347046
-0.285365360644876
-0.765327182723522
0.0549243147403278
0.11647355815076
-0.495209602625131
0.013527269700169
0.2261556562572
0.905466183595043
-0.0128307231800598
0.0739439220945602
0.565857129282256
0.192480959148348
-0.14019381135996
-0.486231060501231
0.191554032356655
-0.150821632301798
-0.0857110116532606
-0.50908345909286
-0.284807062382587
-0.258232212835251
0.139197811932022
0.114851042124908
0.294562633984984
-0.0265304665934163
-0.525991164353159
-0.25079516135434
0.220307692133494
-0.547569666066308
-0.018458220240061
-0.460296069993172
-0.235334320738332
-0.371632940073198
-0.731399984714639
-0.31178470113787
0.55823643103205
0.432824069870466
0.131618652013497
0.461460674210788
-0.117426774772066
-0.421155442287421
-0.526234720600764
-0.286630247745318
0.528939026008846
0.0790077859527547
-0.347440407957891
-0.26043412969441
0.122131127055747
-0.384756423275717
-0.423103744350748
-0.222706409859975
0.384821321593636
-0.029108566807633
-0.257586813662929
-0.12749663801435
0.083275298914772
-0.01324066158423
0.0340880904674822
-0.399645748131379
-0.672541842623548
-0.283409401365624
-0.0653876047357337
0.181161777929318
0.106243199385335
-0.646700548816726
0.404742514170148
0.564336353230463
0.751153904471115
0.133997655740579
-0.315329132669965
-0.361872550401058
-0.139158479245923
-0.492405804862604
-0.338280908618614
0.196518453201297
-0.52836943825121
-0.0445980790772304
-0.12048243746901
-0.355582154689165
-0.0705699352026772
0.298895744131428
-0.243317000025246
-0.251801455969522
0.107549229462607
-0.335897440697612
-0.00743765829693734
-0.495422704296469
-0.498538321148205
0.0586134730538099
-0.0857021527877803
-0.356098025169169
-0.166518706464391
-0.458213154445976
-0.678224822482019
0.0173755612328883
-0.267998237161584
0.184679713171349
0.742926719119711
0.298436829384484
-0.288479032601522
0.0979361543066719
0.147442417249718
-0.0527413239527798
-0.450617550824299
0.42164460897834
0.327412799382344
0.189526432579338
0.468857602201802
0.159282593363562
0.16743394439368
-0.275254391163476
0.0646936221146897
-0.532097706450153
0.0167454648578408
-0.0828666474286653
0.120275478248641
0.381154138879603
0.367273535988151
-0.219316295999617
-0.567048604078055
-0.463933771052066
0.0330131986079784
-0.580581864171738
0.310852942261657
0.53365144837258
0.720775210370042
0.965513172014434
-0.156693425421429
0.0263021378880286
-0.17792338305512
-0.190581932894985
-0.146181270288137
-0.369883726373789
-0.00469428231448703
0.112116802768836
-0.394409514914457
0.309483174145912
-0.318728953742484
-0.0710039704955556
0.32478993618573
0.0479494608025417
0.19741841330606
0.0694207480495238
-0.0814148374598929
0.0804820578751239
-0.274085290222367
-0.150745799264817
-0.553596836762542
-0.717795654381214
0.536952601060687
0.166794468879771
0.910986500033654
0.924830886483238
0.0732531145435278
0.657833635938353
0.98539974481429
0.551336936796176
-0.120453503742725
-0.360437956248287
0.23622912060739
0.235387881992345
0.155812292916609
0.372027887903167
0.493246846363529
0.115534577339671
-0.217858057079425
0.131246377367547
0.154556621605944
0.0409830736892923
-0.390682005768603
-0.579984568214719
-0.295378239712452
0.390218562203987
0.097249835245168
0.368421956619922
-0.0522494369313602
-0.103888160328536
0.00158514882398188
-0.0840736347198653
-0.165445848777385
0.801504901874549
0.501634587959615
0.676964514926093
0.413894635223958
0.14032940782624
0.209970584698989
0.196231701396047
-0.419398289700079
-0.417059562424758
0.0714870532692149
-0.134886778721067
-0.138561929873453
0.0256493550379059
0.030680763782319
-0.487883893116577
-0.357596290317702
-0.169270610298629
0.0423921209095765
-0.132726508045627
0.394379189047421
0.053453094897186
0.379681113118497
0.136067176170976
0.114130550553178
0.30444192840732
-0.461985195996836
0.130147846556395
-0.217528704687067
0.23751025677792
0.663847847313069
0.174822929382618
0.471778717581961
0.137227238635719
0.270546722280909
-0.307566754173424
-0.318679138933625
-0.242587345532415
0.124025898344827
-0.311053502751074
0.405599180099368
-0.374683936533837
0.130848790812701
-0.375534112972922
0.240568972891838
-0.250405460593892
0.171120667761158
0.00135618795350802
-0.0633143354457557
-0.0898003854435679
0.256013057843771
0.0937484339668557
-0.426764180174496
-0.334336593384179
0.395592932732081
0.0979271182502393
0.307244137322649
0.160466759593379
-0.361212105890295
0.259876739110012
-0.0924245085885638
-0.421966851185879
-0.47742058306148
-0.119505525677103
-0.170747136078192
0.118333676186546
-0.263737802283716
-0.120502636125545
0.459638654235582
0.296294813415173
0.412901183549734
-0.0503553448013753
0.243636761672626
-0.482494027811333
-0.305464487432253
0.364793837938827
0.47656510536399
-0.272569212025296
0.160140243666312
-0.102061264031595
0.39754780919942
-0.257510525230961
-0.453606231179459
-0.485195723450982
-0.269474100679846
-0.442074727705715
0.0641719850544688
-0.0167006247289016
-0.175936038454965
0.499026707373106
0.146622429437294
0.415645125282763
0.0721388373394212
0.00415239925689637
-0.436088577814441
0.412468015175531
0.168703315159633
-0.18255469886705
0.369228012798926
0.44590049374192
-0.0449634969909505
-0.330976933344483
0.271876753748007
0.0799165344523498
0.34079759262452
-0.0838250783711721
0.0938034970099077
-0.54274591956599
-0.565424533268741
-0.386559463235565
0.294732906736397
0.40855231864805
0.258422773270456
0.305888819027165
-0.18534336179263
-0.450334707863176
-0.0521243310611218
0.0510756583425476
-0.203303998929637
0.449000366031012
0.452278913907837
-0.495172903870779
0.267232935301602
-0.0320825965758798
0.255025048626133
0.343899876737921
-0.370426921579254
0.119211698704963
-0.230259907109347
-0.489453368645151
0.141337422534117
-0.299965933885422
-0.410101159926684
-0.179106309155027
-0.498102607221035
-0.132818399812458
-0.167409052781722
-0.384624594237709
0.357589915324198
0.118332883705026
0.565738050244426
0.374992353188378
-0.092662328158225
0.0336842169618
-0.575873445995302
-0.137786707392607
-0.528986225405291
0.385304260581332
-0.211817096562611
0.403023168938536
-0.444551987082023
0.220444356426804
-0.413790821057647
-0.422090041414876
-0.0599523748084681
-0.0255570283119449
0.26851138699944
0.270895718654837
-0.246535611086454
-0.0309631500061373
0.592783950244749
0.0563233636440552
0.410842739682834
-0.281404535078653
0.363704018790242
-0.152049781481752
0.0608703934335548
0.0133891588004307
0.441041842004201
0.469414311004931
0.0721262118831228
0.106880947700899
-0.395756078066409
-0.583142574634333
0.0141633173115148
-0.348892752604482
-0.474359709233708
0.2343270448598
-0.0238028003479367
-0.309755471912099
-0.342237820775359
0.491227968720166
0.35753692027998
-0.199885450268306
0.278767663844367
0.0694629838732018
-0.118447921356451
-0.371845910662358
-0.163213950814554
0.338276849410808
-0.286195730136484
0.270214337393033
0.408121121019114
-0.0978507804448395
-0.234498615787055
0.592713537851507
-0.0211120549367487
-0.28930686831312
-0.317264284759325
0.555216719526333
-0.123427051426876
-0.0690657847863625
-0.508145964301791
0.370530988625043
0.330860168629608
0.462938493512104
0.115862634562447
0.226731239690786
-0.496596754061336
0.0368009710390125
0.324773677049503
-0.264552745705408
0.386151645379396
0.431140333649249
-0.244263397903127
-0.304509561234348
-0.142927918908173
-0.020522325924611
0.336626522032026
-0.270497311239485
-0.205112823814793
0.276700105613019
-0.588145587309639
0.0550110927691072
-0.44256990319052
-0.462904251220672
-0.409656205160574
0.321572962429927
-0.304130636944951
0.884342625260955
0.124547340168175
0.0967950926068115
-0.0780736845471554
-0.28859621335182
-0.115148174869493
0.398922482947782
0.377763619589509
-0.108563552310485
-0.241274424187706
-0.44514808834402
-0.309401961670999
0.34636692754383
0.652394881028504
0.840068381472073
0.900629785148878
0.497328345156152
0.232405716257402
0.496900907109555
0.884830271272133
0.016321967122245
-0.122776463602444
-0.418388694376908
-0.191545101285719
0.254833585015959
0.157085402361362
0.740373675944801
0.286027520087177
0.238303855924811
0.476413484707923
0.59061941286092
-0.602124770695005
0.169316094112563
-0.327638928296763
0.422432088440452
-0.401200029529117
0.474156098252717
0.465387610233949
0.110020273367819
-0.134611036929074
-0.152154620437943
0.244025509140044
0.575634307241868
0.738743937229966
-0.219514037571978
0.169601624879216
0.669273294091943
0.35333166134941
0.33027458361967
0.913481287470141
-0.0844324517481468
-0.250846865620465
-0.261691757242708
-0.480703571231635
0.645254787702851
0.401165583696984
-0.330763736536833
-0.322577042272442
-0.17174275305397
-0.85670883588088
-0.0850650976539682
-0.361948793974636
0.442694641506754
0.486336147830252
0.252984064072843
-0.37898983117749
0.109674049374187
0.590824800428546
-0.273805277163476
-0.163039971117861
0.146648697694811
0.530667553468322
0.965005802113937
-0.381078140975272
0.864620180344445
0.259140174262273
0.70394860128546
0.95408204876014
-0.411376771831184
0.177190898839822
-0.616039809086186
-0.170598466858073
-0.574506052761512
-0.238166412512804
0.142463922391837
-0.499565261212113
-0.400705431513608
-0.298677295703074
-0.577507210043686
-0.410399815393017
-0.191661187285685
0.360128939322897
-0.29028800770057
0.474904045802752
0.046783993434548
-0.198468155663657
-0.577444056115127
0.0148302319077462
0.0517952675796007
-0.143659566634288
0.492356344974946
0.144148938777109
0.384607069206549
-0.54478323573094
-0.14137913484743
0.112189490960089
0.534222417625952
0.0568122295649555
0.37550997105961
0.0633965384739877
-0.0508866388262766
-0.0532240660972935
-0.769297122940859
0.190820806274144
-0.120067375593423
-0.741696786198294
-0.163668149425785
0.495795211446579
0.697095121868316
-0.00944979104246603
0.2501616375892
-0.328151832231014
0.350517164748565
-0.501390543307505
0.356519492426546
-0.401027168079921
-0.911018130689124
-0.607144427594361
0.15991407022119
-0.464461172914385
-0.756726867646964
-0.0280048528115491
-0.900501972587506
-0.224463404430179
0.325564779762654
0.429810513092004
0.0651337688901
0.0802268149476528
0.136229755698627
-0.699428777640575
-0.230054479757082
-0.0315089574894422
-0.521591578339472
-0.0758229019354387
0.300577951861237
0.580739917949052
0.644796890845358
-0.253565699382993
-0.349103132910522
-0.0978019137851705
0.496341858865771
-0.315962298242785
-0.49905000916141
-1.28291991725029
-0.961362329763404
-0.757092019294257
-0.55322989582314
-0.280989760721434
-1.42389492999011
-1.56837293366412
-1.69473091686906
-0.499904549263658
-0.145935938039548
0.41875458475528
0.0325659538447084
-1.22311886153158
-0.472392626303287
-0.208158001042179
-0.518727200816402
-0.535571138554928
-0.512103468803229
0.00312136861583707
-0.278263443407244
-0.414940618578032
0.339560904487631
0.101056112722054
0.325587464806188
-0.40475249762345
-0.243154036767725
-0.999948298299108
-0.510143141452423
-1.42854201246083
-1.79052593991151
-1.83275314311978
-1.87982875675736
-1.36878585192704
-1.28298974332624
-0.396797922370749
-1.38933366679264
-0.582139791326187
-0.44265792389558
-0.379598936265097
0.30358444546898
-0.640484425807913
-0.191141189899067
0.0892354422390236
-0.185364053448374
0.341368503032252
-0.00185074240875229
-0.456218193763843
-0.343919130077952
-0.322576850593162
-0.00576162141320331
0.272551989542577
0.315556273060868
-0.124803592450931
-0.488595096087414
-0.067428477030728
-0.750036523760592
-1.37257270375266
-0.547832142404861
-1.18480453954408
-0.155386623350989
-1.50531951238286
-0.377669081101394
0.482876961005317
0.117910799474938
0.139250989348277
0.201013613699595
-0.183706214010542
-0.327039856215664
-0.358443043350637
-0.218438908007073
0.53961423191754
0.48297778558386
-0.175683129442451
-0.284982195644963
-0.120579950571434
-0.37532125631007
0.410625965115674
-0.356945602762283
-0.406557646155682
-0.406134297900522
0.270152918585351
-0.224108536364597
-0.981736341766858
-0.690620908771185
-0.773976398304439
-0.548733755968578
0.309580415259065
-0.725440416549901
0.249713813017603
0.339514042715609
0.32271512320434
0.317847836083597
0.628645925233368
-0.116508231979564
-0.378976530959897
0.338658539130708
0.096199478822833
0.389667939270598
-0.0832333623737588
0.0267709179659184
0.520824396430031
-0.195702597583114
0.892959411356553
-0.0207532300085893
-0.556288941435976
-0.0411594614327402
0.08768332568352
-0.186743927538605
-0.354523598582221
-0.0351467882339186
-0.220399568115435
0.84365100146841
-0.165949077395844
0.353992857632362
0.354256623955038
0.458522203217666
0.337179914358868
-0.508888241167828
0.0196642454342334
0.341655235285645
0.656225827180477
0.0551244934945875
-0.20423585621835
-0.40016798666402
-0.150597599729899
0.102732575509699
-0.0733935764202704
-0.394180416288308
-0.380406331952359
0.593178950445849
0.344791529965001
0.130863195546251
-0.35535762106539
-0.197943624796509
-0.147364285484743
-0.316998349567083
0.17391261338406
0.103809102376752
-0.231144261221183
0.535562051033406
-0.0103801334222561
1.09244024333909
0.733820684320868
0.609985420379482
0.137100906774713
-0.238190011154044
0.485405836491839
0.961966601312299
0.719092299318417
0.368809358294645
-0.735637712579209
0.418774949586345
-0.358626506153866
-0.656713238114165
-0.644758691405085
-0.0127013210860954
0.364092396661411
-0.311149630704558
-0.267430100150546
0.559331350465847
0.150478832205072
0.513523911009463
0.267506145298251
0.0138337079333692
-0.27596372783298
-0.0088384420877361
-0.0106996446685481
0.0175072783345834
0.221948738428574
0.0353597295754003
-0.134977480940869
-0.351077196763312
-0.135440134072576
0.220565083257434
0.314710494754594
0.180497876247148
0.459873412305606
-0.119065975320561
-0.427842337695896
0.0131717753305853
-0.0216178714051978
0.209001657927194
-0.186966451834677
0.0252724598885718
0.0102926141056414
0.0432764814520315
0.380171560518462
0.00202746559622466
0.324708924930031
0.00695768883689033
-0.309781490051884
0.23733724593418
-0.456839292268922
0.208005364961875
0.123670289596372
0.679776852261254
0.515640066753001
-0.1496900270994
0.249020060524574
-0.219958994548428
-0.522762288344999
0.392084078647083
0.736662646683495
0.726822928240913
-0.0335731299178498
0.17541353195534
-0.192663222132434
-0.742016354239964
-0.0378990674142946
-0.321820033213142
-0.689989959903602
0.122801941236476
0.40312234464037
0.252351470775262
0.521725096364582
0.781321178558148
0.444435441920126
0.111149112732146
-0.298161818086245
-0.46715605679248
-0.0616538316232546
-0.151509504168529
0.389474400993493
0.539276041948175
0.558799066456477
0.0878230329062995
0.448520852693752
0.605774931746819
-0.219160487128436
0.212225060788719
-0.190388874516569
0.276479893708173
0.0552423362910357
0.0872803358699281
-0.416946404189044
-0.226108748528244
0.578709510356421
-0.429520158277877
-0.132510162528292
-0.18571165148455
-0.161266279699395
0.20882843719846
0.522730481131541
0.519636794640706
0.157835267075247
0.485051871713309
0.00833870727025843
-0.118549291752198
0.40560457727185
-0.257277387338706
0.666660692439501
0.468951108562251
0.270774898844162
-0.0386348792020069
0.0966641265957918
-0.194165944532268
0.165593349548307
0.0133897947492881
-0.115024127398275
0.247760811700727
0.149730477548064
0.667000529278134
0.0372930926382467
0.181844750441189
-0.276231738631436
-0.17465138279716
-0.0209703226600288
-0.0903945830376643
-0.21715461573198
0.652360196271999
0.411036945900709
-0.086823510370881
-0.191832201972673
-0.484209991777027
0.250333443536841
0.400953151903875
-0.303038044410939
0.496130171816073
0.232009998580574
0.174821450864626
-0.154083437603528
-0.168061638050602
0.00660678305652639
0.153198952022318
-0.162792773894918
-0.24496578755288
-0.181764511268759
0.141617518295425
-0.77882554340973
-0.689390880804843
0.552488030244786
0.416121281266728
0.225489428337608
-0.0267132373501765
-0.180895235308196
0.223902123905292
0.359785207739563
0.412239310077515
-0.349100438279694
0.469975611392442
0.228170263001448
-0.2915247427866
0.29960787742198
0.107469449336583
0.435210502127376
-0.378566408629359
0.447513748501287
0.487227760960821
0.545364659077962
-0.190132330203797
0.15897373080066
0.281952478050587
0.360671955420913
-0.531168089404598
0.153927199726809
-0.640984704659613
-0.879257669976914
-0.624933560075485
-0.422761469752289
-0.0813402654934027
0.668618649693086
0.626258635978707
0.549570679994624
-0.0303351948635885
0.105617902774225
0.240378928003093
0.323768936835475
0.242953667466642
0.314244285037357
-0.238007935261275
0.352117234306465
0.0515170421225564
-0.209518694114311
-0.54990398740586
0.740810750774005
0.166874948615249
0.000574765178746007
0.226271553000339
-1.096715252912
-0.2326446280191
0.386220968588354
-0.427497873467051
-0.04989978750546
-0.64082294114529
-0.205563606086602
-0.374840403615344
-0.367501869236175
0.00105719527422824
-0.347107250847583
-0.20043485483622
0.0243579835398357
-0.0140904238004274
-0.396171719863256
-0.389084513106623
-0.107137169681886
0.571673539861345
0.498048267956516
-0.290920958756898
-0.240441114986521
0.444924364306463
0.0620646734502756
0.280021004315781
0.044733809619408
0.682906863418773
-0.184705557133135
-0.420819889404398
-0.247697154726643
-0.116930786406469
-0.793938070472962
0.0776145918271777
-0.135588807626707
-0.236915736933047
0.085772220101051
0.0813729870364264
-0.797526490981945
-0.814873551849264
-0.351141813419831
-0.25125157386352
-0.0469343288192185
-0.520696782393635
-0.596751378781668
-0.334760348261087
0.0376694024067688
-0.159409222092147
0.365599249613427
0.225381295534494
0.387255072075527
-0.00816223142117367
-0.201562080417725
0.189415126461826
-0.070067938112643
0.0271201746923472
0.182936262174856
-0.121469833482432
0.0551225240207254
0.243488165435585
0.115258737032751
0.778584736643534
0.823705160950232
-0.349565199269486
0.060333777813437
-0.109940845420175
0.0907306762964414
-0.282684547402342
-0.116491161767325
-0.621239965364141
0.018675619283902
0.237881261303462
-0.400066674872136
0.354741808845199
-0.379796614659965
0.558677425580173
0.531130667269515
-0.156120254963692
0.449845958943407
-0.084766203344225
-0.453941688851426
-0.188512543459834
0.0627458023826624
0.490754812506317
0.32394351063914
-0.375772661000721
-0.205757744807213
0.195567995445059
-0.110761155761643
-0.0378513522139774
-0.455174536817187
0.104873322675473
0.158735311311639
-0.374605337372016
-0.4694916706299
-0.134287093571507
-0.397887905687755
-0.575027154045775
-0.465053075797001
-0.0448468819469091
-0.329822848188899
-0.459777686141385
0.257567921074837
0.359036570814921
-0.297350372093427
-0.152912034491502
-0.248084904043043
0.197200533792936
0.385527084062587
0.488041422324274
-0.0460857135458195
-0.0544496016330347
0.449033857635649
0.186554227088556
0.00898123898389713
0.409836408083273
0.330620559867738
0.230978558191076
-0.477360376056464
-0.12866861575296
-0.258766316861477
-0.291664675217033
-0.458646786339141
0.17846877467804
0.204670493617701
-0.343998210958645
0.383274968085763
-0.480439993405581
-0.168770737030377
-0.177215752718795
-0.182918166594076
-0.330508272084644
-0.368381396806045
-0.334826489833568
0.0500151815591451
-0.49587463447632
0.102564802673908
0.207834805225876
-0.264764897415771
0.00593801657945758
0.469798746504727
0.431540202783207
0.492333504367775
0.0704541935447855
0.358027602014145
-0.339024995844357
-0.0924952809016998
-0.0163568926169393
-0.2128395274036
-0.0920892716695851
0.423990848904471
0.326642277569809
-0.406286699188075
0.115453888483091
-0.319366546263623
-0.331477108798678
-0.309200466055982
0.0425183165550783
-0.219122133086958
0.190502221551958
0.108048240937315
0.0494527190688312
0.218292056451688
-0.354976891938121
-0.160008344175298
-0.192928644219846
-0.121655040244411
-0.03440735730595
0.430318832775598
0.0916886016435009
-0.00429010702655765
-0.278596015676509
0.0785699223204918
0.290305047467118
-0.100558048936319
-0.315032749740123
-0.385606934187373
-0.277652811179707
0.160731998261538
-0.0369228382715456
-0.276759679009366
0.401271566560362
-0.409028990279673
-0.215615107098026
0.152381308485094
0.0736869997882316
0.400932013476701
0.411123558371851
-0.343586911374511
0.247781410695883
-0.448161176381708
0.0976257885795206
-0.204376234535303
0.272918497106488
0.0271197474112925
0.219705767584697
-0.373618271504033
0.208011806842752
0.0564368001812107
0.0433198001730454
-0.045788568656659
0.420107556763598
0.0938423299535653
-0.046727319327266
-0.080478001535835
0.212510834457877
0.105864621730911
0.4851304090891
0.319572105659339
0.0648519387196304
-0.032906932406073
0.436125925869643
-0.230504657647304
-0.26774173706657
-0.39965054899844
0.324325503541619
-0.317849278830853
-0.364049920283281
-0.199574315780576
0.187429982091966
0.113155008579211
-0.0990572870533668
0.0939848290645717
0.195848241386532
0.31894354187281
0.425514979873891
-0.292645356450876
-0.229309306861813
-0.479615400165358
-0.454324295888241
-0.102047529082642
0.142287960444129
0.581087362103354
0.079206903275081
-0.146728023534155
0.228223301195332
0.0243429203348579
0.392220630362993
0.381715889101894
-0.0156744739536564
0.218727827978953
-0.101270053968256
-0.337127754990899
0.19256742392395
0.398338130627916
-0.253201826360636
0.402720133728683
-0.439789874457006
-0.0472961438574345
-0.302893978406077
0.0125924732745314
0.313363367074599
-0.172609319558511
-0.308304594448816
0.703067920220247
-0.123538704615798
0.520091438906235
-0.194827158965863
0.0529498397361693
0.172738226300674
-0.0584014316200879
0.730936277735192
0.2860773178377
-0.333553307943295
-1.03500525992607
0.00523863569055282
-0.0473697771257052
-0.298986875262991
-0.137997511086839
0.124503169547932
0.331554752359498
0.346278244631897
0.454831524432551
0.143875660208927
0.368292541181805
-0.498335113282471
-0.461143404827924
0.177051522412178
0.028650185046831
-0.114962928848749
0.0407440041367452
0.234591568658425
0.76169672173211
0.297223378621202
-0.320656383484637
-0.449002264612798
-0.138225551071231
0.257743645211652
0.317537905795133
-0.120805088609004
0.270838679843433
0.00325945916214403
-0.0686147297081569
-0.473512346944688
-0.628260824863154
-0.18687765546259
-0.107055570656807
-0.38672983124051
0.320307395443348
-0.338327996091906
0.0585930005861819
0.175115694460911
0.0416449683446647
-0.152817155299117
-0.0690337312884564
0.462754853367056
-0.413807018235598
0.115978720806973
-0.0771607862890657
0.128130998125354
0.390906430216686
-0.228916486098397
0.142131059580539
0.170510172053044
0.131322793579938
-0.470257024384111
-0.122774447742152
0.137802264582361
-0.0492774730166921
0.304901848090484
-0.429229841952931
0.035731964705504
-0.13307384327871
0.0170666974135984
-0.37561359846978
0.178282183260526
0.208565622059204
-0.241840231437011
0.0871054465593657
0.465415645703716
0.101716773830151
-0.311050303211908
-0.514517958013928
-0.400855974937953
0.0259613272423544
0.080232700992449
-0.727558559660068
0.56247036841436
0.340075723211265
-0.667270890368754
-0.477272293872769
-3.06603943112528E-05
-0.0843431336501927
-0.101942777050965
-0.429792557326249
0.16998582020162
-0.174905926398459
-0.18096484933412
-0.0429098973156879
-0.480591454259933
-0.564611176608258
-0.0143783327984759
-0.476290690974157
-0.488213773079655
0.0462983711096048
-0.140326845895597
0.153253004376181
0.301296557469546
-0.106228824556273
0.208221556892859
-0.319305545224189
0.0501647035204239
0.357445988456501
-0.874805772067023
-0.338853649274263
-0.413359733638807
-0.00608384645411489
-0.123151839793664
-0.398122833214559
-0.0426419813645348
-0.74590402038531
-0.411110208794834
0.00940658175673371
-0.227408017193881
0.0169614037744778
-0.302880149704713
-0.153080570813157
-0.144869380423146
-0.168917032424206
0.0508114586664749
-0.433249665829336
-0.21162795210555
-0.0548257336200476
-0.0464542910003351
-0.0827250362549468
0.199102855210222
0.365296093379326
-0.0475425654410911
0.198773349606294
0.344350880526444
0.284226868619475
-0.316700260462854
0.0541448963934734
0.112527365601558
-0.387923757210155
-0.0964232741435867
-0.165237910019809
0.546800100291158
0.158501978342436
0.0809938378385902
-0.57492311943655
-0.196987864445624
-0.52707298091236
-0.740303332684334
-0.591306236834477
-0.178348817206692
-0.386810698004831
-0.486936855792214
0.1083477219804
-0.509776432660969
0.166818176579591
0.0471642936972245
-0.407729885824666
0.0335792734393897
-0.262836332282677
0.3789268284905
0.081381731777943
-0.000550261847195862
-0.0668644741449891
-0.112807808762972
-0.349051373575929
-0.403322838021548
0.530369613080381
-0.0705098668167097
-0.27170376009149
0.0677779382498849
0.128469269296306
-0.371240735856246
0.140724315786143
-0.373499933341164
-0.0630158674852093
-0.268886530183912
-0.376290737938852
-0.383578148201313
0.484514145669624
-0.421263973622989
0.0715474033152382
-0.154888046907961
-0.305409011674358
-0.179327834023173
-0.0744705951615181
0.0918590940987374
-0.426420224220941
-0.488104848867752
-0.481553314808414
-0.254294474161844
-0.0826084167563908
-0.0814164760289403
0.0832961552536653
0.407670784367663
0.120183535010532
-0.0203356020196452
-0.500312826349697
0.0183206658505273
0.645765343597993
0.1389441638441
-0.207905799731299
-0.162340862370442
-0.158647249937281
-0.700220786274207
0.300398459261318
-0.323932066877049
0.272063508986242
-0.395663774591985
-0.556891813489308
-0.482015831801602
-0.835056707484518
-0.408545281144113
0.141158816623996
0.170543361809599
-0.313158794684875
0.153924921357121
0.4604071803032
0.0672819803534621
-0.485780728975259
-0.271827616416973
0.17356215236603
-0.434495468246859
-0.760215090162283
0.399663777708292
-0.357997429969683
0.259111751973058
0.384589515670278
-0.132612875110866
0.817942561457691
0.132010311781468
0.206164184522144
0.916548843008485
0.475638400354886
0.170160974187229
0.0918894159562718
0.00985737322190113
-0.547588197230644
-0.382887585883372
-0.359519470468835
-0.304940746682841
-0.250468554526417
0.486957809441534
-0.382057071142857
0.258561468042797
-0.355744811056868
0.256039993371273
0.390143058164793
-0.569154160866388
-0.214029560381423
0.327796520386395
-0.414416755607645
-0.17629449067731
0.322223462557373
-0.0998646872905444
0.123988533962527
0.257485764714105
-0.105055081609774
-0.304966390886718
-0.260173410147294
0.210449802674819
0.774743251853939
0.865887559264694
-0.190482046824455
-0.364538568359506
-0.659634030717135
0.0202390427796089
0.505026537021427
0.23069350540286
-0.361605196969365
-0.0238736721720537
-0.140639320926122
0.376282127151998
0.238078101320159
-0.352605848851642
0.579999188181467
-0.166499590187491
0.0503600427032743
-0.321747370042008
-0.191039207368317
-0.0142695761716927
0.340858733489275
1.24018209416828
1.47157425717032
0.498388286682215
0.338886636979079
0.14260041410566
-0.29453264320143
0.508264555624385
1.38652967300535
0.279147008201799
-0.169427718243687
-0.07338984613326
-0.590446624776944
-0.301355218762674
-0.348315413273572
0.321764724774805
-0.334721666485804
0.410528294835444
-0.0608929244249252
-0.458772586149675
-0.0188624734371849
0.402817951796732
-0.249305683645189
0.133252638409561
0.0970302656696175
-0.00183628420723128
-0.522351416298107
0.683083301373865
0.0477336488023528
1.09278175203304
0.90569684474149
0.267657221820981
-0.46228015005013
0.326492719089343
-0.132957426682911
0.693297475113306
0.556213111046227
0.300810323387556
0.103588360665907
-0.530752769612933
-0.209618027742326
-0.382953593031305
0.15098073068622
-0.201314030511723
-0.589933913758852
0.159536528367015
-0.180940663617979
-0.349253291742504
0.237554463381224
0.362515612264381
0.424639932465577
0.247726626635119
0.160881809746085
-0.0733538155118568
0.328619250394921
-0.056144319715889
0.380218600171485
0.589620335077062
0.640952811668639
0.494529405934904
-0.447107604564768
0.00605896462124193
0.388340329424851
0.0247255263521103
0.917689735190325
0.654937697702774
-0.533356461768709
0.0023376329116215
0.388579571122185
-0.633051257860546
-0.377204232447085
-0.00631974953581133
0.428361962963123
0.111044585068593
0.386418057552734
-0.433275182657822
0.235172777675815
-0.245959049336342
0.493505798340375
0.206283288051087
0.244622982573431
-0.16677968044757
0.0981214139729924
-0.822642822716572
0.329491696902486
0.717648778971026
0.105156860257687
0.427347816558354
-0.295590175266632
-0.0405970489592605
0.268993909734586
0.0358791164537803
0.242664647558406
-0.208145983418545
-0.166109769501122
-0.176112278757932
-0.30543784793514
0.274345285446591
0.296023768888099
-0.139811723642729
-0.258009620887707
0.0890446040477673
0.292787357297513
-0.43541522863431
-0.12666456906214
0.418701563632208
-0.565333532857754
0.088526864345705
0.204092161709916
0.451965911484731
0.383531996551091
0.240575986071093
0.656232424389978
0.423662500277232
0.5782935856915
-0.37603689163968
0.174341336380409
0.156103157065327
0.354867214508209
-0.108594728476619
-0.310488692155229
0.46523333116207
0.00321081087510355
-0.0964644987350326
0.543657104522561
-0.242648924849583
0.375521219978758
-0.101990846467981
0.0805042460926394
0.0590226434486305
-0.459349628518964
-0.0834238018208574
0.153775260345207
0.174503059103171
0.362733438898501
0.359421440571029
-0.0448072839155755
0.623218902136525
0.344132227988213
0.031061104605904
0.776350096924847
0.224439533287812
0.145054081395374
-0.00051017266465288
0.549472159154459
0.273504908934471
-0.291033724840169
0.175310385797847
0.645995547590701
0.523344872542439
0.537258462159538
-0.161502251777169
0.149686630548313
0.0429164341750601
0.675768445698161
-0.121375204675588
-0.342039005720257
0.441779153878969
0.301526187360997
-0.410559658505257
-0.340551114031773
-0.250765138941022
-0.494586200446387
-0.138323776001696
0.248733819566541
0.522876835948216
-0.346440639032536
-0.249563459173302
0.623342410422835
0.574032802800112
-0.273374375757576
0.0454001121556956
0.443740014521268
0.619096855855267
0.4153754379253
0.667615230954709
0.301534880863811
0.326507204631277
-0.124767005542514
0.129797643248908
0.00382153981763572
-0.197747428839001
-0.128416157665039
0.277329320494075
0.364344860127721
-0.358506028423708
0.470522257606196
-0.114656016698768
-0.0962710051005864
-0.311064438673198
0.0783172370291024
-0.476291544500465
-0.314315659340689
0.0135121923307499
0.0637526958930091
-0.568259264251835
-0.10885068303775
-0.288428279061141
-0.575243361253109
0.103982545584616
0.0509884420275959
-0.247577795498942
0.347532431904738
-0.00955470357539934
-0.103393027136333
1.05458234365746
0.133331835096614
0.54572721347188
0.606625769745198
0.632226007425193
-0.206354435210061
0.143136958997639
0.365528868004182
0.42325361405426
-0.0415934056535714
0.086783648044909
-0.00353043745129132
0.388468853342085
0.57558983867092
-0.0823289217136627
-0.244377518974733
-0.201828126836905
0.487855310563778
-0.339207890020837
-0.270755175580216
0.251482429087268
-0.0868968417073066
0.149488571151254
-0.599245798192758
0.342804361392763
-0.344569010272952
-0.397831963048785
-0.0296278805102474
0.323378167805493
-0.0675641094785294
0.00114033137442163
0.132667642541864
-0.0407761940915943
-0.0792912538701308
-0.074055294987019
0.102672586689207
0.486074074732708
-0.468818383742505
-0.0186738285788678
-0.398867685562505
-0.0320127949103876
-0.1463337697929
0.215266243669982
-0.628328646231959
0.294613638953875
0.111952439729893
-0.224177461848486
0.562551635422672
0.217044590651985
-0.520563244402199
-0.411761184234157
-0.203540757280108
-0.430881801502978
-0.610090338139584
-0.0457000209827345
0.32991112353464
0.229437894967157
-0.0434567080592245
0.232901629931342
-0.205901272911775
-0.187080849050115
0.0291441749291323
-0.128985485699116
-0.0437896425822971
0.220392123200182
0.433886713317543
0.401483629318645
-0.0413670935338013
0.219409081334924
-0.124953356284642
0.260451727788082
0.437423348650691
-0.0973303418386888
-0.350109746265561
-0.400525475460858
-0.520028061814522
0.250703662072425
0.14676016052968
-0.0323863334395919
-0.433946074416629
-0.0585588453206682
0.0180122671254354
-0.454036444005642
-0.728648441126646
0.153949466181077
0.155510490622768
0.323277024245171
-0.110861393926331
0.498086247433732
0.0096148786794077
-0.466311943333781
0.282078821350718
0.366122008238976
0.0627282925707886
0.46700372638507
-0.488578826484905
0.0503094520247224
-0.109424116112951
0.277676793411512
-0.166721039048814
-0.454372039586361
-0.399538377257904
0.164166339588495
0.314437211013006
-0.347028934127083
-0.0574625007995659
-0.288909722592014
-0.36525938367301
-0.251107073100473
-0.311748066851569
0.312410271032974
-0.440341842914826
-0.593087821373118
0.116262848616026
-0.0148309195221698
0.136321582986034
-0.0498022456182209
0.179892219021665
0.0808997120628359
0.280186659182485
0.0741072607106097
-0.316251744896291
-0.0668379145519984
0.24655303114399
0.0283028428067326
0.231261194540516
-0.278192207623187
0.225865853919867
0.364529545402071
-0.0573145525649659
-0.275625541423127
0.291276962858324
-0.259574017481755
0.198166282785675
-0.20916143855886
-0.0069636117037842
-0.0329555867723666
-0.20679804722158
-0.49859996318977
0.295818648848897
0.275079923148471
-0.134875179357242
0.306634255126145
0.401316961611606
0.0853379775910519
-0.218732435125267
0.18201898675506
0.429878546823691
-0.490302510089382
0.114462822961837
-0.189127469756234
-0.404464578211524
-0.434532529643985
0.473113195015909
0.0563575281415115
0.215574767584554
0.0829903454139516
0.299645653363753
0.0815767619264496
-0.120508621182098
-0.372047282086746
0.0353353312656864
0.472603075316696
-0.0737128056020733
0.362204359864099
0.41000970849616
-0.158548723707052
-0.213407418929695
-0.432803896876129
-0.422659044868823
0.140343413604792
-0.037772237117088
0.209846778021934
0.314040357626062
-0.340589101817733
-0.148245474625493
-0.00752131105750858
0.170528198904604
0.449335217452298
0.239792880015351
-0.449531583091957
0.449306079628554
-0.42282448239756
0.281768482542489
0.160298469783877
0.478983123311299
-0.338101379963617
0.256199858969171
0.309511789497692
-0.405257319115215
-0.457658686758247
0.0925863978118456
-0.118377994237994
0.306375927667309
-0.167621501101005
0.0911593989427943
-0.105166391751341
0.118330149267954
0.0091936711730406
0.0897732039865913
-0.145373876507102
-0.0401798433345649
0.311270701145414
-0.439617139259175
0.421979932543812
-0.395718361202496
0.0686694837960738
0.00598131283464898
0.273766763402972
0.0513309540931746
0.0488102799644108
-0.207206162140859
0.107036534745128
-0.440072435308508
-0.26273621475148
-0.098821721722941
0.340487148278407
0.493239860730518
-0.228199171188305
0.401498073428142
-0.152182422401609
-0.222008847496965
0.44543743675019
-0.417266567796822
-0.358180325426446
-0.168523071417284
-0.48039554466542
0.362283471534892
0.337155150140736
-0.367084783905691
0.0594265188832891
0.281643332346176
-0.113413641049254
-0.0227106607159184
0.112755229516307
-0.282794543906485
0.136483495885731
-0.217669814181515
0.414996619968545
0.0674001332060764
0.201576509953656
-0.0215981729577185
-0.0487814735618485
-0.056719654397593
-0.170707037205607
0.133438033269716
-0.171168687995364
-0.35153267067827
-0.422151412841045
0.0926899767484313
0.370503698250752
-0.0917414017189399
0.174199503439713
0.103651663715566
-0.0138526245660528
-0.367599911358583
-0.144159206838967
-0.300824197384165
0.0109070866760086
-0.192847153028868
0.173139505867446
-0.425726382958575
-0.341269544717516
-0.309217545115025
0.467592628324731
-0.153160040511644
0.209261215649476
-0.355838671504013
-0.322468622210168
0.370500342496847
0.255864699084913
-0.0594725377370188
-0.0719850772762372
0.0102718310608726
0.0117678832672228
0.267268806688743
0.455975129364746
0.422447443373789
-0.103553697430072
-0.198943836506462
-0.616678342075219
0.111336308272244
-0.0821849247725489
-0.345313483032125
-0.303047655680464
0.370342483707543
-0.434080716722323
-0.249391636694498
0.187946113146816
-0.211750721424702
-0.0425609329658401
-0.32471623123843
-0.212859643117742
-0.243637893971167
-0.235206626691521
0.391213314917165
-0.248938963983935
0.975297978023176
0.405526844596518
-0.209780624708312
0.337664866393267
0.326642290922346
-0.319456201370891
0.350562799443554
-0.000883161409260337
-0.491473439986885
-0.181186527903006
-0.013708760453494
-0.664226129079333
0.04565361713931
0.0257377654748957
-0.400887367244717
-0.290003358859585
-0.295465615720234
-0.229658651108513
-0.127628112302451
0.270244650901409
0.322869697968881
0.224290859291465
-0.00875238662786657
0.0821362926158174
0.447490872627918
-0.142735343616706
0.0930954305203628
0.318029371194317
0.637324340956182
0.586696637530859
0.0199767214297091
-0.207635103506847
0.0660252329189669
-0.302071240602411
-0.121001110435108
-0.307666806747216
0.121360802403135
0.336041126470636
-0.339310616239095
-0.501947748849634
-0.730670166641857
0.222557902536383
-0.160426565487791
-0.431677427270489
0.443475721281822
-0.197061306682186
-0.128173411218418
-0.376679567963944
-0.114264036814805
0.0733219729929043
-0.297858664711165
0.526742337210852
-0.207294785072165
0.57875116208652
0.538420985802843
0.20062166299021
0.254980066017154
0.058463688760386
-0.0567211398902073
0.496547941453455
0.537995748265871
-0.462869715208266
0.143991704008734
-1.14086796215267
0.163263091558254
-0.711801798765759
0.310499614859177
-0.0765293263746982
0.0840505181125908
0.119577862404518
0.123246665275316
-0.147810562919632
-0.352351386925961
-0.00708400964336208
0.389880706771318
-0.0671107756645784
0.383743335531523
0.163246215089452
0.300212726466002
0.474885852007671
-0.0413350507912292
0.573442996901145
-0.10648858828525
-0.204888708114841
-0.658767263126352
0.217819313714521
0.122814297682307
-0.281322063364797
-0.400247868581924
-0.181849828413603
-0.341242607275046
0.0913061729969907
-0.339135113360796
-0.143161999750886
-0.310681348118674
0.00334754810015324
-0.129322103733829
0.585556043061632
-0.0679386990301345
-0.126626536549354
-0.900343701888116
-0.455506175790462
-0.483048414936642
-0.396579047323942
0.184211952557353
0.251578308397381
0.0122102500878789
-0.224244205918331
0.0910409121958808
0.00821805764764279
0.25615083188447
-0.324636074411092
-0.166970737474807
-0.41468011297557
-0.524857153994681
-0.266082067291411
-0.851548520510873
-0.544293255329486
-0.256162973233187
0.9193666372477
1.1042322482727
0.46495079437887
1.19356155554613
-0.142589073189275
0.049763818797919
0.547225995439763
-0.263199457744553
-0.740757880436969
-0.710504374823743
-0.481664276236393
0.329989772301173
0.132102995624033
0.387814147889399
0.241883265117302
0.269632582093541
0.318020391127182
-0.396287919785438
-0.0682856143447865
0.0422674519395194
0.30981266921397
-0.432335943513878
-0.201502174767866
-0.770218929754243
-0.632451236301876
-1.33474176176753
-0.0729005154643848
0.552200882214247
0.472215294709389
-0.0829058705246396
0.733197448391847
0.328880279880047
0.0361870967813857
-0.483460141846573
-0.458825341428877
-0.221961600324945
-0.52440392559237
-0.874518860835335
-0.375132004301159
0.0246235652784734
0.00502455214427012
0.0897412230620091
-0.258084542066214
-0.191628553580486
0.110634266775361
-0.332585967373923
-0.115430307824724
-0.911356329811197
-0.326433691210271
-0.613959068978753
-0.411391335553575
-1.16402466688043
-0.0818620412783563
-1.2632118517648
-0.30352705079224
0.642306089969838
1.20202977351399
0.311531087955787
0.389218537890812
-0.269543102686583
-0.894854591898152
0.049163821021002
-0.694263447627064
-0.145766969563239
-0.721207004057357
-0.497039550027921
-0.213970874769047
0.486990281381402
0.118605322410701
-0.402940463385416
-0.314749409314486
-0.313027721936854
0.133070324488482
0.143889929255045
-1.08587998218314
-0.70287590385814
-0.906249719793648
-0.959344389406147
-1.30613176289235
-1.155295889977
-1.08723180108156
-0.41806170013046
0.159749594756916
0.950254403330423
1.00644472445389
0.156627303235764
0.228068496506922
0.140311666984724
0.41028698354133
-0.683875526831866
-0.0531217776720223
-0.743047818110911
-0.127636657754391
-0.723801162460823
0.40350073237026
-0.278320550120914
0.371931380941657
-0.0710016123815447
-0.416849866689322
0.204214053520953
-0.0432504096564975
-0.301653596560912
-0.741458394493479
-1.0367798536498
-0.906702975384593
-0.737936727523283
-0.759362773397599
-0.777192026418591
-0.519942655058804
0.293757982683293
-0.378067683104921
0.290679489864106
0.0532301704973219
-0.717718778238198
-0.0532192605347591
-0.51649918644206
-0.227274035264507
-0.143625601257756
-0.90903876579332
-1.24326844066013
-0.482734043553654
-0.0710852828944759
-0.232123876676751
0.0345805080361848
-0.360607671082674
0.398828810965097
0.253838501516537
-0.333855574792337
-0.24342943406351
0.0467361557735377
-0.62643282208023
-1.14487140748703
-0.817271031137981
-1.06387857756585
-0.0101885456227181
-0.23825834154596
0.675134186879347
0.18181306192592
0.0147579069201985
0.285641259808372
0.570439399318497
0.421205756105509
-0.0373145072659276
-0.0247333737836171
-0.30354378625836
-0.514691963561681
-0.0938946771078353
-0.781807937532169
-0.549282304752285
-0.49212165097692
-0.271332868382776
-0.0715137135426373
0.493328855951165
0.172398580821665
-0.455218507022421
0.115212974568004
0.0101315989279507
-0.0194120778522846
-0.528070774452093
-0.18220781460026
-0.42862356987308
0.00490454050808143
0.215909119692586
0.268349104654727
0.225252175044242
0.0178941063711177
0.352565730138637
0.0148799269300316
-0.0214689305109452
-0.784430304709304
-0.0510835129654178
-0.230913577729542
0.0623214812916818
-0.0982730733054243
-0.00821369728647183
0.308431396979449
0.243474870343551
-0.161351635347805
0.199505032605369
-0.0970322603082193
-0.381895692596061
0.0893881351298152
0.0458569472269737
0.0526591796132334
0.329069046835281
0.0801491268109119
-0.536416677973357
0.0268734210905719
-0.531864607922637
0.214298040821024
-0.00493623647699733
1.17563080909024
0.208660863700427
0.585822030907703
0.777193694153444
0.259288772987335
0.112937390847916
-0.252954915421531
0.454833020846436
-0.339456499461345
-0.458908568911115
0.399002291716853
-0.408833752346377
-0.101248975710154
-0.530257242257058
-0.134436983621167
0.075719800702404
0.429971556197626
0.00419454389639652
-0.00212410891032593
-0.35844647324327
0.490535646208448
-0.392401557853102
-0.177415672557086
0.0648427410061519
0.173826619924097
-0.0746071859839581
0.480980242001053
0.53776225868342
-0.431657574221784
1.24318091074183
0.176519960705877
0.508643183906175
-0.25182370085226
-0.0143289303229467
0.0980115024449144
0.382614252855058
-0.0461224157931469
-0.128750230073337
0.382890410805332
-0.0868208061937879
-0.358393775747404
0.346019557826919
-0.0918199116298428
-0.131529482099604
0.139228477535685
-0.050959455451152
0.166565756158235
0.498135985358557
-0.314466221795286
0.32569446566681
0.423822224970899
-0.492550859087615
0.0317824444783119
0.388300687310622
0.0933010392634121
0.320081048250412
-0.653829599562614
-0.314531309326205
-0.0552248277483217
0.174899227875142
-0.466370612197587
0.377596656288228
-0.576376121199024
0.0694802133326322
0.327652677958713
0.299089841382726
-0.196043001047791
-0.359961767790642
0.522200389581113
0.336913075415726
0.028200438157499
-0.407172397508662
0.218561444360535
-0.269802448789227
-0.105651817099549
-0.129671827398423
0.147073116727675
0.550385257175546
0.593582234476602
0.13193817655812
-0.386707713275052
0.51203818763596
0.298400828203582
-0.404128311810039
0.0851302357104422
-0.506209014055031
0.120052091770983
0.591093899691678
0.138639714721705
-0.179476387995189
-0.793430873965546
0.527853863397264
0.321479176566453
0.28912622668022
0.00360274624455671
0.452713847399248
0.182131834912485
0.558907974352594
-0.190012095943731
0.118409370280396
0.22055744726704
0.488511226958297
-0.0477172273899043
-0.208499352231308
0.206544696943909
0.49022837881485
0.581886198302271
-0.234514539889003
0.27321822777961
0.361951879902984
0.75944188968221
-0.112287835358955
-0.51871859510167
-0.650131091390453
0.0701960973412448
-0.285113821483785
1.40907354673546
-0.185496315894312
0.785787516839877
0.186688892649761
0.160804672100146
-0.541975448514688
0.624613274922274
0.224669231099985
0.495317737241748
0.36653106705462
0.0847368993103164
-0.119239061723207
0.311186720382291
-0.262607379338286
0.0336173123370936
0.213816205614767
0.433811340234779
0.419911310295854
-0.190323661501879
0.279181185716342
-0.169347761530796
0.521567397773439
0.130254264888103
-0.253048344875337
0.00254247530346535
0.0824500913734403
-0.1599748305173
0.526858898535817
0.496638636105101
0.434983095032029
-0.0902800151883678
0.0628566792847037
0.226787876600573
0.223869585315601
-0.0105000732465288
0.488311143522854
0.793779887913564
-0.383873202697167
0.511009440865457
-0.110750122298299
0.275456663747846
-0.313023329643579
0.064975794855802
-0.343246695101419
-0.384805206887027
0.640902596863186
0.236450766755757
0.369731844531109
-0.082122353304158
0.523174128179596
0.780002594497058
0.622729727493927
-0.17087161842648
-0.15163003295287
0.35404305023627
0.157363628059967
0.400131016026018
0.338656106166249
0.791189280597133
0.273592587858441
0.199825433723284
0.188237056083153
0.955526349793096
0.384629494846073
0.373692885541232
-0.129065727187268
0.114117214127468
0.437248665104391
0.440079691465359
0.0886568743889703
-0.281367195494082
-0.29686800613171
0.484982760951756
0.22678246933375
0.198798821377562
-0.107219868870824
0.454856440459174
-0.0535814735024983
0.0100754930316445
0.447327455873887
0.151059505562324
-0.228737908998542
-0.398672412111903
-0.644978437922982
-0.274915453553233
0.0393247479300071
0.39307393734603
-0.298847515076561
0.140684042259337
0.381233674820092
0.128866959064939
0.286030024741213
-0.28988146255252
0.22101871043365
0.491101405959883
0.0324802092262376
-0.0433992991915037
-0.0920373327789599
-0.143489246556298
-0.438809026004192
-0.0480418425447866
0.256372134607529
0.439250216956043
0.0417772325852683
0.209180761468687
0.0267911070476283
0.0933824819143631
0.403382765950886
-0.230145039067353
-0.88617360759162
-0.795444191987004
-0.758022171515699
-0.308338367876855
-0.882209026990539
0.355453765004696
0.88755446704288
0.389132537839121
0.497545089975458
-0.237990529196441
0.518931081346716
-0.0875777337514873
0.304325762001829
-0.063789338479068
-0.0506904431494795
-0.174990930448573
0.252051454387629
0.286877882101982
0.111324111284373
-0.305846809883027
0.139312807481782
0.0302441787853212
0.672943057252246
0.59615657189608
0.47798662409375
0.306575461724087
0.410764282225176
0.806351547187205
0.535069052582962
-0.359123958136493
0.173493256871978
0.318597241800257
-0.447418496793496
-0.11398644849882
-0.212072820783476
-0.59009726366661
0.00353334169460195
-0.0174028677823228
-0.32418970371675
-0.402224458791956
-0.130846686668178
-0.267384169961401
-0.189826326155066
-0.422600651473797
0.227690496820812
0.372015635889031
-0.118180311107161
-0.355051692293881
-0.413928033785041
-0.0262084138459805
-0.195604710462902
0.203694329363133
0.460330317165691
0.00899533131056902
0.0306782691825335
-0.254565104954248
-0.102069765088822
-0.459758447410531
-0.477841603260389
-0.475931965578893
-0.284025473239676
-0.275380313092358
-0.48382795088562
-0.45991875195613
-0.35986083239044
0.174179217344432
-0.585076913726522
0.238337873084862
0.0644666513564815
0.0104182432790321
0.023151048197181
-0.44703255828129
0.211019437625548
-0.0225194904592445
-0.0411488607251779
0.358983536185223
-0.454154120230618
-0.200079790044427
-0.454330267580504
-0.13090676515579
0.308012245159067
0.028720094085707
-0.0930199615968622
0.225670341363756
0.201249395529708
-0.2256652757438
-0.615723779543472
-0.519219915593613
-0.0526804573203563
0.325418099590621
-0.379780421956977
-0.177909597882067
-0.208464712585238
0.274753651156824
0.1035919459786
-0.181823346153825
-0.311840014488978
-0.366924200610688
-0.0838431937544808
0.00901031285012621
0.124750394665054
-0.0627464920108889
-0.0435974186023685
0.472840919146706
0.163624864380632
-0.390317001447412
-0.282707169670129
0.428413449751787
0.0286140546501217
0.289047273207121
0.477016258041266
-0.0210493227655866
-0.312006926606274
-0.240706234428854
-0.464146182208657
0.347932437749999
0.410992992484335
-0.428666863434946
-0.393521762692158
-0.467506168090135
1.44467047218057E-05
0.237958248356688
0.330311704815847
-0.187491285723195
-0.187550831340849
0.443227417740611
-0.140613755975204
-0.337061061913642
0.271555788242983
0.25799655716773
0.444810352262487
-0.346232142693471
-0.0775965855352564
0.317022956356883
0.262632684205953
0.448353671444745
-0.147924068685586
0.435036957699357
0.0126355153101662
-0.266084459501358
-0.234985797542606
-0.420774462931042
0.0614473607770517
-0.281106691773282
-0.316425888690722
0.11927795206163
-0.33887524289958
0.11856737202898
0.477966108814797
0.231406291821695
-0.36459353792695
0.304837959727663
0.389426949848154
0.142555924897341
-0.4987388723524
-0.285965735458753
0.00473175314475394
-0.290956505942604
-0.134001923088917
-0.238705814694383
-0.250481966301092
-0.484059247646508
0.396232521830014
-0.338198181712849
-0.122495323935077
0.280414971928948
0.205142748473327
-0.417964022751056
0.316833036732258
-0.286857541646466
0.127064480564225
0.546734614545397
-0.364066433383732
-0.293322628857975
0.129242518101986
-0.497152834098779
0.095546151734359
0.0704285304043715
-0.137772635530585
-0.0317493176185559
0.395895363358289
0.0135413522429492
-0.293253165573465
0.367263628573745
-0.234952919527401
-0.209043931080515
-0.261965443269334
-0.0446446065533183
-0.159371625007769
0.331342645641494
0.296501939910265
-0.236627626628268
0.30386246869555
0.0384483380470752
-0.159145180463104
0.154877380623895
0.43426717798234
-0.127099016691652
0.31956769404851
0.042400733122469
0.325748533094677
-0.434730443809348
-0.267285487298821
-0.246403344758164
0.157260386898576
-0.340226545162634
0.302553472375807
-0.276387930488716
0.139085135574237
-0.0355533520459188
0.151558652800061
0.00680194446202453
-0.0139644753718584
0.415617927869604
-0.398030701045893
0.0162641836871692
-0.197629371903696
-0.0156254049543354
0.223155139881665
-0.340346526336073
-0.288345292020979
0.223632290425949
-0.161328663019359
-0.518888412238214
-0.533944180470059
-0.397583165864158
-0.149754602392328
-0.480641942555101
-0.533627010225932
-0.509312459712313
-0.273817495110293
0.475344451017754
-0.0328606108569754
0.275531641476363
-0.273124316526509
0.120375912005136
0.316526027027392
0.311892533200684
-0.425913190404008
-0.315354124556926
-0.266800859368779
0.00958387577421216
0.091377656136984
0.101211561170039
0.0737959002221779
0.22034885359606
-0.0734850873473291
0.0657464630923142
-0.379653449840017
0.455519531315269
-0.0242655525931349
0.214270750051726
0.239293181291747
-0.118511199819047
-0.626856947378652
-0.207318838498893
-0.376032759199064
0.0240284853913284
0.476119723798274
-0.14680388113875
-0.195595295828093
-0.0343987917828709
0.346199458409919
0.451616714644674
-0.264018373120163
0.502122248031813
0.0330661557278887
-0.0908252556754836
-0.332938915506443
-0.498374824877072
-0.380948297158325
-0.0760094750459214
-0.0259277266093732
-0.044339954825336
-0.36701196104517
0.299296721076422
0.270396285141342
0.865073700172196
0.408018054799135
0.0362733697279883
-0.00351288169770521
0.73071736805131
0.157989868277007
0.448467721354771
-0.564731193906798
0.0420772268475817
-0.106619543205518
0.662810129767526
0.171836878559266
0.619326244757381
-0.191413319741844
0.585608508854876
0.0111957319173141
-0.401366011474539
0.395811400665733
0.199325309859208
-0.271448587684486
0.267078650075513
0.116987392658948
0.233532721452819
-0.309696800172866
-0.135776147266932
-0.177842905252153
0.157819336095791
-0.563940548249132
-0.0856060421793196
0.169449158915072
-0.0660432431338781
-0.893127738104465
-0.105832198454172
-0.338316597496637
-0.56946970802757
0.466302146625593
0.304871932847003
0.451944229860426
-0.164833293443227
0.483426924471031
0.457308462529956
0.531704753890226
0.711079605143644
0.447988062286527
0.311376046708476
-0.325784339495054
-0.456116757596106
0.279996067580888
-0.0585077613799993
-0.227477428428543
0.0527942784828821
-0.374455727838095
0.199445059508473
0.0531515139487841
-0.0143123157708878
-0.383597890173354
-0.772617548259782
-0.63154283331098
0.0369377182568526
-0.370569490723835
0.113118513441039
0.0974989618907295
0.15474334774497
0.023802463491727
0.394844305763529
1.05479572268581
0.473240847495469
0.688590525692279
0.138302256760769
0.256615553875883
0.181138640777636
0.356600308178917
0.0772904800030156
0.17572173520114
-0.121511181459337
-0.42583863749698
0.032864596809743
0.489754891032545
-0.151761505594129
-0.233654273590349
-0.143802383914138
-0.300241567259461
-0.696996409690789
-0.426386546020805
0.114706918106084
-0.209345473124751
-0.143728914216644
-0.152026427167224
0.0642139658917657
0.195897422090685
-0.0659740585282817
0.153993873439342
0.687071449471032
0.484502438146301
0.376260004220899
0.486049653662711
0.140948064373376
0.216591676561138
0.354368662900717
0.363044923763781
0.250481619239551
0.450330789317251
0.167451256296013
-0.300797764207703
0.451377781935333
0.196615139705781
-0.122418945814032
-0.295873558375411
-0.316537211481863
-0.489140786713345
-0.509599893543969
0.278809711085476
0.203788032899064
-0.357343044565934
0.024482286278409
0.287162683828705
0.0180767993509754
-0.0436508718161279
0.664346803424746
0.376584381112908
-0.368668373083658
0.604412007511037
-0.238764219540187
0.314706999236995
-0.0336017372236077
0.255859447994967
0.74013884850266
-0.105580927112923
-0.186777726781091
-0.0234611060634307
-0.129262482492153
-0.277172360806555
0.499551716759221
0.149867822162129
0.452217016650256
0.0894330582219139
-0.426050233535613
0.316117045424093
0.148930259497543
-8.3372242234446E-05
0.409298895725265
0.304231180579334
0.0870594750082683
0.37601553653523
0.882080059876803
0.263205004186918
0.156637693108762
-0.0985282804816409
0.265615746883696
0.00786580326691104
-0.15499030568837
0.205473958152367
-0.133780366747582
0.121398160241727
-0.53231929150816
0.594291836933533
0.0554079895626374
-0.22318656531601
-0.180814893945815
0.43621421171888
0.449510319741687
-0.214991393272139
0.376470255640478
-0.140811308421634
-0.319203604774294
0.0672823468717238
0.355516074111548
0.522770709555089
0.621703551576106
0.680799360319065
-0.285920621420619
0.285331394223227
1.14732015557329
0.662736557569843
1.16555154110086
0.595707589137089
0.0824183698893988
0.104945052282489
-0.0969119725858844
-0.0378426715998513
0.496752647228176
0.306961398484541
0.172686337446501
0.238414723365468
-0.138973975927571
-0.231747694565661
-0.416824491768179
-0.272141205200984
0.46475451158581
0.087839960380587
-0.082904361429056
-0.0290819834384866
0.233638969305686
-0.251687454847027
-0.0467227514802706
0.564325958497724
0.470584246644109
0.517279016079648
0.437150474083451
0.276747479520081
0.311369163004546
0.355657806550489
0.579103367048155
0.155470545306212
-0.383088906241877
-0.199275861206474
0.392344883501633
-0.491334668917901
0.0170823723558044
-0.164315280695798
-0.0206622853722769
0.279193607614508
-0.0783344486559142
-0.378030789072286
0.393603284332504
0.131917455459461
0.0323896373307284
0.0706901883775715
-0.394819744290763
-0.270282349656417
0.29117635209305
0.0870601039653787
-0.0563445078774355
0.340899277857518
0.124273131816606
0.326145059678375
-0.275458994685064
-0.0556942185403438
0.646476201020603
0.938200223442527
0.54821899130556
0.0947799218226138
-0.0846884901914513
0.0259287057616534
-0.257100351458795
0.117762451580051
-0.0843084063221844
0.278920593884342
0.149053594585991
-0.154107995018935
-0.647436571452951
0.00434558644963699
-0.279678171275297
-0.386869815879289
-0.209998731090576
0.149014854770907
0.39568806441275
0.155806638725153
0.354315842723662
0.257600951427281
-0.437309264304273
0.23291571854291
0.0168254728847453
0.133640422788877
0.343265741228201
0.185983537290163
0.675315217048684
0.326744260712696
-0.570618598308088
-0.337371239211335
-0.312339600897018
-0.29127225355438
0.362533261907089
0.174179519725991
-0.300167261386074
0.415853021679268
-0.177203707819965
0.0737002184087079
0.296065792750979
-0.0884664880678823
-0.434603671931837
0.346623260863811
0.115706727223228
0.179119817791652
-0.175534414353598
0.240452203551728
0.347277550346669
0.212228227248744
-0.291172104303701
-0.0209779617479694
0.590241961278083
0.294975310930534
0.451534749699427
-0.403649614652328
0.712997942905134
-0.440632555624429
0.062704459379846
-0.562997849403161
0.252101979422947
-0.405006845946851
0.00735756474307358
-0.41967412338313
0.299270600619233
0.162240850009749
0.319389846681587
-0.421456105763362
-0.421615481314351
-0.00416747882401482
0.169365506881549
0.36892824240612
0.0598791197110758
-0.388036417017305
-0.198318494996954
0.0883807575376793
-0.197310282601318
-0.00890099149043258
-0.0330791120395138
-0.359888240118355
0.360994865692489
0.419245681758217
-0.522665649390213
0.464811559765053
0.761685354049588
-0.434005376203254
-0.553309603983923
0.114121934334097
0.00182042176015706
0.201462169530052
-0.0650566213555838
-0.414736929749931
0.209176333868842
-0.25408376713762
-0.641584979296708
-0.315272889115317
-0.00829671740058649
-0.129718009611411
0.0258194012577102
0.36461240332429
0.226810886397404
-0.400558826271161
0.302074274301268
0.0219118331106348
-0.354091254063466
0.419438422721049
-0.152501654837689
0.0699247091694306
0.00930265427375796
0.194665144287731
0.0770485710856224
0.734075884534521
0.414282112246289
0.3849925702123
0.581848298047069
-0.372225773669119
0.192649104868367
0.270879701424797
-0.143454080563443
0.125007448636944
0.0199853108415111
0.125434920736695
-0.358288412865199
-0.481972984983858
-0.0201140846379675
0.407257881339902
-0.316833653925216
-0.40206461071659
-0.310935866118485
-0.0550694452951006
-0.346134029382814
0.301553742777211
0.514556685342028
0.380949579842621
0.335015604395206
-0.0689074782138382
-0.422893685740215
0.345024838292126
0.338406487696849
0.345718723830929
0.041722199038324
-0.156711572230534
-0.107556411137776
-0.293394160401925
-0.164070546810438
0.0822785161059013
0.0769999840328962
-0.389597620379707
-0.100531515811774
0.457381288510246
-0.184970687801894
-0.777346931642753
0.0530919941579346
-0.402106682776221
-0.0534833227234668
-0.494668932139547
0.0451212527906155
0.429782890032422
0.0925783855436974
-0.413976295327619
0.056282017407443
-0.185505556022497
0.330202534997854
-0.203204845477553
0.685016769171825
-0.534309808677604
-0.314185042710291
-0.0258517993909781
-0.35146126963394
-0.257845715090076
-0.263016673307395
0.0030938799855851
-0.0929920005551449
-0.239537790484001
0.231324716490436
-0.0934854082012119
0.283693493526261
0.383911649418096
-0.800409200732675
-0.277108979722933
-0.453594012542638
-0.114838209032729
-0.0255739075366583
-0.189319279229669
-0.438031921600006
-0.332521149781533
-0.105551436590864
-0.110432033223272
-0.406405068011288
0.198350814892081
0.00299573608643911
-0.461780420254703
0.11699396553614
-0.503023602464866
0.186743142247697
-0.0170597794682399
-0.459364885379833
-0.290994005339537
-0.132465487815608
-0.0434659353795383
0.0805741905290465
-0.249514805128929
-0.171113651720138
0.366854046016047
-0.237570448769835
-0.528752277492425
0.0217432173598921
-0.597192558274028
0.27417196228833
0.284832068050721
-0.426657281016467
-0.48157304453396
-0.191105633038664
-0.481554935428969
0.267341097543411
0.097868855410022
-0.375799196097586
0.578566153523829
0.237086717833723
-0.0757495940054768
-0.330646948180668
0.321484327659204
0.0320735625807034
-0.0450871625095423
0.210076471382502
0.805631459407923
0.880553023975546
0.445153134661839
-0.362646559937461
-0.0266605465580353
-0.0110410968333364
-0.0137588186585829
-0.31633329151774
-0.61203198445285
-0.0492061152939649
-0.10444800258568
0.125119740568981
-0.531955538322666
0.434285992271443
-0.149013365386739
0.275451783311708
0.212423342785318
-3.08686855933626E-05
-0.112154854424655
-0.313260617930676
-0.160883952040512
-0.181702081984466
0.0806969025272087
0.00789992027460665
0.574856346594941
0.228256637005158
-0.21195975048299
0.533273412422066
0.747891883900404
0.478876566882723
0.366083019905212
-0.10252381365015
-0.116163632622628
-0.035494365345019
0.176538530849265
0.0378309100423629
-0.24410746416714
0.293872233543904
-0.424778834800791
0.406934298437632
0.156636523742619
0.0633044643823634
-0.114636269615448
-0.0699759510205947
-0.228227851785825
0.147241659916879
0.237640459274818
0.415838248788175
0.131325154438498
-0.415812326705016
0.493062224493341
0.471002963584422
0.430275004744339
0.64086277340362
0.404832077080629
0.0574711330828779
0.191182528284943
0.0872930968233064
0.591613431732312
0.434722485403196
0.0761515370291902
-0.22360095487676
-0.0686169371885537
0.286540501676081
-0.0856178298496229
0.457422450988714
0.527718398295349
0.390509674295596
-0.107970417526654
0.0828238287644069
0.379690341595416
-0.248621588455803
0.381766442154425
-0.465360450378357
-0.193250448651962
-0.324208358532434
-0.275340453510296
-0.314862018760649
0.371973604068247
0.0102553629137879
0.439732799974404
0.278103714408785
0.646632126568726
-0.147644404371692
0.521070262441543
-0.154216295451024
0.144481017207834
-0.115372221976198
-0.505438669342405
0.216339307308814
-0.368845564491787
-0.284803625340129
-0.160709751023713
-0.125614374354955
0.196716556950775
0.223795355521234
-0.0628164769739099
0.444299145819341
-0.464792900702354
0.22716242621055
0.179906262401448
-0.296428638866107
0.21163126233209
-0.273982224061901
0.272462751983146
0.0252326641201411
-0.273999198759506
0.135758414049995
-0.371320114755186
-0.253851665902
0.587016405667348
-0.101763343277675
-0.205055911926658
-0.272410992557852
-0.667583729669189
0.230259475524461
0.32612076262776
-0.165965316773494
-0.274797536951363
-0.425476529596521
-0.00546158188164245
0.46139225695266
0.428760518674763
0.250080432958826
0.461790670934068
-0.0912451119735721
0.363592424366433
-0.473120791825056
-0.236499128274852
0.467176321878646
-0.0208124267296134
0.0830764957735789
-0.225755954036929
-0.436489664863974
-0.17105069371874
0.325874955114372
0.19929878182044
-0.38761892159727
0.459060971718346
-0.339398168187625
0.0418999225936023
-0.218098707718601
-0.126875539223424
-0.177935793616832
-0.321510322762868
-0.0431437307098147
0.501676023217617
-0.252934895889676
0.299373839168081
-0.15536661121861
0.301240492582091
0.367956128841246
-0.423464903106664
0.455655733568434
0.429413156085374
0.00911732553928968
0.0411807180108412
-0.397827055257665
-0.395258769809855
0.419531807727647
-0.249571811080876
0.335534753025904
0.214484420883778
0.424037827916125
0.348878275101755
0.0627221751128111
0.186461548547311
0.301994489773445
0.0575155898402773
0.469040482191733
0.153080781588149
-0.309729581293878
-0.435207176859282
0.369653872086353
-0.392028964849841
-0.30784233747862
0.282724914635014
0.175125517285115
0.129614537970377
-0.00927383848897828
-0.492698332757083
-0.317598309282958
0.232896823311642
0.267289541087714
0.298391064069416
0.470562390038074
-0.306463940444618
0.128476628395019
0.279818103546192
0.0467736476784449
0.098849379270733
0.121312084897101
0.15980322643174
-0.348423315141547
0.241587745371083
-0.3643544661596
-0.427634654991766
-0.138485890878453
0.315788815535928
-0.252083120752165
-0.290782604734778
-0.428172701004973
0.156875387140026
-0.33957275973613
0.211296545207173
-0.0348503890143942
0.448022464731719
-0.259800708275196
-0.271292213709695
-0.361452464881098
0.236022781923424
0.234980057335915
0.0908092812592207
-0.204870724447477
0.0812941331329262
0.383846083136204
0.480569734060884
-0.392504738599008
0.464493259173244
-0.30748872747184
-0.463277878999471
0.154251281331731
0.100969654801282
0.225043149954264
0.157018928198657
-0.482385077267227
-0.00357615195882088
0.392761806437041
0.471019981890979
0.154768850388166
-0.237823804143225
0.455102224642416
-0.112136231305195
0.14740549921858
0.27628535723196
-0.403229191388576
-0.182448732053139
-0.275051958288556
-0.0963336618600104
-0.15775320197351
0.426613346173714
-0.0569868621216094
0.133355113041287
0.301755819163952
0.420812339720282
-0.281472426665211
-0.0229241770510565
-0.0210839072393435
-0.300620817821856
-0.0775642432673924
-0.146837226284758
0.447343131125994
0.177504084006827
-0.189790350919735
0.176833831726855
-0.143525395327029
0.0380720995264399
0.147652539768201
-0.254592727440617
-0.251144384990567
-0.47188330685981
-0.333663509719486
0.451566856613909
0.41257015254935
-0.479457297735462
0.28785265925706
-0.0197694168983816
0.0674666299333175
0.295875042116211
-0.456955069190336
-0.141641900828915
0.0832045285364988
-0.00298791372594618
0.474260689117661
0.0701656588988454
0.0715732973270834
0.441548089114417
-0.070291923091933
0.425805311983333
-0.104338998691108
-0.309556983736487
0.179971664259696
-0.0851903570680841
-0.89820328367673
-0.205819490938207
-0.477992939022129
-0.967754910328212
-0.608641648296159
-0.245329383939087
-0.0333611394975174
-0.18587689871292
-0.0844522749300316
0.382129719859836
-0.444962620243878
-0.379364359602036
-0.0561347825248422
0.0361944451210926
0.154533042877229
-0.0959159341236393
0.4851097701191
0.759615132716579
0.202770896498541
0.726780916959131
0.393091053675621
0.267306318602779
0.677528995795229
0.186145693129891
-0.155341908123707
-0.299699620111803
0.181652742297276
0.616420670323618
-0.535417580707389
0.330963691427809
0.312196334205892
-0.0415138292973186
-0.599616065146953
-0.355125350448402
-0.358061732681366
-0.157397268523175
-0.411847805300228
-0.197808855303492
0.0429447038781454
0.474891618348142
-0.0294743001132618
0.277885781497641
0.306655667166244
0.125183399413549
0.449374345796469
1.08945933148035
0.186040474555216
-0.251635911197664
0.49743266092667
-0.11981222931566
-0.330951577530304
0.475390484772258
0.625722513925868
0.317822469730039
0.21345810487474
0.701692316850906
-0.21383899723052
-0.0587915338701912
0.0979856682682811
-0.548318122093117
-0.409939223956679
-0.990282649059209
-0.991002512575295
-0.476401446484261
-0.403146260751748
-0.216615587093527
0.0922982094125456
0.476815266245084
-0.444911513451911
-0.0802264837688707
-0.151596594816574
0.489696295594827
0.599294740556191
-0.058434369818083
0.0748701140659204
0.150646875107128
0.262213127542264
0.0228834284468588
0.359936944326637
0.516725354579612
-0.0688302616155831
0.0615706542388314
0.107781957810815
0.434663887028567
-0.477088528426162
-0.434490444777426
-0.364399601639043
-0.392245822614441
0.0552200505092597
-0.59309099900983
-1.24030808327418
-0.90675783445517
-0.645382777292167
0.167697095182783
-0.304357108033916
-0.193704235823019
-0.0331373566378731
-0.245616154775962
-0.450011750283949
0.637591744469038
1.12275122880243
0.0743170019087152
-0.0733701244073911
-0.428373654846945
-0.0646262375759851
0.67328800819327
-0.300651873420498
0.211190645944515
-0.461599834214722
0.0677277335082845
-0.610677085140787
0.142921736157839
-0.167011010197504
0.126287036486705
0.0469398489919076
-0.298383318641856
-0.0391744733237192
-0.787647721073758
-1.34104364411748
-0.590479107287687
-0.647133761215804
-0.356200580853418
0.38251008927977
-0.335931859474253
0.306297721723822
-0.112792515768287
0.384170987729254
0.12587668014504
0.375003485469957
0.167133609062263
0.157673928809261
-0.397134096667047
-0.290222611058227
0.0709430231154795
-0.250270941464528
0.0273139910285602
-0.363629765773321
-0.951256027461909
0.410683632838429
0.410565752254364
0.358410319046498
0.128221355154477
0.431586267845271
-0.366940682218511
-0.100048426233467
-0.488211067576616
-0.610985029068007
-0.488399670811863
-0.96422027378585
0.0650423768808364
0.362796013501975
0.107746754314751
-0.378555238048364
-0.103702231143399
-0.306964309331893
-0.0865728568506113
0.587152157542569
-0.153905159786423
0.549031065053378
-0.120011005753978
0.0702905106962091
-0.478115208136913
-0.555531894111575
-0.320052773099087
-0.163567619678684
0.115021515331284
0.224993877022767
0.70919162904168
0.290789783053596
-0.421255417679376
0.640398349784748
0.361218861686979
-0.352533641839194
-0.997294226791281
-0.966701216628262
-0.817227591113194
-0.599842825719862
-0.331091840107746
0.0779041405272553
-0.464242546623502
0.303717899591326
-0.236579064935236
0.368737911263451
0.309186492999751
0.0635524302449027
0.0933873534468143
-0.576633215400208
-0.787266643776826
-0.559174555543086
-0.815144051508271
-0.634311796640531
-0.769897380852715
-0.277617753449967
-0.0226881572836838
0.73341229779021
1.28007984793735
1.66467329941058
0.383498069032679
0.471947714618234
-0.770156318540927
-0.579390374157516
-0.245157222792535
-1.00919270506375
0.047059360264822
-0.89718616742914
0.135495923387478
0.00202865346725067
0.107114441870681
0.213696390474452
0.41836799005316
-0.275176450281636
0.338025153366845
0.265019435476867
-0.322773503967926
-0.843074524843185
-0.655672392961111
-0.957050447920816
-0.840711175546488
-0.432437584483579
-0.127519932314456
-0.0245760829734247
0.924809387367873
0.755720647099707
0.18812118196782
0.502024494356056
0.119034211801831
-0.539077095115205
-1.04670850472298
-1.16455961355481
-0.842876329554143
-0.909661950168711
-0.123693751817535
0.0158474004095239
-0.396569622724059
0.00958564243654064
-0.17338086673928
0.467549224369018
0.408460799559436
0.262775300116869
0.0458563099462419
0.340518487449802
-0.781666200844672
-0.86261598339634
-0.569602002606512
-1.20896965108746
-0.978775158542592
-0.184223945942323
0.727353475468035
0.869993048603524
0.803215960794203
0.232076173152097
0.438460388970525
-0.279273336430184
-0.52152374501252
-0.292819359770387
-0.667929215056865
-1.35616802543478
-0.121082082300821
-0.811043476702095
-0.433781416982085
-0.0532887881386804
0.298037909196586
-0.294145938627454
-0.172723347888743
-0.264500762691954
-0.512242881237939
0.228109401431008
0.209146705316978
0.328379380047383
-0.391366293580803
0.345644328397655
-0.148024811409757
0.401605571745713
1.30733826710315
0.446331390251085
0.121969399660543
0.381250663277273
0.695417033801961
0.812125185061979
-0.220642017445171
-0.361519607570247
0.169396470924309
-0.646640998047252
-0.380933612265663
0.57613037449217
0.380981454291006
-0.134968250186331
-0.262766558138309
0.506211785909432
-0.0215530244263144
-0.0315682015668322
-0.2828115245842
-0.0230164388989138
0.0675013901120538
-0.151455083433019
0.253704289608759
-0.323867222757556
0.0466303207491416
-0.417016391745985
-0.0257748915012287
0.406159843840055
0.361714125380086
-0.431483831628479
-0.633717660450929
-0.0626876474003721
0.90247901774654
0.00600310137462302
0.0428071422152158
-0.898566668783719
0.161087148263613
-0.738083277990919
0.230514874435834
-0.112380838285899
-0.234728257349087
0.116942060789617
-0.000758111428436541
0.344458963157665
0.0213253693497663
0.26964677449074
-0.296159665762624
-0.464200747871595
-0.359787111388177
-0.0798906456907716
0.221588735451353
-0.509518411846526
-0.94051497081391
-0.486059787200183
0.369601724764137
0.745327566408115
0.170155821438871
-0.348464309571498
0.192754453107713
0.180360099315517
-0.232095481137787
-0.213734517680164
-0.126198178241561
0.0578204864292045
-0.236137924867297
-0.102496802334853
-0.341155362733908
0.0708196100320412
-0.4900948450855
-0.617896811752977
-0.0388542423002865
-0.250922715292494
-0.292964679122973
-0.163916530038237
0.474191397895688
-0.29895073740856
-0.19913554023134
-0.148914218259015
0.424391339535382
-0.173065508140969
-0.531398332135238
-0.239548742958434
0.272561036416181
0.0486700853201796
-0.311485961884332
-0.330586108458096
0.0885670070590344
-0.411804236523449
0.412257712290538
-0.0639248591841675
-0.0406357888378527
-0.634151839731916
-0.372651864341278
-0.590552503289325
-0.366842116586133
0.940677225745002
-0.317217846304333
0.415625936579209
0.426214272873666
0.176696491243601
-0.203733465322479
0.0916286526685481
0.329390903228947
-0.487423055333748
0.527178224698817
0.119866616457843
0.289762812630716
0.354579178978837
-0.15231769360614
0.30782273370565
-0.152330021641015
-0.342214587300985
-0.096368014940671
-1.14584397857612
-1.10964600512471
-0.277709007148061
-0.756270486491649
-0.293471517080835
-0.787909545144235
-0.254451812416561
-0.615548813529249
-0.0870253746180005
-0.0573387787858738
-0.265819025380684
-0.0125521644209296
0.36925362215839
-0.266365279482381
0.0469283954620165
-0.637897595013577
-0.243897219869288
0.175352068743376
-0.273675605644334
0.242809860000096
0.0796875112576518
-0.340472688028141
0.143905141214848
-0.00176580558470709
-0.147252339247791
0.598815000790844
0.431692617529626
-0.360067494261591
-0.231457183958273
-1.0969627506212
0.214098566524254
-0.307071234855067
-0.927114004102093
-0.223901354339249
-0.181730057421937
-0.125877200408777
0.00644247358207843
0.470302739176809
0.159816129666481
0.0936188916229389
0.823102984950506
-0.0113273880564422
-0.468125229305256
-0.0652109175284769
-0.542367570232707
0.182538118800506
0.249616364366196
-0.461657302620465
-0.209182990658443
-0.13269452902644
0.650659173873667
0.0606452396325008
-0.479088206347528
-0.0222289525429604
-0.17677231476415
0.115316442547881
-0.635942724507436
0.204912756228106
-0.51686403777698
-0.277206261168445
0.150687988551261
0.219125384220964
0.0959159237597862
-0.0238470306454708
-0.446344915432934
0.628554907179966
0.0579734586791891
0.711646008226615
0.842236309721476
-0.131371524596222
0.20421489310885
0.500899690798195
0.163947520229924
-0.365289324945021
-0.453261263181111
0.200153087788906
0.0626176798320585
-0.287021994701706
-0.200152312960625
0.396586639714319
-0.180017856106219
-0.0378300364177869
0.390703207678877
-0.467097129077944
0.343973156377119
0.504644957452176
0.112865603504874
0.335152682428914
0.165165456398323
0.350098354945747
-0.185703716143552
-0.255686771500144
-0.54624524577814
0.59774331871795
0.232573989333966
0.571988055765496
-0.511624027802279
-0.174477558011939
-0.383192462859809
-0.392298551015244
0.131230525131257
-0.0983966068783084
0.133358000996851
0.409245959190653
-0.418073772055512
-0.0314982625424672
-0.155434106370189
0.0797776941768573
0.079708315512078
-0.0840884271433179
0.0113968450082997
0.190549656291764
0.132553899394427
-0.416651786654542
-0.161776794846071
-0.388547723063301
-0.575520998560166
-0.0276999994624534
-0.573460338623219
0.610650178869322
-0.346921204161412
-0.0346197235180754
0.0764086123925144
-0.154846962116704
-0.188995653061698
0.118274926496215
-0.674786888246297
0.421389659538114
-0.0502509072978026
0.363632073694968
-0.265773011759643
0.100233084802909
0.17621257356136
0.10175338509274
-0.228417640512714
-0.150018438194937
-0.187883487315254
-0.245834167116285
0.706024014347997
-0.180633084882006
-0.479098961226791
-0.802868017818344
-0.0628888903547149
-0.938626681568551
0.0637460518886372
0.139807914947087
0.324098925113667
0.168075993530587
0.111595436898502
-0.100784313327694
0.362468287350265
0.158217394625401
-0.623921013551294
-0.500722293173296
-0.252113328705217
0.347766481866724
0.216253403249639
-0.444233301868645
0.492501976896311
0.208404417479599
-0.170549915690282
0.0758499797508208
0.257158655007507
0.200188722344141
0.330220173963798
0.0543441974339302
0.206742651055006
0.508187378602959
0.251607706174497
0.0644077591230591
-0.207891263016889
0.163930174070557
0.540678245468926
0.125737202905765
0.262001463648404
-0.143853345367341
0.0107576285544565
-0.526778396851913
-0.214669922993217
0.0206923389956427
0.118592263153469
0.140561136491055
-0.368200649705115
0.325002921033181
-0.475268085198106
0.264040882123653
-0.170413945648081
-0.207795093631276
-0.37692511837747
0.277409855761516
0.403777858074677
-0.355685494641632
-0.359920500009657
0.251079907882028
0.316079580107703
0.587930003798948
-0.385938002778921
0.290182247940436
0.0104972270453367
-0.428271326759013
-0.646863881045425
0.0684853972356813
0.0603239429679772
0.0629123575658145
0.28327561349627
0.196860047330509
-0.66526983218783
-0.537745095401176
-0.243925930530001
0.356928189670187
0.229343459281044
-0.423343148093517
0.122922988062039
0.0374016028537423
-0.234808271627318
-0.00129512348272609
-0.405677667009066
-0.466102735354268
-0.148271674997894
0.365405752763641
0.389168590291882
0.0942076984198122
0.227860507556614
0.490441196396632
0.00564314311103583
-0.451325543310052
0.0131382580521289
0.235420397986959
-0.066516760004948
0.452593187435905
-0.083379929066238
-0.0343785200899309
0.229086498845165
-0.231101506122305
0.0618900949430413
0.495549698033733
0.194119588923676
-0.488613304854525
0.462098146980204
-0.454154459567382
0.0171432559769912
0.431378324949824
-0.121730927201794
0.376433351019599
-0.109544636965517
-0.151525428963996
0.27045102090963
-0.125934330189509
-0.496032445958299
0.10860694110128
0.271559325300859
-0.0660095593657976
0.301804481501689
-0.423085296405611
-0.447953475082068
-0.288683217818679
0.0258061001233928
-0.0516657032339196
0.25383094723932
-0.00296067556230156
0.376039204300977
-0.19125054212481
-0.0774974540735656
-0.288661829049458
0.158232484423731
0.10497262959188
-0.0990675220261643
0.417400530035328
-0.186704553983502
0.270767068383641
-0.23585593408712
0.0110773255634482
0.282068363755042
-0.27058410913245
0.454097638325308
0.00816795158383531
0.200098904458735
0.130130300069662
0.26055059063326
-0.451323231871578
-0.498185970883542
-0.15177283677146
0.328231384704144
0.296465753464721
0.3925165443771
0.00928883801237073
-0.15981490742651
-0.362388508736417
-0.0655734673599602
0.326177455756619
0.217587070897735
-0.0314887725542413
-0.477818228052253
-0.274659864941972
-0.288203681720516
-0.0670638068425766
-0.113254795136514
0.174249573459034
0.265891004710408
0.401063999115054
0.236194846097471
-0.303008113896012
-0.219868228174685
0.484386423129768
-0.0965512807464932
0.141655493826445
0.324958159972428
-0.0750348128262138
-0.290844504624067
-0.439927598433535
-0.326610943291076
-0.473554659249066
0.0412655983973148
-0.293403273495437
-0.0924283334018794
0.343722137084101
0.0317402354123724
-0.189270121832038
-0.422469296922194
-0.175037694012298
-0.0194110942629218
-0.0830482955011764
-0.444627154127055
0.0743424937009544
-0.367683782646285
-0.15067426937198
-0.155927587605979
0.0403955879343653
-0.0535828981332401
0.114086077368858
0.0351946440223579
0.416570861780273
-0.442490733303526
-0.0028683843544406
0.295413907552317
0.335049775830169
-0.253879611869991
0.266194182225499
0.376540145460322
-0.0165638648183251
0.229961952660947
-0.160672034775857
0.445324369451854
0.304624788640848
0.373572948411001
0.479945030498658
-0.212169383450783
-0.465651503991645
-0.10941009038016
0.42354377093238
-0.454289468915337
0.491724602408579
-0.309232497964628
-0.197132612437537
-0.0140102503420833
0.213264489878558
0.415695920547329
-0.173097411484037
0.401745788841603
0.42724020405491
-0.154684387036928
0.30513908239049
-0.273815094560476
-0.274360843352218
-0.23792095837113
-0.426857128495401
-0.47389236109625
0.172955095589238
-0.663957643268615
-0.576836904126505
0.497090077974236
-0.326089447565137
-0.0766553653168925
-0.45173981628584
-0.196636723727562
-0.368629272842782
0.309049444616027
0.204754976285111
0.0731899213032236
-0.0996492279708774
-0.264978100436264
0.127593396058117
0.133665716104985
-0.0170492932745485
-0.444353682894424
0.144442075823914
0.432404552770614
-0.0978042528040532
-0.204264345956862
0.285611084881672
-0.179919148970429
-0.484737507670473
0.26616516994955
-0.285154937867639
-0.491336614636144
-0.0753904240710507
-0.569803016006176
-0.102392206921034
-0.430345103622347
0.0545061901087156
-0.108541747837674
0.133875960513054
0.272813404182566
0.213096310669041
-0.316729804637846
0.0130205617166658
-0.289666996692815
-0.220288068426941
0.438851922721999
-0.375213552208251
0.169879440995808
-0.0285647479300655
0.244354100778864
0.141670261680241
-0.000705469985601984
-0.569052925026928
-0.254993325741658
-0.281716407992132
0.118220030125963
-0.436057413698242
-0.41626184852508
-0.0204516371612586
0.0760770989791673
-0.521546746921344
-0.506603679624116
-0.326379338169033
-0.581624689391765
-0.582761462266205
0.165101955670239
-0.0731278853317222
-0.282768540538031
0.0320014699856428
-0.193718969397368
0.586534497176388
-0.518953996842438
-0.241979358353854
-0.47752226841154
-0.0550813537813171
0.19609125549723
-0.322995481464544
0.0739420892617572
-0.166695545835724
-0.193749886701626
0.363120403985889
0.126804424924809
-0.324228855039923
0.21205088065872
-0.889119715104622
-0.383471207919345
-0.226577906789509
0.165685706224762
0.123519664972432
0.193177220496333
-0.135427880619309
0.0641006939135488
0.0200141925111092
-0.811411515802239
0.348779513425703
-0.0598450623925411
-0.403075711450605
0.337881210881128
0.31449595383372
-0.563585139784077
0.224770773584451
-0.152052134602437
-0.380111413480868
-0.283046603101793
-0.487276004647469
0.021437184734144
0.143063370701981
0.627789900576786
0.181953683103019
0.302700161103511
-0.0163693504622415
-0.438493426206764
-0.364613235797696
-1.04222873125741
-0.580638776620621
-0.32700394614964
0.0721066227682323
0.286994125455509
-0.603326247090968
0.0588819970923846
-0.144765916038255
0.0483954939892251
0.105428583833134
0.0916419762367481
-0.288263607642856
0.48637505019813
0.319417399636613
-0.0909731965651476
0.00574693512824844
0.17254373610821
0.052260809015987
-0.0286225386311105
0.00988178198771229
0.236688866816917
-0.107747746795184
0.00888875605059763
-0.353703786434379
0.404433934153005
0.252498155223518
-0.0431877793023467
0.0655347278051548
0.254418531766202
-0.467475757599952
-0.189504388015896
-0.297014245170754
-0.572493732902113
0.0532247518347979
0.262267292146767
0.343423621112504
0.802088718484117
0.0121525396861946
0.824022369214546
0.475496763487107
0.514415681714208
-0.00623151782452027
0.352447712172214
-0.140024057331771
-0.0295021995119859
-0.0954738910316226
-0.470170611569348
-0.209189950209377
-0.335019193782805
0.463505158798488
0.739460988272461
0.204032918470094
-0.0703270692339402
0.263607175826775
-0.243130051642742
-0.474151325037696
-0.677130621119448
-0.810708831004705
-0.24326209486631
-0.130979389834663
0.257431328474869
0.172106545294318
-0.418216691852296
0.579640192801731
0.597353858384653
0.509488645641162
0.267728914886793
0.813369961015921
0.0729901561989278
-0.127127759974102
-0.333108973459952
-0.23046077861588
0.422956032366262
-0.382952771473917
-0.279819228790487
-0.123320263874878
0.0576645011157628
-0.140902537101851
0.0413860278236162
-0.12249508200974
-0.0220812487378818
0.0870756648836078
0.36589078080146
-0.169459669821182
-0.230013251221
0.151321134325919
-0.546388337393849
-0.152541495257679
0.040696999528644
-0.195872328918587
0.557645885072269
1.11308890325418
-0.0626345668653313
0.482202449578727
0.396901965128672
0.0362877320242048
0.221126785914967
-0.348483028782039
-0.446418196173228
-0.243829548779973
-0.335710200460937
-0.178265493619809
-0.0165719411086141
-0.460577286787949
0.384136326218617
0.0324652795245475
-0.215364237055591
0.435314956932713
0.865951346179032
0.368566686988314
-0.118774728552254
0.375560957999286
-0.181089475437462
0.703220640734816
0.0115384820645436
0.146641503208541
0.553726169731934
0.502715799054272
0.196104799224904
-0.0247688466912219
0.118491608034318
0.159649867629831
-0.378181902896191
-0.147926275677879
0.0767811964512342
-0.640161168256448
-0.480786300614534
-0.424596021623734
0.0624985394973075
-0.0731520281415178
-0.134532404787989
-0.287909141400313
0.136619522388649
-0.162269536969275
0.137227203961381
0.0454262711483536
0.0241724400916718
0.74816607122251
0.773408681864757
0.485061380465425
-0.412544718242092
0.598482249585293
-0.303567201365378
-0.422342538103599
-0.50637079299224
-1.20374689920579
-0.0523432728650889
-0.279345782156155
0.127921277116658
-0.282969768872083
0.274779017570669
0.248934164846592
-0.229960727178837
0.376176169214946
0.396375885452692
-0.00904760578010745
0.459411182079342
-0.0548837797391512
0.29871854130119
0.203678423479986
0.380661272691347
-0.290880101162278
0.640242806195103
-0.14313682501631
0.412488909309353
0.163146828090801
1.0267471870341
-0.187862156817222
0.239727681217765
0.656281280866538
0.312618406849821
-0.36388151148978
-1.39256636541465
-1.21106016641242
-0.760474917890179
-0.176269563936981
-0.39504252200576
-0.0792486412555558
-0.239896616053074
0.462061524799828
0.755714758364676
-0.0626089311944387
0.120851799784206
-0.0696383298307913
0.451302996309766
0.193988787828423
-0.24986297532444
0.38193524362544
0.140032221289805
0.253507260231642
0.80091555602707
0.314122225484021
0.9421734838571
0.354584364697567
1.04275006220917
0.344546196503234
0.0518986242769119
-0.233152458644723
0.521006515205175
0.101311289195517
-0.459193322120319
-0.774571210321841
-0.755747300736687
0.0592447671927276
0.156608594527376
0.429704667105513
0.121697229306497
0.492988910663983
0.976528672141446
0.350369968240614
-0.277382046078812
0.276220018914279
-0.0870032170565632
0.395083707531418
0.0610766914555165
0.322190048137676
0.136863207450466
-0.16296516471816
0.483362873036772
0.361136489496156
0.365910437710853
-0.00881757416327699
