-0,092230662979293
0,20397166009246
0,137583372945703
-0,480549305202695
0,150585166947257
0,139296323358685
-0,14439149929415
0,400439715897869
-0,194894804011516
-0,376812084520614
-0,413868837949759
-0,221389463041625
-0,0918316541201583
0,245578136176606
0,386402175708861
0,221312745810166
-0,475532531726888
-0,40051311017038
0,490300589702232
0,477540116281034
0,421212885492115
-0,215715829150619
-0,169124615690263
0,0437981549388721
-0,277803778544908
0,452344814758908
0,446969871384543
-0,375198929978162
-0,243951738227136
0,230156403840592
-0,0142908140617846
0,300750198681257
-0,0976528956543901
0,338668667636192
0,487569143058532
-0,151669956581513
-0,483684536993357
0,0768225628774718
-0,00718947842825667
0,101460055795647
-0,352302308125562
0,393807100004164
0,087745162970001
0,183411906036569
-0,282307487672708
-0,493050736324763
0,288486379487445
-0,13023261736668
0,119339383093687
-0,356966580599641
-0,290993746394887
-0,171811960484745
0,165302950733017
-0,080017332257711
0,255464238000784
-0,327936735389725
0,278166107730086
-0,371193122058731
0,322899266063654
0,350325873051922
0,276613040723192
-0,484132606528761
-0,307028104926938
0,312103574542377
-0,117108108763168
-0,0676245133241753
-0,185902929869469
0,0742576850607556
0,339759160970085
-0,338672413485608
0,357447615973374
0,366018258792356
0,302963220480864
0,310473271965265
-0,449923143583602
-0,107405880822406
0,289441324347584
-0,328122066512329
-0,120778997450984
0,0368961814691892
-0,0250262109152387
0,252966533299986
0,444296246368576
-0,326131428976604
-0,460139381215041
-0,388139821536904
-0,298515937197262
-0,325716137339229
0,00362269743514376
-0,188871559076417
-0,420288224337702
-0,0348422053202977
-0,159275258078775
-0,0348597126087035
-0,0337160043939699
0,421722967238559
-0,160885798979348
-0,416585029601778
-0,362594971671578
-0,459338157370081
-0,256941799696067
-0,223943991859902
0,235638227920704
-0,195053504390796
-0,265397557117741
0,350633410874247
-0,381079843917363
0,29461694045055
-0,0786881000513257
-0,1746986995799
-0,0443826809266502
-0,292811847661069
0,386077072418331
0,129337598397088
0,23762896831037
0,221728447229475
0,0631751805085696
-0,4222879027737
0,0489923119002187
-0,376559701742594
-0,044221382650091
0,130815882091979
0,387538274256681
-0,0779945824552247
-0,378367249225583
-0,149267994813677
-0,311495309158071
-0,219466126490967
0,226103504242128
-0,0534091796793706
-0,31710402493072
0,320590900551997
-0,322343291487683
-0,0155097943079296
-0,212433719330593
-0,492790504547737
-0,399588255428054
0,435607937052154
0,31900333977258
0,0212403044669145
0,269825940378861
0,137143960984956
0,325735934928868
0,256907649752781
0,467753178763496
0,164429700109415
0,0334806380201842
0,386924869382086
-0,154977231087406
-0,552975214966974
-0,0585290860704366
0,0415098846163271
-0,131289536158326
-0,547136963696855
-0,263898513712913
-0,280191401175448
-0,245848984876632
-0,487074842510777
0,461041219760355
-0,377949980830726
0,21362318903652
0,27338673604169
0,331544318002526
0,309116917416447
-0,502164625270328
-0,19900123449303
-0,284852570189344
0,310185110108082
0,0353210379999694
0,198146847401814
-0,155805898670017
0,105684806628656
-0,505037913001199
0,308989654073614
0,306644065114546
0,0556440490903198
-0,301602784479396
0,0949399451168936
0,0859311209720672
0,0424198114305748
0,113640137871964
-0,293052212799887
0,16842024070429
0,352038375115219
-0,263801306682822
-0,461006620375806
0,1541930304678
-0,314844158297701
0,186666164501977
0,392451289436233
-0,469075942736291
0,220041486533493
0,0416277979877289
0,274394398434824
0,00535544642280919
0,38130793178477
-0,364969329845612
0,17213190424821
-0,228697504486619
-0,147705842113339
-0,0612902086162823
0,264539669748003
0,330980253822365
0,186308598223044
0,263520586531698
-0,481007765126346
0,0226465372301578
-0,195898187100443
0,292752978183798
-0,30614369492356
-0,290013075600687
-0,115153805750949
0,113845826037774
-0,0848799090243324
-0,241578438095412
-0,16777148195746
-0,377262882277802
-0,218483056755387
-0,209959249729128
-0,200062113567558
0,400208431357722
-0,0778170320074474
-0,424712613926718
0,467269588935401
-0,429008676637434
0,174825348274235
-0,00258999326337176
-0,0969665074086261
0,368931968941828
0,324354562445095
-0,16938450681042
-0,343915039982649
-0,463303381243394
0,28204826507843
0,103954314187079
-0,0844968032005373
0,451588473926582
-0,139443260595662
0,150786820100749
0,428032994827907
-0,58753305693964
0,282771665957686
0,134049876042913
0,241185194363804
-0,402108396337963
-0,139704630405845
-0,00785040420197839
0,106080726208022
-0,114587971966172
-0,152265809069953
0,441399111341788
-0,0211457724315793
0,0773768008581255
-0,465156717059157
0,450026211794107
0,298356291559629
0,100538982698365
-0,177315063062094
-0,104856322043212
-0,452160008221312
-0,337315596120009
-0,083184191342198
-0,327822414524429
0,0883146420360931
-0,264359357458442
-0,160018099013286
-0,384213620734495
0,214794853450428
-0,282498264300911
-0,335713608790441
0,231426241058052
-0,451421586437735
-0,128691015216443
0,222055587610246
0,0151752800422865
-0,061172306860886
0,211603305810693
0,0501419215191753
0,455465354031326
-0,270784751405374
-0,473145817859632
-0,311271930340686
-0,144246408296898
-0,30843237669558
-0,262119274376487
-0,282087469321457
-0,228554210353473
0,13790212347755
-0,0260268850241147
0,495985066981827
0,120779095422567
0,0235231014937993
0,272255706517576
0,218005542592799
-0,248941851295819
-0,143431972137193
-0,0586717439283758
-0,223292674689465
0,0428678108030716
-0,465146540442302
-0,330058888497026
0,0830507282517973
-0,314785795864523
0,500627070827922
0,390907677133103
-0,0215239160684056
-0,214410984442285
0,117681079831757
-0,205583285403244
-0,11031602956835
-0,0360517882519525
-0,113349787693418
-0,338033191777169
-0,44596777218907
0,291487387932341
-0,186435185374777
4,64704276815292E-05
0,276415584293584
0,0342229448659805
-0,30178225499551
-0,273116759426744
0,63288242571229
-0,132009988848373
0,100957582430512
-0,248226888948788
-0,33630924483986
-0,275316113604067
0,0128549853659695
0,138045146618197
0,413713440203713
-0,0137865109977857
-0,128529022246666
0,18382118846256
0,252497768898194
0,170622306293189
-0,42218770502237
0,0624281571071726
0,233103859114043
-0,0431034113382809
0,311564043021067
0,326949109550358
-0,289721068771863
0,0636638328963408
0,220561332335012
0,534825088714507
0,252492478411103
-0,075649609267828
0,634598758753768
0,264973987360576
0,375863120988585
0,0470803776396818
0,560837927990173
0,491834569373623
-0,0692188375770118
0,307624411549799
-0,376894263577927
-0,0677104651975846
0,0025174818099399
0,400655490570683
0,11776964823139
0,163663622557706
-0,40796018053646
0,242947738037134
-0,322323516517719
0,352959729662612
0,306240219998285
-0,161133436103704
-0,420963068350931
-0,476405563709296
0,0630242653788745
-0,0182238146625118
0,224722864750084
0,0671629470660521
0,12555186624403
0,194687809269537
-0,116853625010542
0,10648519405794
-0,355177441468848
-0,511446129803755
0,450389360195739
-0,154669688912343
0,141782668064363
-0,557400566739976
0,424788982547641
-0,425633329318513
0,470573533231864
0,123199757890759
0,0862002631109223
0,0922430217325099
-0,394675530243804
-0,387855941902757
0,493533570192846
-0,0503401227995475
-0,438225801539712
-0,485655480802318
0,355548868659984
0,41986662528931
0,523275071040317
0,162234936613125
0,240901659098031
0,51146873413883
0,29181913346423
0,066035179910084
0,410135836118389
-0,136938571669436
-0,141786556632987
0,0925281669145987
-0,294011576435314
0,22698253270966
0,0243413106413926
0,100643891091124
-0,390046241152256
0,180189073039705
0,0205351588722778
-0,381650489370543
0,3488493493763
0,305834670505374
0,330152093387226
0,161370843161687
0,125384007282578
0,373696027264789
-0,160182856330733
-0,356880440052435
0,414515650170167
-0,461465692364503
-0,339099243677044
0,274421493278485
-0,182810206895495
0,218714553915128
0,417154266525701
0,322527964595493
0,415413787425157
0,129306933452077
0,177111115865924
-0,322075517723813
0,0641347125145836
-0,00775007862583221
0,488473663152718
-0,0563485238035521
-0,0698317249980824
-0,0227680216214031
0,319406589694588
-0,163576485556102
0,423923244420999
0,0455683789827426
-0,0721251811653427
-0,0278390634713462
-0,468153805115023
0,21179181743031
0,166757055403086
0,297105057418365
0,186504041981324
-0,205264808419655
-0,0829891985438709
0,45381346753441
0,356790276975534
-0,00668134039110169
0,368932375488009
0,309508625763649
0,552798997179944
0,300275441504732
0,286398222447595
0,270990799224583
0,391372096037783
0,437073913145258
0,438896399360373
0,00176962354397437
-0,403389671616731
0,118559064565965
-0,0804752353475935
0,496702420495442
-0,292610283263126
0,108675973132641
0,00280432292387463
0,224287923433172
0,472955934101539
-0,364998982225079
0,127577049949941
0,278001514799673
-0,135502274619787
0,403471670924038
-0,193581973824036
-0,174879324549874
-0,0597223915302758
-0,350616522644141
-0,246995591104802
-0,181524965022624
0,149867071694192
-0,176054081853429
0,0200662029544938
-0,339055413583501
0,258737646052509
0,0417849603292096
0,418205298269075
0,156800761129798
-0,288578618949376
0,350532158738811
0,391264179601507
0,220956341204605
-0,297961214079995
-0,165734777911519
-0,0665779596173003
0,434061322505763
0,305814616168141
0,231004113671837
-0,376421142777624
-0,379005181930856
0,00397286782378012
0,0932667239993599
0,132588934624492
0,0447018955525051
0,332676425213396
0,521999575445973
-0,34843021197192
0,00656035300625433
0,596232461473955
-0,35080989310685
-0,167965827781943
-0,154074717344361
0,295921193958986
-0,329859991795739
0,285968378292449
0,146805446997334
0,0157427974616278
0,139129749083199
-0,419160160638923
0,130218010535393
0,171724544821024
0,0718762953284816
0,333839747144313
-0,446987738466041
-0,460936715931759
0,232583776457507
0,349901570868633
-0,248427502370265
0,329785926500981
-0,343251695180969
0,304101748252483
0,348077232314508
0,246224197360252
0,338324197656383
-0,366015714554317
-0,298583964582636
0,59687561355575
-0,36431870011844
-0,0937442540886715
-0,139835626443844
0,00177439986266371
0,138655417085229
0,417982657615366
0,436526434166787
-0,0927578440727024
0,0681637869394013
-0,405182662613429
0,132461811923839
0,273512411432849
0,497486552775767
-0,322328082011846
-0,257165173079121
0,324805767535916
0,254175375101238
-0,452797695041074
-0,123037195505606
-0,104151388719419
0,279507086303861
0,218243352459251
0,333913343080605
-0,269172280816561
-0,118637565396837
0,0425952609290746
-0,399979729436947
-0,147056183026129
-0,37842374024455
0,0480281783324189
0,285039426296217
-0,57221972068496
-0,216393485301201
0,13158029876316
-0,181583969189283
-0,14447996185094
0,095765964030211
0,299221054062412
-0,286997624521856
-0,0293110906061233
0,0622446085648289
0,25052416593832
-0,453556048431354
0,482653285834311
0,49664759915166
0,266918874702844
0,109372327841902
-0,0117349614422402
-0,254014429240886
-0,0237630440682863
0,344498727439326
0,333149788155618
-0,309199461438977
-0,451016677155241
-0,117412307759703
-0,212845627821583
-0,140085814270899
-0,551941235686876
-0,0984295321432891
-0,101666287428247
-0,16241786461208
0,235817431654614
-0,0770311412412041
0,0632958288482594
-0,463034111820063
0,311724544642468
-0,155058619739336
0,513454646491641
-0,514478872785721
-0,0918262545104112
0,48573917298574
-0,123907474625813
0,0531570732375407
0,49561495054309
0,490878474879587
-0,172880475566681
0,0353192009917514
0,414726469513345
-0,216791669227657
-0,327367375387856
-0,245942009968354
0,311840672660001
0,230949067808691
-0,225067363761875
0,208885554445531
0,33812965549188
0,430499923605403
0,181355187853712
0,090547325596542
-0,0153292055134387
-0,205485032025499
0,0424693123582809
0,161855813649982
0,187525298519668
-0,0464208244055145
-0,207415841142374
-0,370244916792144
-0,256694499990422
0,252102504134099
0,260380178578375
-0,255965526102095
0,317135074090741
-0,403112337043171
-0,0955400584780695
-0,275082303400588
0,177650266598333
-0,0779821565798285
0,311507573041056
0,220230629206414
-0,455049729534205
-0,420291728228092
0,436448656558566
-0,379990435436864
0,0882782394767911
0,191676868385
-0,10852630196836
0,287359982966213
-0,120035631427566
0,127290283673809
0,317255126617124
-0,0327905233837425
-0,360594687214069
-0,234167147212588
-0,221578113156733
-0,295442424189555
0,00389615050698455
0,0334154267485325
-0,489098278800537
-0,0324971850647112
0,296324006186949
-0,352181530023078
0,106237414749548
0,190657927676968
0,049519485616201
-0,469865325475056
0,0784366056372557
-0,323932052124705
-0,36632940597805
0,12254862786547
-0,0676807050368871
-0,283297853414709
-0,473023401929761
0,397084655900834
0,353846849597739
-0,358531590567764
0,290009909220785
-0,453514163155901
-0,113815847896114
-0,176845405094466
-0,164798902249708
-0,144215498044295
-0,442163930372058
0,103712863065895
-0,0194161434282624
-0,16277038523125
-0,487173465540248
-0,299109858367178
0,119812649963336
0,0592975158054836
0,278352359394115
-0,0406289925450612
0,0135913844354165
-0,0557311202701304
0,237244763149102
-0,42571783242363
0,245636593031434
0,138320810910315
-0,387590840594318
-0,074319535030158
-0,135893263485004
0,409241603411178
-0,465071588113272
0,160731129054127
-0,143184133596832
-0,37103404477674
-0,397917317176043
-0,282016476305061
0,24980256285017
-0,353012899510621
0,344996173250304
0,0363779612741153
-0,155114728796815
0,0176079825114496
-0,109919503149539
-0,122110127295419
0,143695086074851
-0,0429931862945637
0,429803906926819
0,291054909738338
0,380247382534735
0,33779573522697
-0,0634920054257122
0,246027846991659
0,140767332269378
-0,171620230032712
-0,277079250356091
-0,356409608673938
0,159228622962225
0,313385233232935
0,300076846549974
-0,279895476919935
-0,19657139198521
-0,111237816971815
0,0168518805651981
0,299408809186158
-0,00838088916771839
-0,261261358106708
0,169193792176446
-0,352622049792028
0,307897540651214
-0,169239154862817
0,0179088430096902
-0,0327524866595643
0,347877244394215
0,13113834458922
0,305595571084691
-0,338569815661092
-0,0559136127037104
0,436451436754862
-0,132931833254748
-0,516166927146993
-0,282470754589658
0,480388055292411
-0,108670300772908
-0,236072975474097
0,486162447257538
-0,0775387765528701
-0,161372040492576
-0,334882615223295
-0,132020088019266
0,297115902125864
-0,267514815084023
-0,237864779652033
-0,23690976236803
0,339350057691033
-0,371681088056267
0,424162047414185
0,17375290285505
-0,302129268554099
-0,444912937444129
-0,487245085643253
-0,213727154635697
-0,213460333511913
-0,273076016350219
-0,333309813324972
0,0156252819651855
0,165622596007596
0,095678955128267
-0,300747281778952
0,245382072751123
-0,496133761012989
0,192502050983022
-0,0242544401084326
0,26380638022153
0,141876151152829
-0,143948489634296
0,296957942096963
0,373902532213322
0,0350478289346433
0,363298395584942
0,00949820154788816
0,162962973426545
-0,381403438691703
-0,403939814727725
0,247853839186883
-0,371002326659394
-0,146693619734931
0,18938783215796
-0,137988305482077
0,0443549032995267
-0,297322167920564
0,21161635253188
0,417411761785583
-0,204006541848186
0,284346645131869
0,0455988634124392
-0,0784973216142958
0,213152304158151
0,274663183300337
0,223582039956944
0,310479850885682
0,0750466889631603
0,15813838261613
-0,419317962215455
-0,131305498077315
-0,310919749791258
0,180722885876377
-0,188055620972502
0,311820828893933
-0,179715934365992
0,337240332479507
0,399340352462297
0,287954024406129
-0,383356928771062
-0,0668110803546436
-0,210319895162396
-0,0443133714349537
-0,477765318927246
-0,167832389784899
-0,250613260898093
0,443556529909166
0,333939136859932
-0,366711633683514
-0,211884901724702
-0,241924831989186
0,177201587090828
-0,232372819512378
0,156632068073169
0,0564917971083604
0,422253456838621
-0,227294606468279
0,322796091394769
0,34437367906085
-0,0505812748130269
-0,402508378267381
-0,263797485701673
0,245020410152453
0,151335811158332
-0,271895608515023
0,347921366171565
0,239400491755165
-0,409723822451068
-0,142978807745026
-0,274476823291963
0,181784394514647
0,408623000564344
0,362496584124163
-0,306684069245441
-0,337632724008352
0,43658936952082
-0,382416136733256
0,06562289677879
0,421701507426921
-0,0536820504512062
-0,0267052703149064
-0,359282913743964
-0,430901620191573
-0,396983334598257
0,416098905347303
-0,201615960223175
0,406020507779227
-0,16577417646578
-0,109895236167716
-0,447925896324369
0,114634590033804
-0,338966465084062
0,0986995936660406
0,133221027054657
-0,18044775605811
-0,15454806324772
-0,152257098188744
0,265814330785449
-9,57755838035257E-05
0,37498683057492
0,481150977304741
0,0975281976151877
-0,353572822672538
0,0618449857276994
0,201294358425165
0,381685761002098
0,137690154007455
0,455693803075007
-0,265361928911064
-0,257442539593337
0,0896470535494907
-0,371536533478778
0,238900808511086
0,405896814232102
-0,108911767047466
0,037579199578011
-0,110347602940812
0,463338418104896
0,444310664395454
0,0681812512419771
0,307518817716949
0,350883230695574
0,120234072643056
-0,0127227401464674
0,245479566857908
-0,194356956842522
-0,126645194192717
-0,118012889110489
-0,383730211241045
-0,226728217773235
0,342914197871134
0,216929081158466
-0,0398105635989438
-0,357530762121445
-0,146663501030028
-0,448361306289019
0,259479216506298
-0,417914315858406
-0,640675640043348
-0,414624128033522
-0,317792015967539
0,260307007156205
-0,28669263888547
-0,126567575952295
0,477796727179122
-0,0263135015710343
-0,130631629894099
-0,0321405803651917
0,237627796097563
0,214805914774901
-0,432630295881242
0,196871324237278
0,476348274819769
0,311834502877591
-0,176954640390796
0,489369258279618
-0,231764151124174
0,194613833786204
0,444851284454904
-0,0349769266093185
0,225772653292454
0,206938032920932
-0,210474915025674
-0,409345450454245
0,144141618450394
0,395467080702616
0,0116411952189184
0,0109440863096156
0,218573102347674
-0,437108826630293
-0,0903160180783796
0,266891143947663
0,556795187928912
-0,146902958673239
-0,0398152647442342
-0,0065134030222501
0,116350104887342
-0,158235996559112
0,351675236748437
-0,305701178505865
0,276158671350733
-0,139799183489413
0,0595238826049137
0,0691271291901949
-0,0902801556949817
0,0127650790026169
-0,150200654531131
0,178403130352901
-0,376369494301904
-0,0712673333312669
0,37004875596504
-0,0663089105480482
-0,0392113077778727
-0,263867004194194
0,327862178471131
-0,0854127961167555
-0,483704093867294
-0,540293667586688
-0,0366129261892369
0,457186409382345
-0,0483846119546944
0,235607642700926
0,389509664590261
0,165545377519229
0,214675407173215
0,15871246033251
0,412013342275569
-0,117661699934966
-0,140579527302695
0,162720074763174
0,152784734337025
-0,0667264990353614
0,308202105395951
0,424064527383021
-0,212279649323966
0,381319470482969
-0,491640426934367
-0,429955931389247
-0,130851979119686
0,309560917875274
-0,200061662808449
0,367355339125883
-0,436404729126016
0,120253459778825
-0,159319320781305
0,0955485922221807
-0,19099280189138
0,428243872738115
0,36762246508349
0,399481726747072
-0,462107346652009
0,190609316637955
0,158591571703095
-0,447466068993435
0,277604029673216
0,292101367166428
-0,0401652880125965
-0,15178834863556
-0,371962208706868
0,331192865395735
0,292593086402395
-0,0398199056144228
0,443227910660705
0,394691082232693
-0,325687522004204
-0,235182778443037
-0,270331299410057
-0,172845494294102
0,152823355074915
0,0328248614118235
-0,00660132034509299
-0,447867575121074
-0,28890958006941
-0,263063360544841
-0,395681833832496
-0,0204401110603525
0,444824871709692
-0,375587625165009
-0,346337996733958
0,128742525849885
0,142914532164941
0,200026129178269
-0,294983329686581
-0,0614957266533424
0,108759898393291
-0,113666794082926
-0,158285900325647
-0,334460010237083
0,265964288750642
0,496008643297344
0,167102130628249
-0,35267229580264
0,118081673880541
-0,465668501752758
-0,222456991382635
0,279043456549075
0,0985200158764225
0,0190218535524636
0,272793046731399
-0,470316010745578
0,355736133543694
-0,337897267479527
0,415874499796751
0,391252844171741
-0,0202963638672833
-0,48261683308745
0,180494207559462
0,239238540026069
-0,234025268097632
-0,0971707611382494
0,476909755688286
0,412712122869824
0,451230310697128
-0,128369774030694
-0,0309384542195771
0,338458975701807
0,255067608387892
0,145556981648888
0,146786839258879
0,480866709380961
-0,316298356239352
-0,301599988538384
0,0270361155021152
0,351562229947447
-0,317319955435744
-0,419339943981072
-0,702123249253307
-0,0251109996225681
0,0689362433470782
0,0703499830593872
0,0282974229763222
-0,227651467601374
-0,26152535553537
0,141793119480447
0,305043804062324
-0,0851473722556907
-0,129881981879452
-0,202622730126392
-0,181540938656911
0,251707951068636
0,223822551829738
-0,0658503396277551
0,0170466278293387
-0,452700869158237
-0,495304534792096
-0,171177428530736
-0,167875409474992
-0,0476532624436882
0,301041261285813
-0,368817825054393
0,401433484876271
-0,375319008208145
0,138004465060943
-0,430939464658964
-0,58315290472301
0,493840379875187
0,29775628912719
0,418044088712445
-0,0631281434955824
-0,255615382214469
0,342683735395567
0,135401104362344
0,00469697854352911
0,154028527869963
-0,0675811418643798
-0,322467764636203
-0,300592877954561
0,167827044789607
0,164240390705032
-0,460006243420496
-0,349606417515132
0,219070322680786
-0,389241998557638
-0,244650641732494
-0,208476767363495
-0,472762090429896
-0,160895815666632
0,0489515619048742
-0,343006141509222
-0,487363631509036
-0,0773640430344588
-0,346097032161008
-0,18774731936586
0,0297477667000426
0,195590180804367
-0,359006719164489
0,29488720456021
-0,514334874461165
0,167263479933788
-0,411994934454917
-0,234685374570224
-0,116380404504234
-0,434008484841976
-0,528880181132049
0,300409347768271
0,416458042529259
-0,198505244403859
0,0552396279721627
0,109425683323958
0,374912375991658
-0,287149371570746
-0,193728315075244
-0,252594645805298
0,165346662061634
-0,362070599773225
-0,00200675652377199
-0,38261622060138
-0,242139445028851
-0,0316515645433888
0,224663581131732
-0,374258148002621
-0,396374945905048
0,059153177418086
-0,347167096409853
-0,270617105841157
-0,438957959365763
-0,0626303476675613
0,117083636942064
-0,174035827677215
0,164245438930174
-0,4926017386034
-0,431647430379623
0,10988109586321
-0,468328309441511
-0,0386370663118429
-0,0848943206240939
0,334387809892366
-0,395930572364447
-0,283517621424424
-0,0305200648684184
0,258172216433064
-0,495000636277535
0,0161351538176148
0,244626736000666
-0,195037694596768
0,293192402891956
-0,205439190345847
-0,22153384519661
0,435079936766606
0,50839615793287
0,267163612627399
-0,128829787677484
-0,207893049705284
0,305060688063844
-0,188896839967362
-0,386134475021739
0,00201881470010214
-0,157518639773157
0,357230798113486
-0,342689805445224
0,316208936740784
0,267155460303286
0,131395469485691
0,367736741017699
-0,115786276113142
0,46154710508955
0,120248326605267
0,234838333475024
0,402779931655141
-0,241418030775209
0,49982765871703
0,416690388099158
-0,334759756043629
-0,56165975645482
-0,0960840778292168
-0,495282697234237
0,108720866272369
0,305465292693102
0,345840569093286
0,338827074498228
-0,167549420110224
0,196201050662048
-0,602935052851306
0,04298940746005
0,0707689651067517
-0,179599322762372
-0,437686675884583
-0,499499793238149
0,238218908829873
-0,245822353158405
-0,281882140950589
0,031286430437057
-0,40530588333742
0,214678829402979
0,253555911061692
0,339926484935493
0,129279528973927
-0,00351654607482562
-0,143309737382815
-0,217496542575931
0,0864058998052729
0,308684029307777
0,255281011242327
0,118389735849008
0,259180647793609
0,345827758774501
0,602565498472666
-0,0276376213652575
-0,438785032361231
-0,188833559612636
0,484238984928215
0,224666448983512
-0,429075953746732
0,32989272165358
-0,411362457414187
0,0783488318356264
0,362397992513596
-0,166501437819553
-0,315010087898179
0,357668430122664
0,208665239954677
0,103857646977463
-0,12021104828687
-0,132868145461895
0,498858530020863
0,424199733683564
0,523466983036324
0,107083829447841
-0,196503541489176
0,470545256100075
-0,0967357066477833
0,514745253961246
-0,0165267623638791
-0,0526755759083959
0,287031807301966
0,00299259066025434
-0,448876615385464
-0,532848781052151
0,189508718776517
0,145099839520183
0,599842934123064
0,385190745523012
0,154229692377479
0,188889739048625
-0,379091032890448
0,416210941669554
0,442339773373177
0,313881238945976
-0,287552043696657
0,324135521344904
0,352815411862284
-0,0357581656455586
-0,123177857883005
-0,335205876833991
0,223908431584165
0,558649646639173
0,335638589808472
-0,0563082798593764
-0,161808890753318
0,52158689809341
0,200432040504341
0,367670410179307
0,144183927532405
-0,0898375913533473
0,467671774477806
0,289451944191891
0,606672801185292
0,0344208082590056
0,161921449593178
-0,0752886643423489
-0,322504653077068
-0,393991384299474
0,240442082497429
0,145474431489703
-0,265569639172865
0,397082310232178
-0,467978354994198
-0,205502125763103
0,131698260564756
-0,397191130831102
0,353630069167028
-0,101021858952783
0,530482266429746
0,187183992200766
-0,192243629982688
-0,338344784884402
-0,413342972109228
-0,347208005048006
-0,201404053088911
-0,0900039895219655
-0,158399611487936
-0,473371727932284
0,24612173383396
0,333933089181069
0,613997710291753
0,418132536492769
-0,189469513482982
0,37721746611962
0,0100593119901348
0,484654174526678
0,281075287279784
0,161790628640187
-0,499447428993463
-0,283872699730039
-0,240423041740629
0,178753035459087
0,450892405896341
0,186929444694374
0,601324394560984
0,0777121216552429
-0,347820608827176
0,417805893591603
-0,363330244819506
0,388116362092542
-0,438887804071637
-0,263448954452648
0,398549929690806
-0,441502104370291
-0,463666095640083
-0,134414320374583
-0,129490516482122
0,289865224380271
-0,0348387974469649
-0,027667645179948
0,0179992069513065
0,25213757105762
-0,0671176840165594
0,479949834818354
0,0123106357591163
0,0580766652554435
-0,173588683483322
0,497769584412579
-0,102025564108987
-0,256184854431164
0,465515078489882
0,308852654013109
0,0846179276308413
0,180500638503658
0,4743408105738
-0,416146856965547
0,195700009986752
0,395534313178997
0,178948647787612
-0,531147640422912
-0,176726894099883
0,285260620619735
-0,142682075196481
-0,686918993388354
-0,374401571329738
-0,0218786782349695
0,0792163949136058
-0,375005942494996
-0,416220413056546
-0,0117607097484334
0,113092542635473
0,0767521335814962
-0,163116205500793
-0,0941703740478616
0,45121327003071
0,288113850070217
-0,206036837168986
0,0924525105359277
0,143949117493663
-0,240981237422086
-0,378373053298359
-0,115053396483513
-0,363013376131336
0,0654312736337584
-0,277145728667102
-0,521681847175522
-0,0551810644644271
-0,422575056375305
-0,274928510701525
-0,425074494242959
-0,0122758933849954
0,295342145741369
-0,364515137736966
-0,196288368635703
0,20520365723145
-0,359319925384611
-0,2242398349388
-0,167398221578353
-0,424366840574322
0,307703111689539
0,209676128992925
0,405811241318384
-0,324222459375962
0,0431794712986702
-0,121232394418322
0,353534025071903
-0,401716263919005
0,347132596313961
-0,0166344396874295
0,402298173427803
-0,291820263602321
0,117355022310966
0,366180811794568
-0,388348323364542
-0,567971229620154
-0,106744313981451
-0,261840653869285
0,161518591651303
0,266422847765744
-0,390293548702386
-0,286778501384976
-0,434193566033952
-0,25688045129631
0,457890164713023
0,470828106626401
-0,283828484622677
-0,123811328857974
-0,30832921913595
-0,478373786862154
-0,307432009283189
-0,312863317231118
-0,450189998350195
0,0488853233628372
0,0404175690097817
-0,44166971135031
0,178224803185739
0,346527138141371
-0,201835993140647
-0,333455590679729
-0,428149271084887
-0,0175816200412523
-0,3096983334993
-0,393043446933167
-0,328769858700855
0,124658098215341
-0,342031510041393
-0,00439142832069308
0,111466620001504
0,407508297718465
0,00489211131078897
0,473465322798967
0,389709557156803
-0,490585357253684
0,117785265807797
0,211010561786713
-0,475855530404483
-0,126873612797281
-0,399901437060862
0,3178919296795
-0,42778168941279
0,110445613325781
0,258797017279452
0,241710515572555
0,0769057328546574
-0,500032662130614
-0,0547748554695952
0,440075128594533
0,0579672933884269
-0,213872758206274
-0,230925721621665
-0,287983426292448
0,307684256982256
-0,0815842163123177
0,211734354686375
0,285097192859431
-0,449783681595781
-0,153524299325452
-0,434128768927969
-0,459380736655643
0,327572862646398
0,302530215777664
0,0579113037097452
-0,486048263802061
0,105472748138851
0,0902727742634121
-0,220642085522712
0,414831285325266
-0,134031745434753
0,00626044418022986
-0,189565675188585
-0,176746410167192
-0,00487217190902317
0,34751706423588
0,478399657338148
-0,176264562041024
-0,316017133461702
-0,478062969085998
0,0809159298079375
-0,35237663605873
-0,0529016902771723
-0,208759008286974
0,107029145885994
0,427856503410732
0,419262199446896
0,388847296216501
-0,178399100204463
0,202663987469818
-0,38204219482533
-0,391488020257786
-0,0191458256538705
0,163295299589306
-0,221794376020224
0,446502894603881
-0,336061680613114
-0,197009495318406
-0,499896876979571
0,159360722480044
0,447647048601716
-0,131362053859682
-0,21371424743613
-0,405746480406144
-0,106096857509621
0,361424723109894
0,0227543057514141
0,199606549786221
-0,466443888361772
-0,157034107324218
0,428426891066333
0,0955820738317361
0,309495053165357
0,188392397336845
-0,0945363964860031
0,181982966923147
0,0983162734649685
-0,108081346195229
-0,263747122494386
-0,105833792875443
0,427981485113493
-0,340785511695214
0,0826549230062659
0,0704504570786145
0,171442615646609
0,218050388488011
-0,311864504968684
0,301709012036076
0,451707955892993
-0,0275909521279815
-0,338075811899302
-0,105129353518192
0,430386692718783
0,498077670111357
-0,0967102612353443
-0,421896519568701
0,105537147077516
-0,158973563755219
0,494747933943339
-0,164898085251869
0,0719887243654708
-0,337543548620759
0,190389466808935
-0,455502065182121
-0,338104959780788
-0,0138587214159517
0,280308380785996
0,104831396256776
0,0583773596268062
-0,261673425539883
-0,393840881480761
-0,411470746580265
-0,14796884527801
0,0495313841614553
-0,0442328897976469
0,047265400899232
-0,193878903376813
-0,285807577327736
-0,351045228471535
-0,352460080689034
-0,270901834951202
0,15703244444776
0,153031817941476
-0,0696245341420288
-0,429687383086275
-0,364450620927127
0,12182115888799
0,278577617519467
0,341910881026513
-0,226158556906843
-0,244397180002341
0,158672011260342
0,104244071514009
-0,00026715336807973
0,349794409957049
0,326523846052903
0,0194621731546303
-0,120366090486907
-0,046319841630628
-0,303409665769337
-0,462073212937486
0,111161747300607
0,274022121808502
0,22146422961795
0,243563199762052
0,301683174819538
-0,211798294313158
0,00715565705073795
0,100962780695857
-0,17399154004921
-0,363817061056662
0,36808491847851
-0,052187815526159
0,328946250083941
0,373721116705824
0,123985186540397
-0,418952767995521
0,197929976168349
-0,036258817543549
0,325599658927554
-0,055887358705629
0,411608233194075
0,28949300610114
0,418477350287311
-0,389865654186351
-0,359118889098832
0,399317407639161
0,0354039211980678
0,047935991337493
-0,339408995508872
0,483712088774756
0,345269562138836
-0,250506240292688
-0,0689386481274565
0,14230802731696
0,262892645592673
0,163201093410355
0,0962409526510491
0,166291785532519
-0,188081468665077
0,348105161037061
-0,151375468277308
0,360155311778732
0,0954945485491323
0,196645708554219
0,336312819873437
-0,149145815550154
0,437109380583974
0,0680399153592666
-0,50370034940431
-0,00325929693286317
0,413810931882233
-0,388043505506085
0,482053908865651
0,177320004591363
-0,211846960369515
-0,271617323374421
0,221344102509946
-0,328289642850072
-0,244136244405124
-0,423970723489286
-0,103960133904573
-0,338904162891039
-0,461249716070195
0,124089379398107
0,208526084521729
-0,534980080207484
-0,465440571526164
-0,385658821750622
0,268395920011373
0,386141239571655
-0,184298018125039
0,0726314133161032
-0,072361856519206
-0,0121141519931755
-0,406302760254895
-0,388560202729266
0,162960187435371
-0,576204521986027
-0,290081063612164
0,0544170939470272
-0,33021405446947
-0,00796328894053862
-0,347040479140793
0,0582096120163285
-0,385916512682946
-0,271141534098956
0,143098119945777
-0,461093556583437
0,0722448199858167
0,0698485900616831
-0,50236007372422
-0,538893483967226
0,25983932047999
0,265699303406317
0,337901746852247
0,147877291181935
0,406605297624248
0,186218931254354
0,268553879496388
0,475801796443649
-0,128085599646104
-0,115815276493732
-0,206367627314702
0,583788119694776
-0,199161954196315
-0,210146576418521
-0,161375753185328
-0,236021479378948
-0,0693588541097098
0,268201465005287
0,303182336361331
-0,370696266482094
-0,0126593059871486
0,113245650043044
0,334925104787073
0,0932172358004456
-0,453145446590773
0,209771313119336
0,174199277845034
-0,0527488332994819
0,291881047105295
-0,261355365063725
-0,34314198853442
-0,134254423015687
-0,24806748233571
-0,228870933499758
0,0229386874356458
0,0234936983619655
0,521589188725082
0,408862842106771
0,343210468813549
0,621764143608279
0,0195548369987758
-0,305443638032945
-0,388590923952891
-0,0571103585196871
-0,28619732788179
0,1185812471525
-0,307422317449749
0,197539578655703
-0,221388614773352
0,296120733421968
-0,302549327631737
0,0968181922085668
0,292077373209975
-0,446422703048738
-0,0268272725455208
-0,591356334695769
-0,413745921485659
0,320580102017491
0,384014104170038
-0,285695116720035
0,329003165888433
0,205292582328472
-0,281151863143148
0,370834200874311
0,503035972985846
0,684743195031451
0,576956492088179
-0,368340929786803
0,349561409291287
0,60211526674594
-0,24212662834142
-0,3066991007057
-0,20432736633722
0,159842896067851
-0,393465773753381
-0,136248121079043
0,195379545888291
0,152537070052948
-0,00169636472207324
-0,0639010788707971
0,315625042606732
-0,236295825895667
0,0470031460599833
0,065245760125742
-0,215446040217414
0,302606228340074
-0,184074299432841
0,428099176438803
-0,181169247095988
0,541319453200576
0,462893737827037
0,48112448732352
0,0685266066641312
-0,159923740006274
-0,00593566367197214
0,106913370763385
0,0616200889055222
-0,398139293042334
0,339674104009082
-0,328359425228249
-0,0340107783309722
0,338370970742417
0,139022512945804
-0,168100773564796
0,232396793216263
0,494376122948889
0,0609511167560477
-0,309711002377051
0,374117793385847
-0,33144349028523
0,237722061454074
0,453463257158598
0,223112561943123
0,281041238481132
-0,0715459635096344
-0,274786400402056
-0,14219065726046
-0,545497492251603
-0,555767306298905
-0,37905136919764
0,12474873407726
-0,397715708098
-0,507951002017601
0,0138630965678566
-0,346733332149448
0,418564183252148
-0,504806922943034
-0,31254150920617
0,0842187616816107
-0,283198116449457
0,108553157749925
0,203896839140751
-0,418848918725681
0,0830321989874505
-0,267171753462018
-0,358475516018679
0,414341462345646
0,356424387911197
0,228611687175973
-0,429306998873841
-0,282216068002841
-0,442413220867178
-0,283739843556468
-0,129938264634054
0,257801464551915
-0,381238391443944
-0,109184342673427
-0,219850096676417
0,326028066205711
-0,295452592310865
-0,19220838368206
0,0993132437694359
-0,296845730742981
0,502536626138357
-0,354962652524479
-0,320258773555441
-0,0916922143637672
-0,151966865811572
0,319327330000239
0,32019169720855
-0,446923016215838
0,340969157796804
-0,284682164334078
-0,33454307719811
0,196882817899476
-0,391615516376934
-0,340602073751515
-0,148474430695743
0,124377353042306
-0,325823676722971
0,0551961114089074
-0,463450700581029
-0,487470754941734
-0,488164714752356
0,34649068428649
-0,100091568921961
0,236201544393866
-0,179102075904095
-0,390213968800312
-0,053772344501629
0,245572110438081
0,34759804888787
0,163224806140194
-0,0769625043952126
0,308369160947022
0,504363828889895
0,417453896889286
-0,429675740124384
-0,235299982591763
0,33522788578754
-0,469465870861647
0,0286799103620834
-0,203409503461823
0,353443846619399
0,405767077691559
-0,171491089082969
-0,464593920676747
-0,126389224356881
0,000879797648188491
-0,402084528385529
-0,595862820086303
0,148369047900459
0,0650558698223922
0,840618905071453
0,47485377898423
0,0157816913059949
0,373712395896041
0,325360130322189
-0,126833017003144
-0,254142433497642
0,225402590596442
-0,204983738908376
-0,250739298713133
-0,365695339244102
0,347196137847577
-0,162889700975602
0,0681279187696885
0,202064907154623
-0,000397771364263166
0,460736895893112
0,0199536513794644
-0,028303131498079
-0,369558710988738
-0,372458581609266
0,15571994863115
0,0680120004109133
-0,0703311867595708
0,25484951426594
-0,428764972079714
0,0895277202158132
0,254637977100601
0,511531156747887
0,301859127917015
-0,399274977431712
-0,265766588585304
0,114889469854032
0,244102944392187
0,215188039993224
0,150474297629814
-0,386078367877101
-0,426913923859812
2,61096848435692E-06
0,0331353669234671
0,0211324942859097
0,0665380609174438
-0,271559745783188
-0,308889863923606
0,458980842474373
0,20970249958137
-0,410625630021518
-0,410001993819777
-0,102474297783281
-0,559795038109142
0,129492225679074
-0,220486912303619
-0,0239678631322694
-0,0251129459481369
0,296193292784904
0,440484612620083
0,10039745423479
0,420745245842609
-0,193107134328755
-0,502650553091742
-0,315962024798482
-0,174069992876705
-0,715373166437378
-0,394102202517639
-0,337998471909498
-0,609423542182984
-0,445841100170951
0,0706373390667159
0,411740953413919
-0,0686582171990564
-0,187124841120093
-0,0751230374794095
0,323174704249564
-0,282868353599931
-0,443842384828254
0,488510942820109
0,356975245961355
0,421280315514514
-0,0660683752128101
0,329865084044534
-0,41758890535551
0,0585794609189731
-0,122978688600478
-0,322835410080977
-0,152292091552852
-0,0179788867922398
0,278126534833438
-0,474463854068997
-0,282403870594772
0,188053424427005
0,252241332065955
0,0115061345228889
0,14209887192262
-0,369723701409577
-0,402744965149156
-0,253496177721491
-0,220906275391017
0,429528298393278
-0,328682073662782
0,463119943609051
-0,00385699118667143
0,114249334318626
-0,422614414912758
-0,307849414110562
-0,220758832792195
-0,414058515234804
-0,0744311555592487
0,0235428342424287
0,283027350187487
-0,31705379604019
-0,0788822213027959
0,0201681644691645
-0,104452502615849
-0,127489341015508
-0,49642446129493
-0,135410721935327
0,046085772226242
-0,212455770087662
0,111436615907419
0,452686923496078
-0,176944238068072
-0,147098632225075
0,154568825229477
-0,381001929947839
0,00317383867771178
0,174580380170038
0,276542071264083
0,30241886656844
0,202414484556026
0,0140576698123593
-0,272838663752867
-0,260857156036935
-0,254822277933024
0,250532451375982
0,386448163311996
0,375851354288066
-0,065179754082809
0,430986262163758
0,0526081424152813
0,353949625465254
0,341218585833166
0,417294672901115
-0,0415349687175541
-0,0799774031409361
0,230878356397963
-0,23579569420459
0,123617575629092
0,659645610557367
-0,127030409714407
-0,496931933140563
0,00152438010878035
-0,024776655334296
0,422858036677516
-0,177028983100272
-0,266881071273123
0,422347087376913
-0,495462419928733
-0,097617780911472
0,110361558198779
-0,372681714758015
0,399367503458207
0,45073410361871
0,525162968865538
0,390155183954221
0,295979095460342
0,715798808845234
-0,194593688691636
-0,28311784338235
0,474147142416165
-0,210924227909039
0,125780583403084
0,0786935258226073
-0,35916648282827
0,460040164951238
0,520516622305184
0,23988361504495
-0,406816637256562
-0,010194960981948
-0,528523809699488
-0,256472439746032
0,0658726365212394
0,147581889245058
0,215051149931819
0,312187926756306
-0,228121433746126
-0,0683413931342386
0,369303822369078
-0,313017295350897
-0,418221189813364
0,111492689725368
-0,417091472201908
0,338847190412788
-0,181655923267545
0,54700174923627
-0,39361182585111
-0,0698049894035717
0,0202792535669697
0,294342689387086
0,0204602777554359
0,27098448865192
0,231069102517534
-0,0262154288702839
-0,0263238092825821
-0,185729810896852
0,149326089165227
0,377623993251681
-0,208612275321133
0,388689459735078
-0,174078164803552
0,464928398805101
-0,32365324898793
0,429542429712388
0,291052634730494
-0,148900053696746
0,220363709397318
-0,253361252938371
0,127241314906306
0,463705407066553
0,326614202732674
-0,127679521509806
0,646112849069304
-0,073821623878641
0,452711433673825
0,426576318132577
-0,145258556994817
-0,378397464543798
0,371168320327892
-0,108370709001915
0,223941186228863
0,199032503641557
0,0756373845234299
0,076847470539419
-0,465063924263347
-0,525507110483763
-0,381130645989461
-0,323476554156011
-0,487800862628689
0,249102717537363
-0,427259522921992
0,332264378123108
0,207308179096928
0,302382828178301
-0,132131927860302
0,143329407682004
0,335410024091543
0,0760084990275334
-0,221430324968219
0,386096521246898
-0,207243898347762
-0,247300073338777
0,533681980568581
0,248706727141636
0,124202775712542
-0,244669542008047
0,16856615998086
-0,309009267084474
-0,135085724868934
-0,455337228189549
0,236675976600313
0,198525954070743
0,0659496415133559
0,392083327161153
-0,0186614460037854
0,129831117399686
-0,0348272265749883
0,0122931280509298
0,084643616147639
0,0525274884665978
-0,169359023528806
-0,0688874045159183
-0,145834733572649
0,3363671057423
-0,119616448534598
-0,252951254039377
0,350326257763963
0,35761371429194
-0,369491204019308
0,0413774681922543
0,656204127213025
0,237422435221403
-0,0268440771954646
0,0654296530417583
-0,151344912681918
-0,268192016128627
-0,113560868294376
0,339464357812754
-0,512667818223011
0,00571504827216147
0,227425114488309
-0,232843629029173
0,238329339244001
-0,467935443885201
-0,434832403405957
0,474777715268907
0,215991562100123
0,0269657082515609
-0,445393003963583
0,487000223243144
-0,252926634439393
-0,189119850794676
-0,268222365374156
-0,344312924224827
-0,428284720833428
-0,43235383040856
0,210770123051285
0,527318262649682
-0,447182133997303
-0,507041129172441
0,172990117188137
0,0606414740026404
0,230982350058006
-0,0451584597695731
-0,0263155002569022
0,183895715251747
-0,107818570970219
0,0385809764232317
-0,431010037938355
-0,382284548740968
-0,410372509644133
0,156230519241511
-0,0404455212598879
0,438596426946389
-0,321730339816646
-0,387491155363382
-0,135073540562332
0,465778459778884
0,157226709402919
-0,138558484761398
0,0529166753373343
-0,287390557589037
-0,0854134747526378
0,3002435645861
0,153690849906682
0,548544476112951
0,406988958072409
0,543288163713585
0,382913685727612
0,460705277039835
-0,294594098890421
0,251813600374786
0,241784670901209
0,332416411901281
0,384351209468733
0,155987538440989
0,0556632990046853
0,396047818181213
-6,13210725670182E-05
0,0937688716900586
0,231607279149633
0,290617545503479
-0,0661064780159418
-0,226833427663349
-0,270308669083896
0,0657746403318712
0,156059090929617
-0,497275515431406
-0,412545829658981
0,39230271449728
-0,308300648208213
0,0458189829671914
-0,304436377464093
0,171445938020062
0,222916768514044
-0,0718359632292446
-0,13596621276424
0,276436076198672
0,0460356308660956
0,0687298444685156
-0,18851906290761
-0,112510901736378
-0,28799082524976
-0,0147092211270773
-0,0129294804343904
0,166154260514285
-0,052026843986577
0,439169588470445
-0,104763862958534
0,346530202704729
-0,360550559526566
-0,441655398319315
0,262467190047012
-0,447573981689091
0,0640599506739806
0,0898424291935946
-0,352166122604955
-0,295248593084808
0,453701579787244
0,441591227422052
-0,449562102451084
-0,178431200602309
-0,417214763577005
-0,0919677668511554
0,0206019299704142
-0,473903102974949
0,29873335047551
-0,136575979213337
0,117789460817968
-0,102114659777314
-0,387086686874447
-0,374392713827264
-0,117657011196789
0,224795720877496
0,15858548118667
-0,491328610568926
-0,175577730255005
0,318536983718414
-0,400152408005741
0,300394728221183
-0,319021695674873
0,12938249699277
0,0425047867663693
-0,388231525145579
0,492492831774285
-0,025305911211905
0,259988929033274
-0,256359669732097
0,0742993459917136
-0,2490407939763
-0,0810374867082748
0,489881895012167
-0,373095163085077
-0,123890172515013
0,303370136210402
-0,0293120134292692
0,289346841997163
0,485121300437078
-0,0682683724762259
0,329174580438609
0,128969169049044
-0,216163674702944
-0,206596734796929
0,467901444047644
0,0196598770654108
0,172024054765712
0,443201496705041
-0,315991796001788
0,278092788429043
0,382745757178751
-0,263644277939407
-0,137748457322711
-0,0629031744612861
-0,153212887539162
0,394266682627735
0,327999226203188
-0,00798100629261744
0,224669339292107
0,0458759326292061
-0,266502206570703
0,153739458856282
0,0367392339043405
0,384362912284065
0,485447652459095
-0,471126453799989
0,214593184695851
0,282696599183979
0,361453321247957
0,400327614477906
-0,346724627131135
-0,00272000883832574
0,262687381246447
0,357997702834195
-0,214213055425423
0,0307564085958323
0,174994899274313
0,195965564668163
-0,421258838344952
0,0237005574273413
0,387866322830257
0,326309472707244
-0,355054883684523
0,492097509555564
-0,265112420900312
0,414744118654516
-0,396953476354274
0,142282911358833
-0,501804187226282
0,225401755060044
-0,398139627699423
0,406307346701379
0,170758832495432
-0,352130686691488
-0,255278208392615
0,15535893392707
0,283428188608563
-0,26560164081026
-0,44314677090476
-0,0888553788064301
0,0887578051654224
0,380168946404089
0,480573150320246
0,395684677127602
0,328474522022751
-0,20245330766889
-0,280659675496006
0,185087322110816
-0,0678544093705036
-0,435506460226842
-0,0595405971676382
-0,340869684878846
-0,284771188735751
0,318542665785898
0,18542853794586
-0,313632331449688
-0,436624381410695
0,263711433508137
-0,453238984947984
-0,163973052312587
-0,354253121320127
0,182557602455311
-0,586525438621515
-0,498830096088382
0,184998034907793
-0,0804415851898651
-0,330435143142654
-0,326038989195802
-0,289358772829482
0,338070127106304
0,0632882376961821
0,464224013483256
0,226234206802321
-0,259969076029942
0,0157961968871747
-0,360879547829218
0,331129480221903
0,405937546430651
-0,0368440375099267
0,403969280094205
-0,111617774434603
-0,02526837137774
0,367579308787322
-0,0376664197866713
0,0219942371022222
0,11758702264981
-0,00185888923541321
0,020136669073029
0,130371910583056
-0,130520607674134
-0,573613821891617
-0,194029839259477
-0,416504044080254
-0,46395842704476
-0,314347973124644
-0,330866393742362
-0,0221342637125623
0,25154965386382
0,115124983999471
0,134621329435437
0,269620579094449
0,31385467099671
0,29644846487625
0,377826630130489
0,0499422188478887
-0,111189238436103
0,357759646030423
-0,196086131437705
-0,154094873029863
-0,123646482099734
-0,396027759653484
-0,0274360173203087
0,209469324271039
-0,307517629422542
0,0667607114856915
0,263435025425391
-0,049681894976036
-0,147545948186483
-0,304965860428701
-0,593384900307678
-0,0708381064862952
-0,527018088049943
-0,187936355875499
-0,484748158073597
0,0844244513157042
-0,453298953111274
0,00249188740577237
0,149995875381863
0,119833717876968
-0,361793602286742
0,0737156246666404
0,0251742160672964
-0,269492639091972
0,0933492471773593
-0,164320572480193
-0,362751132549048
-0,243831784026683
-0,338272534114929
-0,102429606227996
0,229220560466625
0,20908836261939
0,400904970518657
-0,0894788008091238
0,247305541982498
0,514860155854389
-0,0232631437873947
0,150768462820818
-0,302529959465142
-0,41289816252214
0,447206865621616
-0,150991817718634
-0,325891886110734
-0,189170876356291
0,341858856661389
-0,0405460299500503
0,238788532979217
0,203950705800182
0,0255002554159147
-0,324932487945523
0,0313119213585336
-0,267335718457848
-0,422240221619952
0,233722100263716
-0,0167858053840507
-0,445663131551408
-0,448442697391564
-0,163513884472233
-0,519796335865534
0,45035369873427
0,302219398936087
-0,00467473934901063
0,070530463472838
0,0653285053127771
0,271864273343357
0,50876713579421
-0,105573090686403
0,16982838341183
-0,384237420356403
-0,151040816666415
0,506674896111079
-0,14653495562619
-0,28787982626097
0,0805511972835478
-0,183642327096152
-0,454639196374751
0,418416219259806
-0,133821022212541
-0,349916628063562
-0,0652462160437211
-0,277599238932128
0,308837203518215
0,257839701680451
-0,453679701576521
0,0870283060232025
-0,263101210250348
0,336970630219515
-0,1768525532863
0,255953066803473
-0,382642834418989
0,140177460019775
-0,0618269398460663
-0,364011524785826
0,0515611906087806
-0,00362212063146416
0,518183685272262
-0,377462696478421
0,0835750606131533
0,225963657570771
0,294070130327828
0,240627810190957
-0,20653340088722
0,321530440739137
-0,368474645944533
-0,504302465427816
-0,357885259022841
-0,00778727253457745
0,311891976489143
-0,489641999917895
0,394052984739348
-0,322997524367356
-0,350431558683445
0,184946631843759
0,124167174376662
-0,424461963343698
-0,057886842183953
-0,469825248243793
0,186177431125442
-0,186297697545481
0,373316993070303
-0,100665196971948
0,159834610265589
-0,0761347484832882
0,0604458419783514
-0,249886918532729
-0,0374426215512542
0,030848729145028
-0,240242974062395
0,395651922258359
-0,374339733538249
0,0728114026472025
0,143855832816966
0,0568061766255583
-0,0683364675288146
0,353511704172735
0,161358814482329
-0,429407053263721
0,0958702036154959
0,0530479557617253
0,366341515364332
-0,0759885283201564
0,302687334734356
-0,255950575492477
-0,0384767175600716
0,449628564398707
0,068390132298378
0,347741627763946
0,268964189238487
0,378822135052911
0,504496201136055
0,112934915894762
-0,0606695707481606
-0,26178137708401
0,445901309842246
-0,328214737533473
0,167669219674547
0,277319291191367
0,405241613614867
0,359929090766203
0,299972867500024
-0,0730562478178443
-0,273733557318129
-0,320666849705477
0,408416139644707
0,414904984420021
0,144048678883896
0,228134100695002
0,432075410258051
0,0354905158396116
-0,435212490975394
-0,22980478041941
0,35355099788378
0,252073605172785
-0,00937072042663233
0,195288609414315
-0,0388048899976271
0,383821893924312
-0,138417700630785
0,402260780844623
-0,351806100792034
0,271414123068873
-0,518152491173078
0,387752393436765
-0,284241291251563
-0,0736398963049717
-0,320831315529245
-0,0622447815547906
0,460479585901126
0,363706222206217
0,00558407957367564
0,413152231855148
-0,319791683269463
0,44459847547343
0,0433758581465657
0,0134091134258588
-0,414699157158033
-0,0564437067071996
0,38110425131144
-0,120428896002517
0,239027511562618
-0,514028705680569
0,43734544947037
-0,193088361477675
-0,0244511027196966
-0,206658552837955
0,00232663205068089
0,238201247735239
0,431753130810592
0,376163773081974
0,350159643971745
0,394816057701941
-0,169724845877261
-0,0104149432117382
0,244913094746791
0,0659042501673311
-0,000246328069011814
-0,0102606297052747
-0,378944577111676
-0,209071811128137
0,473456988708657
0,495466987507307
-0,382489644920395
0,19257608959808
-0,270816611167983
0,0958324477977634
0,225162333482105
-0,0634153736472689
-0,238486692160981
-0,199111963084814
0,349371200060927
-0,510767322602041
-0,322444488512512
-0,0894139368387358
-0,410801570235333
-0,279666049313424
-0,000296350027222297
-0,355050793832398
-0,097681113678645
0,472220963390541
0,518837070053734
-0,102838672398687
-0,199719001942032
0,0601000085297227
-0,435526526037383
-0,276744127635259
-0,477207100733218
-0,0493871215679937
-0,0373156715309972
-0,257670720774762
-0,17409739238889
0,0458745208954317
-0,0483955385579821
-0,504137155164572
0,0157791264010174
-0,189323563261651
0,403678705556971
0,700660424270981
0,125744068445906
-0,254389806816718
-0,33990389741652
-0,476008048426743
0,331385367794579
0,11111768544462
0,319494831239367
-0,100681368382019
0,191102290161395
-0,316164456593412
0,0333075467565095
0,380693728779163
-0,41799466439959
0,188458233461994
0,371596055045536
-0,11418094095503
0,494125508143872
0,506667486442559
0,462285017035592
0,441424129166707
0,416385920938593
0,429866882797273
0,484164007810311
-0,211530517707014
-0,47331434652271
-0,503951132276964
0,38663299948719
-0,368606118210468
-0,158093275417552
-0,102202529682117
-0,345657826040809
-0,237382441382036
-0,0385082867572864
-0,0211653516060243
0,0189576984079199
0,341870515814047
-0,339557765095623
-0,211620214850746
0,292357830892311
0,0440052976998832
0,270082919228076
0,239187560855098
-0,308933557387876
0,0217513807684888
-0,129341588842863
-0,417982753109941
-0,0239887343399818
0,505656217322719
0,14259334516784
-0,42474719843955
-0,497385504563151
-0,195363436175394
0,404988137723997
-0,263386431850274
-0,239986678889669
0,574557609209236
0,207873823394892
-0,13306410919818
-0,424311923454033
0,202861269836682
0,231768779676999
0,272479894957662
-0,137766670969607
0,471728735156368
0,0972237144362127
-0,320831483295203
0,377443122080388
0,428795902554386
0,20854963542762
0,347730452124901
-0,160553071489815
0,453229942802913
0,420938829846993
-0,162327081372423
-0,210672886134302
-0,0377308103648776
-0,103015598214646
-0,476663061996888
-0,378673034862202
-0,351750663079971
0,0291475796127899
-0,00753360085417679
0,500688183951745
-0,344230819297879
-0,0786470987730573
0,450849983884772
-0,250868222266017
0,141207512464087
0,131358016881205
0,358161465057221
-0,143932068959308
0,333442436029136
0,384548132271536
0,118830397931883
0,477148801791724
-0,472054493728556
-0,312021518464758
-0,446165976088506
0,357011699982459
-0,466204721930532
0,0132396351344792
-0,263229216579718
0,464570545329503
0,00662126904663862
0,358965891678792
0,0783606378555906
0,286140679806716
0,197700977302832
-0,276518586506404
-0,428136531248661
-0,469007304981453
-0,0829498001813168
-0,0682190297483085
0,234761022485557
-0,263053249441762
0,0915798825862993
-0,576097671077891
0,119103789397857
0,336781492595972
-0,267200990810036
-0,247180574746085
0,105980209893945
0,254333685001592
-0,480219705180193
0,151922744072072
-0,105461231713798
0,453830839113254
-0,430576701150544
0,091571301728168
0,173504766455039
0,266649242453836
-0,270372067119979
-0,462198804686101
0,31087188958744
0,0352749317058125
-0,320802697775385
0,181892355457021
0,289382690385166
-0,246498269579281
0,18598528694197
-0,0427125975974902
-0,478996840951553
-0,0505445485549245
0,0551165327271254
0,409795157318373
0,28488887892516
0,489603154447915
0,215118550054391
0,272069152733199
-0,440957830149999
0,176035169156409
-0,424615404331677
-0,306123834012068
-0,139740582386777
-0,16925655243418
0,204189658027231
0,187704639854995
-0,0547016224690215
-0,22951318544835
0,105418739297642
0,0781948848987097
-0,30270100688375
-0,451494734784148
-0,258913255198703
-0,196014561469099
0,0884756697228924
-0,332599066562573
-0,011627201183367
-0,0471225550073423
0,381812583135454
-0,287512436399412
0,00807647393975156
0,129890053172787
0,407941069051621
-0,0800461379042247
-0,470148743376783
0,108583599672805
-0,175893259555783
-0,352065301898502
0,433824010260299
0,184090110209581
0,195644474912269
-0,259308221637881
0,0308927756412387
-0,0112992398824756
-0,393075601909961
0,360193926054084
0,290028246254126
0,138494535931392
0,160073660725538
0,195874786409702
-0,0204404921225928
0,114669377329749
-0,384726166372358
-0,0464019853435173
0,117382295646981
-0,544717188653215
-0,107221336156254
-0,504492770005922
0,137329346501902
0,472619143702441
-0,0794129990656693
-0,264822476873153
-0,393619641991129
-0,036707738694586
0,172494305857238
-0,220127671847114
-0,381004602611201
0,467408527385225
-0,353069988476611
-0,183937611842499
0,0666572761566645
0,0732543424578704
0,477284591664146
-0,290280033919698
-0,341022228321533
0,158691065474155
-0,259030287084366
0,107920782978103
-0,524819862634929
0,1584752792224
-0,123164499156765
-0,0172899773040013
0,0424156069954128
0,401325945837075
-0,461386705076213
0,0294039179563187
0,30800591844071
-0,261407371625004
0,39172833735195
0,429439293278466
-0,0107897164618183
-0,490737981320442
0,105935658649736
-0,470862559709029
0,328851251666599
-0,0307841183530544
-0,174715112743301
0,250929296832033
-0,0745966530286691
-0,0942390980292167
0,0787213094108502
0,153478241750425
-0,433524122209042
0,402514960027136
-0,0962225486269463
0,0605207571987488
0,240204743661697
-0,0976670493307073
0,54384812474623
0,363957069325421
0,596662835278854
0,358907930527198
0,564209931737916
-0,147234341404245
0,353173811142199
0,239149265451112
0,244069931017849
0,0242591697876427
0,504586702417519
0,277025317518109
-0,487154007105934
0,166417027505569
0,131296916693122
-0,17071603549212
0,311346421861717
0,0307360945878253
-0,202369357786313
0,168259401185559
-0,233809104140728
-0,0214956665303128
0,0647513315197803
0,243654982844118
0,00927608723150699
0,445197906183177
0,144975070306558
0,270557861998797
-0,375461646486343
-0,162781792091883
0,19221633108405
-0,465581290053267
0,499260317964154
-0,107641989140006
-0,200990554868368
0,613841485195103
0,0342727298779962
0,349522320773298
-0,106344751212729
0,0408376934142765
-0,479020803064658
-0,260636144867517
-0,0604807988556478
-0,446191007246352
-0,180300678908965
-0,00513121928327309
-0,362330678786305
-0,273654118074874
-0,144680792924368
-0,101715411784812
0,021018606017943
-0,256079292227537
0,147538217502708
-0,118019084570204
-0,358259659310473
0,316672883936627
-0,167319008226863
-0,0788608196924867
-0,296601284531396
-0,457863428269056
0,252311333687153
0,547672569451675
-0,04391750289399
-0,0210303504913287
0,114963117565626
-0,391758305362455
0,058302271498067
0,327759610147704
0,483137437225495
0,44763536713837
0,0532101991368505
0,399786091828619
0,324060849763481
0,232263150034595
0,347527269202996
0,159591249963078
0,0961704257080564
-0,479692215921975
0,241837220610489
-0,40452088912977
-0,233888767535517
-0,300122372834418
0,498361676851011
-0,190429729397965
0,464892549832545
-0,149714936853158
-0,412653754445882
-0,0529382089864067
0,566059429717638
-0,289188164138148
0,244843424223243
-0,173871738810303
-0,448833635918452
-0,22735026105927
0,0965624593132195
0,479476903537914
-0,263950505201744
0,24071657831814
-0,428486065905768
-0,220632714089301
-0,36702116898588
0,464479044528901
-0,26035412902029
-0,0575934213388681
0,0399832872394394
-0,0660222254535287
0,40220525150893
0,167461537032269
-0,130758867773754
0,348116135770081
0,028755518107909
-0,116288632793181
-0,357685928275052
-0,216624464758478
0,416758754628711
-0,433577445960434
0,130740965766109
-0,270338816899067
0,188386652557274
0,295095298005504
0,443216251076232
-0,25582585751816
0,479333430053356
-0,115518906440362
-0,0291800617841911
-0,333686194305162
0,262673120369517
0,189283878397794
0,338280900306199
0,295564930325171
-0,147923873107845
0,484387195661844
-0,422661944722134
0,215174033173907
0,351317275711949
0,173973594640369
-0,0370256609921463
-0,380051040966087
0,474313382978697
0,20151023413125
-0,178436148296313
0,251984417788677
0,149817344103855
-0,43671935095299
-0,08962110969686
-0,433632264814168
-0,206116515074911
-0,188213102839986
-0,121906214217612
-0,342107232120869
-0,0166904486327853
0,370907757371155
-0,158328887847405
-0,143350281586568
-0,38817369420462
-0,21776357512817
-0,301326107141248
-0,331794687002802
-0,165657320369807
0,0759764106832335
-0,14502823662247
-0,0744734339297159
-0,325190803886014
-0,0731643645899204
-0,122452219306702
-0,203168342683077
-0,38685525948501
-0,175369718337223
0,164835513968324
-0,324771510355534
0,492405092426185
0,433412563134644
0,00182037805952953
-0,00519869016809525
0,405666541871802
-0,00603241887869092
0,127352797191876
-0,340235922391219
-0,28420868783319
0,274947040690381
0,210758499200809
-0,356049880318367
-0,0522113128342718
0,277839025844745
-0,0553082393274215
-0,134958062616623
-0,0994084843431639
0,479292715890004
-0,442917712006214
0,0655580691832853
0,344871406836841
-0,415366106161553
0,202437769948709
0,449271945724856
-0,284836140826734
0,374266510627796
-0,168434488304338
-0,0457855782864159
-0,0120020572882181
-0,339161112007031
-0,394909225749853
0,0385316533840507
-0,247255303847125
-0,22866864785107
0,420078451827487
-0,221833530010967
0,511560734310625
0,233832193048
-0,111321420414198
-0,455214290531113
0,0824252393014847
-0,111942136013853
-0,425515281001812
0,248428854508525
0,496472938915935
-0,355607479277815
0,240577528598056
0,48043839306591
-0,403528133827973
0,0621680278110045
-0,11941357837996
-0,442431058817099
0,267123170721039
0,41877739757715
0,305497422080325
-0,400708182745181
-0,241537230301775
0,19012908112377
-0,227717409081232
0,215915074779914
-0,1874173400325
0,269797273984763
-0,306885064508388
-0,291731628031813
0,226686073664427
-0,339384714177832
-0,120452813970336
0,298646069071422
0,298547380510041
-0,0355332300698074
0,454666573067506
-0,409320390275363
0,466671129207439
-0,151568353945188
0,311120909550749
0,0914350723997661
0,262742380732897
-0,507276234958576
-0,306709913215833
-0,378587570972841
0,0398110657756944
-0,022374127335005
-0,17761228083943
-0,172844462096142
0,392625813501723
-0,497643277444039
-0,11390843048625
0,172677646617076
-0,291541832747219
0,356062241416032
0,435254493533668
0,401622730304916
-0,158838862261438
0,455814623029618
-0,114530898300669
-0,49416962702468
0,322726956580733
0,183884274998626
-0,092616952300359
-0,268011785004293
-0,458708848785008
-0,49337588762556
-0,469205371136668
-0,31044912152401
-0,48221673217977
0,103016561373104
-0,401198636123416
0,0347317217553106
0,283733176034664
-0,150015348912505
-0,506743462172008
-0,393617388821169
-0,403219598803017
-0,398564902707905
0,189136007036432
-0,440147399684016
-0,49791271259506
-0,00525924521448152
-0,384769951991105
-0,105395089221181
-0,129386263327517
-0,413348050754757
0,338015988971094
-0,226920705307528
-0,181834642397601
0,304724630047784
-0,393057751885177
0,241544429092456
0,00660980656119525
0,434173078245564
0,369418113244412
-0,50372061719167
-0,543743710086504
0,30227169523311
-0,181286321636609
0,239194189350744
-0,524429765170808
0,0770992450202479
0,217271315819214
-0,209113257144408
-0,12196778366853
0,180835047207994
0,15455750507836
-0,330070301355765
-0,336637907448718
-0,47036173118177
0,0910636795930704
0,0517543538935975
-0,578435781500962
-0,165677578768508
-0,403565022690469
-0,0689254531044885
0,00668392508559884
-0,0899493526050153
0,0214543846757555
0,0923961422370729
0,0632361222818663
0,0888627067591639
0,108561505270423
-0,255989643869096
-0,606719393171165
-0,666995179852563
0,157502844249579
-0,571184844427755
-0,30793051447488
0,181664247026934
-0,0522733499549295
0,405068160292758
0,447078990796036
0,517332907188464
-0,193966466730001
0,524159354259644
-0,30094387057423
-0,368174143632614
-0,41457658034016
0,324994289257588
-0,652451099643884
0,0762297600512061
-0,42344637637666
-0,513153538936432
-0,00166304458681952
0,372268020100511
-0,214753911349513
-0,180762066357193
-0,0626262023870955
-0,116730093800714
0,0778167188924894
0,12661753911856
-0,300072035500791
-0,498540857950916
-0,543368849139345
-0,77626020070622
-0,487733937367459
-0,376673448790037
-0,352686134821106
0,379545309736511
0,464909190908167
0,0380272973005957
0,183253526550575
-0,0370879779577882
-0,0738185894511766
-0,386723357372607
-0,45794267049116
-0,0924271645024062
-0,587970641173924
-0,339127107140961
0,296568419954479
-0,0927327257358031
0,0454502538810529
-0,154011603881082
0,293489144553193
0,133474216625781
0,467241580937401
0,257888687679762
0,330265278901655
-0,0823223757441116
-0,399883958535665
0,223719913340979
-0,21522471553948
-0,345735317373385
-0,335703779205751
-0,138378436822434
0,258101532949748
0,0324588676307091
0,0925023622155095
0,167494471553907
0,367273955810823
0,169220780215842
-0,517284267134235
0,334626972185856
-0,0992383283152315
-0,155890617621082
-0,334553719516581
-0,504557246840063
-0,584316515610568
0,364583798198135
-0,0680758568006671
-0,361868243360067
-0,483965921673908
0,291778296135263
-0,157349553376368
0,423836601837051
0,20723578394316
-0,109947675715954
0,1897840815987
0,0756231312541364
0,302812487901826
0,217053719506253
-0,242871363857478
-0,051775782591295
0,291713151073052
-0,563571668127536
0,32965798885939
0,591203012376652
-0,217475253499302
-0,489767516584513
-0,111443834496861
-0,348541106227142
0,139453718247489
-0,516288011872416
-0,153919483835887
-0,113298723022005
0,12679177213602
0,144771729601175
-0,166919846141704
0,522143414462402
0,267336418743868
-0,194427546902759
0,0552761659749207
0,436070112060503
-0,550849953802807
-0,277848416233626
0,452709340577714
-0,30156546465395
0,483911623031157
0,346566450718012
-0,53089272103986
-0,290571722415084
-0,165984016540059
-0,316570485514184
0,275706125056853
0,181801366252319
0,431454636720831
-0,519672517796516
-0,199045101948804
0,440814890489883
-0,463602315739027
0,0212537931967363
0,267904524618395
0,448611066610386
0,482972508972902
0,204023799749027
-0,0335912529559151
0,271105739568939
0,0829685463490749
-0,451885698806441
-0,447255620708342
0,269940345710846
0,195734237392812
0,150003552843455
0,0663346553141082
0,0787102882258519
-0,241962699168338
-0,184916493766269
-0,258252016467355
-0,0969898619160257
0,117282018873261
0,352837326658878
-0,162041012963958
0,191047807630223
0,262651382877319
0,248777694244534
0,338833649854831
0,43904151503041
0,214277502714624
0,219409081753596
-0,3596897117665
0,437051890300989
0,0979754752154122
0,398961085378554
-0,132019768355755
0,161841785789038
0,133224461125487
-0,461444844008165
-0,0793348916710051
0,202505058213161
0,285604222978874
0,336672471338354
0,257711554151326
-0,478636764669433
0,00285319609365135
0,282661409060175
0,447248180268845
-0,468257172578078
-0,268106006719221
0,134451783728482
0,360235987430095
0,388238334052074
-0,287283621431185
-0,329067370088328
-0,406698023522928
-0,327476699220614
-0,379756387756263
-0,270379863133049
-0,342360180537351
0,135549312907663
-0,373661501066782
-0,154090049243854
-0,0336564381653425
-0,331139457047477
-0,135325860459337
0,357754849762542
0,193384720335428
0,128931862610174
0,448561788527754
0,297789011248897
0,388752215020782
-0,320468958686224
0,350242466983771
0,414222552538964
-0,114902723533531
0,369882057974654
-0,105324770525757
0,0874969458450374
-0,2524530997548
0,429036050736157
-0,340578186412853
-0,0492652948187612
0,523134113129704
-0,174427185007948
-0,0773354969709415
-0,495582615577929
0,0341884243681623
0,110651571286741
0,415711221373167
-0,0558844208774941
-0,452330280444466
-0,117405701533533
0,164780339604314
0,167502213114641
0,129276913883759
-0,377644110394587
-0,181617307484626
0,141504449157489
-0,145651348759656
-0,44942729154693
0,168440060308334
0,309965358826066
0,46253799085818
0,432028967049764
-0,341834129105468
0,254579838883329
0,380739773669178
-0,330868587111639
1,01686844972499
0,344333324767615
0,146360422636508
0,140437078676728
0,465285847918881
-0,277012454271798
0,358399585363449
-0,309934979682472
-0,0394544540641583
-0,0433966673121178
-0,0223399789879628
-0,0221850485109857
0,317080955935852
0,36119970393423
-0,482500389210182
-0,313271737546781
0,417572911171753
0,223502644574121
0,0813203604340906
-0,438035223517109
-0,0402698092710779
-0,11771969231713
0,333835230577993
-0,158406955745569
-0,30589401493244
-0,140134710201496
0,168988181535156
0,273239351239397
0,667702539278892
-0,145827841460314
0,00231841461419269
-0,42341269827018
-0,258294944970488
-0,524691900758373
-0,276490510384325
0,110208908832841
0,0213656833788649
-0,264684439793405
0,343258731333307
0,179499877184478
0,236273201593963
0,46919197448026
0,228706163693548
0,253512944005498
0,126706064732549
0,384126565584905
0,159217854039934
-0,413898071801579
-0,568899224414927
-0,131742840177018
0,553913969101362
0,159932022277588
-0,437283690062294
-0,0912775713489613
-0,048936135847071
-0,0861621808598699
-0,218770883889958
0,0848677119735855
0,492770000667621
-0,30922514529483
-0,148097081684456
-0,0734081505861959
-0,430314252310012
0,210942698260015
0,167341773525279
-0,422802897531898
-0,268406443279732
-0,381271045949845
-0,412282588316552
-0,14779686678564
0,375681813282744
0,453147486971037
0,202946894402351
0,315751999186089
0,312571661754902
-0,05268272610843
-0,176202524879538
-0,296351359332501
-0,13368981823879
-0,372018469726681
-0,131850633990809
0,292064112887842
0,136209585084261
0,504266629453749
0,218529193709345
-0,333955242895505
0,386677347117035
-0,00893188036209698
-0,272963011938002
0,108270080072503
-0,087009810353693
0,0966807174487235
-0,458678850303333
0,485856394609033
-0,307119756215851
-0,33559099384035
0,221431625014545
-0,490162000986823
0,243564447268641
0,237765988283774
0,345018851817243
-0,151045770380301
-0,0786388501053233
-0,237318609058056
-0,280846609047324
0,0530252317527577
0,411650832078233
-0,262274037984536
-0,154779932218251
-0,199567043458207
0,0552233800332389
0,2614017047332
0,0426789455730937
0,417147647038755
0,24210597600568
-0,0521400659710533
-0,376130819104609
0,479342979980225
-0,205816325847898
0,00988330966652368
0,178852189058043
0,0549574725259294
-0,22506029925506
-0,430004711161663
0,122982490235173
0,373899420664599
-0,149053647950782
0,047433591421254
-0,0638679061217452
0,178381008728697
-0,190617369635887
0,139404119006985
-0,381043701098384
0,247559849159384
-0,0314279805723666
0,164538052946929
0,0505340946233854
0,483440908124477
0,0946879865866329
-0,443862783540962
-0,57641399216402
0,50803703833782
0,163406005812198
-0,384632601192633
0,185651409359745
0,0620473457789643
0,250082207672429
-0,452541699469539
-0,511410607529301
-0,431885643882462
-0,218231747813121
-0,188375229631742
0,258600841163937
-0,332531096335748
0,405214099169343
0,394219802728369
0,403362114630779
-0,215834448001452
0,380082176453998
-0,379933711829105
-0,516850955682884
-0,148880956770623
0,374797427226212
-0,0557420685075516
0,134901767016457
-0,0174779465549629
-0,593604261819368
-0,603254491983182
-0,104154488927973
0,0408013354421314
-0,234457690859357
0,261797384963455
0,0777723617658749
-0,211040650078881
0,18646301613233
0,118435516095312
-0,215175866460021
0,436948840780968
0,354092377677792
-0,42725571484637
0,378784554488391
0,357935349390812
0,00331469834936537
0,293803743669494
-0,275498745088983
-0,123983401356913
-0,336994697295885
0,320670940201724
-0,227950753311411
-0,427871620089124
-0,363113617465532
-0,497380549955496
0,235581824260953
-0,423542710151146
0,192918501258801
0,493545114064104
-0,181539358837245
-0,276098537339111
0,144732048654596
0,150328107337711
-0,400299459596444
-0,251493520717087
0,222055649470849
0,33250166839908
-0,36610267104552
0,406547409547705
-0,408387771128875
-0,295105840279322
0,182437638138625
0,366667209596684
0,0652874776000565
0,0924075606183718
-0,210206971334358
-0,469802299401128
0,393065172289107
-0,106232034901062
0,353527084589907
0,512368791650429
-0,108373867813986
-0,12853291813895
0,0537194136049085
0,111462440189004
0,417770677445466
0,448798420141201
-0,215099905653358
0,365167447707674
-0,318632496965231
-0,109027339892305
-0,381014631596812
0,0629462406910393
0,0613434437839469
-0,376590465372453
0,036577292056099
0,2221363556558
-0,435413604106481
0,428828981206207
-0,0564995219728441
0,126325443213026
0,357475471150817
-0,489048934070882
-0,264263690755394
0,0350085840707361
0,148791229558316
-0,312437906070612
0,111037859861022
-0,384777149697521
0,0146239868569665
-0,293142417237435
0,0838457572446277
-0,229638295828016
-0,2233214068035
-0,344884184943125
-0,049212133206594
-0,0333283745524348
0,334026341352995
0,0122655353142632
0,393386538027923
0,145991122994922
0,431690001883318
-0,435054590347982
-0,4589150107687
-0,0248743746568409
-0,0734223637606121
0,26925388386904
0,0242486514729674
0,0203425667809055
0,245811750528315
0,233449012382631
-0,482920303435675
0,408895532989025
0,208209839506188
-0,110246843804138
-0,242691186895771
0,473303111873253
-0,279934038105602
-0,109389356138602
-0,0952901591447801
-0,139274839543548
0,0938979079415855
0,319936136642347
0,132837142059745
0,503012379206955
-0,294671004327104
-0,385305572229072
0,155789136943072
-0,0179573935378556
-0,310694244141295
0,414971351054145
0,362889354135413
-0,15385835684716
-0,154365088629706
0,409030294934767
0,377567107266545
0,126045910933076
0,0476354554051699
-0,342981073466586
0,264782235800597
0,251616517820342
-0,234045556624546
-0,133106074699566
0,370603606305367
-0,279606920064575
-0,15755061786367
-0,1169345759594
0,127661612079841
0,31786299718342
-0,0718404855147183
0,270127479408853
0,623687333407003
-0,15325686699632
0,0536921155709815
-0,022948904873341
0,328664791236374
-0,409374760229576
0,318391910696673
0,0970326177223669
-0,0595788351610271
0,037977952760634
-0,329561123079416
0,489937050263368
-0,359659219095325
-0,498971023130683
0,487502325320385
0,0320247437488403
-0,190468994756448
0,370859854328846
0,0859428853664908
0,271533469104122
0,0220337343096512
0,206575011850745
-0,499953556938746
-0,421180651962979
-0,362943368258083
-0,157947879140007
0,320509783230953
-0,0565939909819336
0,139381128678928
-0,0606953051774877
0,398717828168838
0,484734526837707
0,226690084947974
0,087874044472293
0,0247899599023117
0,195960773013514
-0,48991810669653
0,236721018206664
-0,296129407266215
-0,382465412785516
0,154579138688081
0,0326530288591297
-0,31187404776545
0,32305119923458
0,347046106982532
0,00536567089397721
0,0620299524450814
-0,141162659805809
0,452864732105688
-0,159067548652677
0,453652389791632
0,48680121916663
0,0740655402532152
-0,441401307909471
0,339350572712417
0,29093461986209
-0,494851024353342
-0,0370698890355741
0,467354183535722
0,0462700163695356
-0,242234616420341
0,266814398005053
0,047050970395585
0,0698648088471334
-0,496454266829628
-0,0981633405192585
-0,132711279966268
-0,329194303056781
0,0853605231202024
0,480460504060826
-0,477458759666168
-0,12216783623312
0,173916150198279
-0,146298645830852
-0,360694398107331
-0,455550334395631
0,0548682695044522
0,434686419523641
0,321185470009775
-0,112526307376328
-0,464020625879979
-0,44249374463339
0,482567165501045
0,326378189290575
-0,346229754914672
0,35386302826498
0,0419199307269904
0,341307920572926
-0,437662029505269
-0,425560987454626
-0,160582370367164
0,486541951029542
0,106573881863884
-0,456784749383472
-0,477451737493953
0,200228103762599
0,29870979245692
0,00250201556016783
0,0177253789816636
0,45636075360531
-0,199574244534399
-0,276684979338518
0,156866389632628
0,460003814641388
-0,302190313489265
-0,368083378238642
0,203051001160895
-0,448729487668982
0,387387795681223
-0,289460726870837
-0,403010233861199
0,326042721256242
0,296525061874852
0,0583653089041731
0,193034958986315
-0,199195567187509
0,0334965581150607
-0,463003455382627
-0,3318212856988
0,0928886849717708
-0,137985016870926
-0,192390596287039
-0,0938206299179329
0,00792246614951753
-0,432334124544791
-0,0747324026072083
-0,171431487738821
-0,448840022528935
-0,461373506561561
-0,477744021908261
0,170752859986738
-0,236837614758607
-0,395929766606886
-0,48701993775765
0,491614397463903
0,057962893536687
-0,289397853368704
0,330585341895554
0,332770335633094
-0,51793694371887
0,224217255378186
0,0586560664978582
-0,366971114743674
-0,492090204439125
-0,303577029420189
0,442969976134807
-0,416535955085346
0,0319113040576966
-0,33743673926072
0,0699477797964328
0,318506546234017
-0,000279613537844114
0,300523566920554
-0,168118037128876
0,325952494901583
-0,236607334919557
0,428413322162076
-0,0238964400945028
0,166210257896515
0,208777121308158
0,0502193232488464
-0,24437137883624
0,108344233303429
0,0466307012517691
-0,0296508108324808
-0,066669600534276
0,221312554913182
-0,44144742167757
-0,0517456595859482
-0,456604509583162
0,0818364074188955
-0,31313499920328
0,0449099638174653
-0,286189369679427
0,109410982697761
-0,307970388180593
0,177250530001495
0,128157444542452
-0,361004949034746
0,149689175025415
-0,457458992468873
-0,474048136255726
-0,055082017814313
-0,222716228441669
-0,308426329311348
0,483294892939983
0,232815838171614
0,0987383576613179
0,368256218251594
-0,177507088594096
-0,454775758074783
0,334294938239518
-0,272029028638874
-0,384798753954488
-0,49628793948995
-0,464141319250882
-0,355024854391902
-0,172306433374062
-0,26805616394331
0,0861918411486964
-0,0511607499364722
-0,397315821468522
-0,37786090717321
-0,121238128376701
0,0299024352585444
0,0353743140749264
0,358877773717085
-0,257139960090493
-0,282284578672743
0,287435484485438
-0,455300910377549
-0,42534258585672
-0,158913598856351
0,240141568375668
-0,442448655844337
0,426344913471673
-0,284284856536111
-0,105923578447933
-0,340757228946208
-0,601195923234305
0,421652846210832
-0,143378441534198
-0,246209282565453
-0,0444549938351427
-0,412901362145425
-0,125475424989835
-0,263402331685902
-0,230429861128391
0,18504911614031
-0,168446857681316
0,179866802818563
0,0885400476317555
-0,344727466819292
-0,344728474215422
-0,050245274638343
0,0770981746449746
-0,173980769741945
0,0297707447455129
-0,290141780762999
-0,0486319939691013
0,056910324182686
-0,456565437312334
-0,305889576515848
0,461006470476968
0,127843003443822
0,326173451351403
-0,415805180660193
-0,274725814492977
-0,54213934757875
0,159995496450264
0,319039570505571
-0,145930616144347
-0,545995587875249
0,164450866592779
-0,209047121845602
-0,0855846065083015
-0,146522255492353
0,15232045649683
0,487212964364011
0,345981516058226
-0,132265946958687
0,118154754730221
0,429885702679377
0,46594710927671
-0,263273521408706
-0,150704610930153
-0,224625800142356
0,351948178570173
0,324261250078621
-0,221579949861839
0,480211728653721
-0,255935567270269
-0,280387389175261
0,0573861882210559
0,35579765171807
0,194968390190354
0,282226318555177
-0,409485040698258
-0,0685774467936367
-0,0581467744086417
0,251328383743777
0,446610763890192
0,437376466539388
0,490113751674238
0,0855650589657325
0,436645644139796
0,0263154364329028
0,298044928929387
-0,358180419424436
-0,290003536102098
-0,119610291976921
-0,257148127966373
0,499293085653006
-0,00361592066642641
0,33740438006557
0,313051244325557
0,314568560065261
0,407987366738929
0,141645111293574
0,533448038708679
0,38518585804577
-0,111166569254661
0,294810213426698
0,418499616646562
0,57558306588317
0,11775029249824
0,117774984669452
0,135432801202487
-0,135333679119916
0,54164947561357
-0,0138144514536536
0,351802403018192
-0,220987234605517
0,0929016971826748
0,311483847535468
-0,084175737155197
0,0431043646558973
0,0985422272440811
0,339247834927896
-0,453653005462768
-0,41826393870556
0,385526798612218
0,036553330558137
-0,0482030133327555
-0,0900720664137539
0,360247563999688
0,478891436366956
0,0403515521881881
-0,0174580012314418
-0,172724709446028
-0,389008978493563
-0,056191248421422
-0,268807699792868
0,656042791979017
0,241898052419156
0,407012010939582
0,417491471441813
0,395978585887058
0,190201981489857
-0,1440953211845
0,571680125354109
-0,0266207004018893
-0,158166746340681
-0,196383954865575
-0,050181085004649
0,189575361555797
-0,415155720498697
-0,273542152913325
0,411278712056241
-0,272857520623532
-0,028105807270904
-0,170290203225582
-0,157662684758172
-0,177208411262246
0,416589829775241
-0,285937154493513
0,416327098575861
-0,377057861084123
0,267808257192331
0,488298280023931
-0,329684331327519
0,358036482142384
0,252116269922101
-0,148671378920011
-0,245622080111658
-0,0613690578224418
0,47328190911695
0,47576857714178
-0,0650630255237227
-0,549495500774212
0,296188252775576
0,467988308439546
-0,265399237079239
-0,0756138357096651
-0,352040505909931
-0,0705650124907436
0,325869444210953
-0,267170188374431
0,156902209230187
-0,299749405810351
0,338866645314668
-0,370801601967848
-0,127561178051946
-0,194461497673374
-0,269613382189406
-0,103831081871138
0,0416264121216983
0,200444707550467
-0,0732019375590024
-0,304101421813554
0,0294774325516129
-0,331108956020034
0,362148516169786
0,0359584289209292
0,292881965235863
0,255986624283784
-0,0840135703496534
0,272781003684949
0,3216522162227
-0,549118647235822
-0,209276079497287
-0,448524940761448
0,0797088616171761
0,332721064881978
0,151319485104405
-0,200762375584227
0,227527835745145
-0,395860658725522
0,520849419931527
-0,220087070354563
-0,353866252579645
0,0548819521949522
-0,0210552412317189
-0,202900293319723
-0,429094437367369
-0,143216364432849
-0,593423982036464
0,0176021419556808
-0,293656228045731
-0,397245428856899
0,333570012812111
-0,375977585198611
-0,370240459828947
-0,162370684616813
-0,193385601762744
0,024171635077714
-0,510824358886096
-0,329362972205431
-0,409928718812042
-0,280145178163727
-0,000746817141595345
-0,522120558149375
0,172103140925184
0,424573938792839
-0,278301206779807
-0,182815893984565
0,314044954895208
-0,252316965945355
-0,472172580404679
0,437638000264429
-0,31328640010378
0,293716325619826
0,430942373944291
0,0900891999943818
0,0201569345803227
0,21864116586699
-0,369409005737248
-0,308209545930191
-0,251145471840322
-0,0127109381064616
-0,246244638604956
0,0326345998152794
-0,325787957174533
-0,268585392052494
-0,318794237824816
0,312406512999902
0,00285441857063799
0,27583098775736
-0,498581974712555
0,130448519284717
-0,487187909778682
-0,24841401341763
0,244642320435793
-0,167919649377616
0,158704263020583
-0,288878169744948
-0,211125847914053
-0,424172032416336
0,448695363178319
-0,118302143230374
-0,458226616625972
-0,203177768810071
0,175122443630063
-0,0467270479925172
-0,434282538445139
0,651246857101977
0,196140887030777
-0,135822174619479
-0,354238930606651
0,304624158231922
0,0397597532167616
-0,0521538418858025
0,0343865393195152
-0,143612079836403
-0,402850199417399
-0,00498660740726003
0,126520722057688
0,278421333704755
0,495521353664664
0,22238591766096
-0,44841796762702
0,11972803963751
0,0212847263628011
-0,108189653167023
0,144161978958789
0,511166520396596
0,207107839922555
-0,107976654771178
0,13441968650669
0,348139442232475
0,100824714456836
0,176622892157781
-0,311163781995248
0,130743792366219
-0,116898630763901
0,361283558596355
0,0309103590537036
-0,154833953319267
0,270930298223946
0,0652617134656407
-0,0404441892889736
-0,112104499816512
0,362379920681949
0,216114875627126
-0,34338303036742
0,405238301188002
0,26791966473781
0,269908623662735
-0,358115319096537
-0,0477366284936784
0,0549966710908113
0,429029105827693
0,263700211366402
-0,257211243301164
-0,3267797227627
-0,118138728456611
-0,514643400944609
-0,457798668298093
0,357318969364628
0,412974663647844
-0,244316844916969
-0,076357219258361
0,237762420751952
0,472728197761097
0,128692472477358
0,0284300054683393
0,317044619936335
-0,540854194966022
-0,279750594352796
0,0492711509571833
-0,0280393640373619
0,230134856658111
-0,346823418493984
-0,177613486990642
0,395359613061663
0,151908374229403
0,116445131886958
0,365652753375146
-0,423007490466867
0,0699033509241693
0,022533119442498
-0,258149893199416
-0,448594993328615
-0,127401786894004
0,149036495467951
-0,250733801349275
-0,123504954912888
-0,310385688839221
0,159715710708113
0,361057665252253
0,00672591343186936
0,116479853966447
-0,157317081537071
-0,051785974261513
0,348391556462599
-0,278867695094524
0,108187943826974
-0,150945017040189
-0,239609428390361
0,348825111489313
-0,41114918305884
-0,408509385620402
0,160972553722161
-0,0299431097367514
-0,0781540044481652
-0,0875120136004719
0,295295365002985
0,449846671207938
-0,0635398553224181
-0,129578084471697
0,103012799542251
-0,210149637262403
0,0133582815710244
-0,241802416311564
-0,149731874220068
0,196394519006648
-0,368160041811666
-0,212620731536667
0,540411733272972
-0,355944935992087
0,190036706492592
-0,249644812124181
-0,400438037669702
0,0137993661308178
-0,140999723633454
0,0567120289036825
0,209912075281787
-0,0563099358917425
0,109157172262321
0,126213037343873
-0,0220155777818742
-0,306128386317812
0,287553257209972
-0,425323166334354
-0,301023841519445
0,32445986525216
-0,322077523463892
-0,0345556142335789
-0,126463405967296
-0,233003274718245
0,612889125327286
-0,0599508345239592
-0,414220754651808
0,0805525438065776
0,11029450114634
-0,0778243460898092
0,333873918433589
-0,51426313938838
0,244695194021136
-0,357922830550835
0,0455472812943094
-0,292965771775922
-0,355344127340032
-0,409470617864865
-0,0719491910390535
-0,474194746066665
0,352338576295837
0,41568986248525
0,223740280011548
-0,379404790643325
0,0403236050812171
-0,158764947500598
0,399144821700717
-0,319344348653401
-0,380788158662105
-0,0194682850913315
-0,0717275802558441
-0,40576191359749
0,0905493574756281
0,111212378068949
-0,1223280208954
-0,492829383529722
0,0822463427283791
0,0820824703454218
0,146197603374035
-0,333452180621255
-0,235898594165169
0,0288520388421993
0,429643307263951
-0,336982840328157
-0,144787250839862
0,302454116885194
-0,333497569547999
-0,352036710991266
-0,485779754987077
-0,4293927112686
-0,0963499218208482
-0,389610016201441
0,0907330431932272
0,486088011209269
-0,154669475059949
0,37198951700502
-0,504354787202515
0,356757334881306
0,179870570556298
0,132741287302499
-0,121251533246171
0,205921658297564
-0,0169401729242098
0,200699029230859
-0,0281839128670591
-0,249393794688365
0,446058597841383
-0,544808261346409
-0,60096179817194
-0,583857858138113
-0,0187654855210081
-0,104952520225072
-0,508951318873334
-0,2868612940732
-0,450888293420573
-0,40016426220814
-0,0745981429535174
0,0807405323681858
-0,103414634523641
0,488112433342315
0,185039590431861
0,435966001755979
-0,477172820313352
-0,350372819344415
-0,331809400806824
-0,00623596836063413
-0,11313596576325
-0,351400049728093
0,469024522754482
-0,28492536956187
-0,459294027458955
0,431019232329576
-0,0420999535954025
-0,460835740928728
-0,144863073513134
0,273786254903096
0,0639785784524897
-0,253622844655659
-0,364899695123964
0,0607117655083778
-0,420938742259271
-0,332301229384019
-0,240111450074311
-0,328916892175063
-0,00150813744473649
0,138115402608232
0,289340166276945
0,123449708159757
0,137447511608455
0,0913546884392177
-0,23492791844752
0,00367048983611743
-0,293295423723268
0,121990987302467
-0,279537616160428
-0,31858015752227
-0,387839289876055
-0,400641627151563
0,498737281470727
0,111303788560106
0,53643142866853
0,0878970569003711
-0,0438169057595824
-0,313663882909779
0,437846387058514
0,393437467599355
0,279580757685087
-0,165198710461041
-0,306863921590705
0,135395421007644
-0,172383388611977
0,44140330863894
-0,305597720111533
-0,130925467531628
-0,317834498741587
0,420510533694416
0,154465982529552
-0,372790526539455
-0,437667661354
0,164078741498151
-0,187022209638343
-0,200063644693608
0,43671199605228
-0,143098593966015
-0,193594664787118
-0,234237068104093
-0,171206308176903
-0,181492473745494
-0,184810689859126
0,0383034918240094
0,174609924019449
-0,3681735563122
0,253727619007554
-0,18803342656896
0,318856379018453
0,140913467908365
-0,237715102157772
-0,0644213057838832
-0,057168786532532
0,317292362911988
0,195798029981459
0,405710237988136
-0,202487762878876
0,176756276598552
0,268940966934404
-0,339546162560371
-0,43805478592965
0,344642089119834
-0,19050016181329
-0,375006494386395
-0,0218626190588873
-0,0962563436580863
-0,185141130714884
-0,0627295209108568
0,0079773202431803
0,0779623872235621
-0,392900875238643
0,403197055283842
-0,095547980532112
-0,372315159863506
0,373671977464451
0,407038436365546
-0,318118356433407
-0,29135907425312
0,297555905790936
0,479525266256521
0,366935646615986
0,135363093407528
-0,158848960259393
-0,291044438160511
0,406565937635752
0,00951058115321701
-0,207147726652747
-0,489611236839374
0,0505572476194041
-0,213845088013376
0,116897056183116
0,309519936165635
-0,0971642974505973
0,0433697324129782
-0,157504493755461
-0,0842339210459568
0,0661984166507161
-0,467949384621197
0,39696264329638
0,403214204632335
0,339245660464476
-0,374088245467955
-0,0956570995155392
0,455384739748835
0,409176738335557
-0,0688981267478774
0,249065169016395
0,0582707228876048
-0,474266568186817
0,238226758194262
-0,305178412611214
-0,355642199449075
-0,173540634416761
0,0516081990448796
0,234147231436403
0,173303231910478
-0,170463470122993
-0,196089403562289
-0,000228394521506692
-0,0199868225119947
0,291363430577965
0,167401734584664
0,0196213161198522
-0,390746349883613
0,0131901961347043
0,456391461638916
-0,237560314469766
0,181209326107618
0,278344758683045
-0,118555923280565
-0,379661750923685
0,122718213416039
-0,115113844450151
-0,307682741809489
0,395745865486444
-0,36967390862744
-0,483337862875004
0,241344903009639
-0,11743350216068
0,225692256691722
-0,257617472092443
0,211382018733482
0,141811073125252
-0,095727449560411
-0,372752961177729
-0,101123913005518
-0,0995102811602458
-0,0277058316989363
-0,301102697290994
-0,13251738465974
-0,311365644359666
0,293631090176424
0,489247204220808
0,0291837237445561
-0,195014409397044
-0,309288992402695
-0,149332645660122
0,208528975291208
0,1898595855935
0,509495702207047
0,35600754142172
-0,439535025898898
0,444558093344305
0,440978392552377
0,322080799295605
0,156089556708974
0,32145812540383
-0,164458837669556
0,15469612817033
0,370143956909955
-0,280610702364059
0,262724603415804
-0,197894340706009
0,286568946105693
0,140959644988626
0,0586251013719593
0,0167388485356881
0,0698100522019948
0,20870668846588
0,280389452779002
-0,436559372692611
0,149487937674666
0,412833086951865
-0,167546325577851
0,152412033877323
-0,320838231960502
0,405980551971097
0,3683224666948
0,209328442514684
0,363165993150341
-0,448852698451214
0,201820042346587
-0,0438612287955214
-0,156749118400205
-0,00626432965801299
0,0815469252791009
0,46154927507115
-0,435865092527059
0,324702756397753
-0,129982759538099
-0,228145182937451
0,0814414292487509
-0,331773699182912
-0,346662664659346
0,211682296046635
0,0648965329905141
0,398367612656849
0,347390122737183
0,358181392421084
0,026128010614545
0,240635900030271
-0,149492828136817
0,299558757887268
0,0792007721626399
-0,31205345497143
0,085632489941259
0,371387346514186
0,265442041750704
-0,255140786214704
0,105671214047461
0,427062310572671
0,226389170695294
-0,0184714614965354
0,240624572029628
0,404054011639233
-0,248619888326442
0,411787020001461
0,0755154730638096
-0,125700477336394
0,241162331256121
-0,136040308258623
-0,226904254663744
0,524203567552319
0,121038050924723
0,224112857724332
0,347836239197411
0,187157815083442
0,363799995318379
-0,657630822494058
-0,491173179548643
0,393848648024703
-0,224820541522465
0,42145735953748
0,451874468210112
0,196916419273688
-0,161302096155586
-0,292315418890988
-0,244303803231757
-0,128142031218091
-0,233747100634918
0,116151092820498
-0,298367292060688
-0,340004939977082
0,0815956814128885
-0,373091234766455
-0,4189132554079
-0,20576156706377
-0,0808968717446625
0,386207453790587
0,0210540187155443
0,467994486808763
0,0497885115593507
0,0476562823213627
-0,133979859045146
-0,523506214078952
-0,531190562213925
0,00398750285156595
0,235398323201818
0,284208285857058
-0,11996320486465
0,159670930256529
-0,0266274748270738
0,558927383563444
0,10111741629687
-0,270234000085352
0,285044170201984
0,266046533015135
0,472374374471581
-0,304607331204272
0,447853721993245
0,293809345827349
-0,134126473513491
-0,323914579499473
-0,0386605833371452
0,105891640545861
-0,472133245808175
-0,352956709969439
0,366111340240395
0,152640821414649
-0,204302957477648
0,275682358988064
-0,450625798976498
-0,614993298814675
-0,403491100954836
-0,0513771483400618
0,308035516094103
0,125893180763849
-0,154352456302539
-0,0245535304128299
-0,42470338646086
0,437476039101221
0,449314638665751
-0,698950242255358
0,129045786060406
-0,279087935108191
0,360574274039668
0,0862821613752286
-0,150314844981454
-0,262460920934389
-0,0175033372442719
0,177067759762084
0,460130288817008
0,0956949109255642
-0,488518990462294
0,0767794433182124
-0,111433917408162
0,466206020252315
-0,168973890329369
0,157625413563063
0,233364218682304
-0,145790848112987
-0,485847640809138
0,423455205548511
-0,192628507671664
-0,298219453233848
0,101000017194479
-0,043354935558394
0,240713713244816
0,0417800555870787
-0,069765073526043
0,0130106117992048
0,148377388611293
0,354070271410538
-0,476108136757541
-0,0743873142799745
-0,190890253243303
-0,278080951404404
0,419387038759602
-0,329421529466948
-0,0353337615438254
0,241160002534927
-0,0752743740495777
0,284165079172688
-0,0987653188589159
-0,542114381329294
-0,173683457845868
-0,390756703805568
0,337668957100608
0,373015215127549
0,423010154655341
0,59803040270038
0,626467138690052
0,547214591361985
0,233031769655826
0,24569509636264
0,367896128885511
-0,142393184851423
0,298130478999463
-0,0217182087039401
-0,252166421379551
0,0455423474688733
-0,236478887484356
0,135710138173509
0,336918378271111
0,210756545286047
-0,217839748467244
0,192447298740862
0,0751806464793919
-0,302732075034853
0,266458115999152
0,20465372461412
0,4851765383531
-0,36376428082845
-0,305873150434848
-0,0955414284045461
0,293211548569985
0,543379064360884
0,302422927514693
-0,0398192113555731
0,47789789249388
-0,338232783138446
0,236477006267462
0,109956394774759
-0,224747849473321
-0,0294034330204006
0,573654035224637
-0,0206713906936543
-0,251310346281814
0,108685512495879
-0,0497558216907569
0,10950304640234
0,00668786562947022
-0,0712066863529415
0,0191246091942883
-0,363106962483275
-0,214200289711696
-0,267613671989185
0,241046845577861
-0,471142487622086
0,362018176149874
-0,0775596967790035
0,022124865402919
0,347873776413005
0,310447093256529
0,505558452585463
0,147476610652733
0,192612066627455
0,241253858201603
0,306398756396595
0,307161927159919
-0,188267381520024
0,370475487398438
0,527400115179186
-0,121332918794048
0,0453587124539212
0,329935703073909
-0,316373863497431
-0,433093404779226
0,323338154179704
-0,105743220051815
-0,369777282639303
-0,0946538842258294
-0,0100709206937211
0,41165041730363
0,464552535864049
-0,31871227123517
-0,347898796002327
-0,225594659236716
0,29236507782101
0,042000879001892
0,212704805010569
-0,386583289797656
0,420121969722002
0,2937845809083
0,00361366501176777
0,154946546804664
0,560710108871177
-0,504919213857936
-0,0253964211166394
-0,194536358471619
-0,0391233743254907
-0,0326407938694852
-0,338904715490311
-0,289354227706226
0,324784495045189
0,253446710703574
-0,500401862387582
0,143442754086086
0,381153219789804
0,374740305298353
-0,242284782110846
0,0106760712054454
-0,149459966150813
-0,00749154109758403
-0,155057936686422
0,0982392493442409
-0,349842935554168
0,246982433070798
0,00204041705361798
-0,42307499841084
-0,436817693492661
-0,0702230946507057
0,148842161878124
0,565362254947745
0,281822525906239
0,0335853126959412
-0,340963941542942
-0,00598871836445992
-0,555896314925368
0,349878885609778
-0,0477815465924794
0,458763161286851
0,0869784455444651
-0,0402611107143063
0,274916270610763
0,473818047323126
-0,324298801642132
0,363046270731392
0,322824260603089
0,472678836207919
-0,266648157201936
0,154149411879679
0,32996807720657
-0,308262987905304
-0,506930798331549
0,322800425821771
-0,146762587311134
-0,271713949796356
-0,632657412114928
-0,0412965408777944
0,255849192773504
0,241387347754899
0,103067623215682
-0,298474771896783
0,16876855365588
-0,0492632384011578
-0,0115497657000319
-0,564924368275637
0,458811151365063
0,493059684156784
-0,242093462383657
0,142525178971169
-0,0620549766684926
-0,277434380908967
-0,37980921037867
-0,141582917255155
-0,0830280378381852
-0,387442676255226
0,328774156127386
-0,205714314261389
0,0720205361275224
-0,233031721735309
0,474985232355762
-0,677199330565826
-0,352883335063912
-0,0422128916604218
0,0694030745778458
0,223936113441169
0,262038493307085
0,0559990248203577
0,0890945947066267
0,0999651169044808
-0,171172420272242
0,0523115672735835
-0,45625422326181
-0,286756798939904
-0,217789410465228
-0,407495594519302
-0,0756608603456386
-0,231508541993604
0,394813140566248
0,483995920427593
-0,265885772432229
-0,280794087695328
0,423250319866115
-0,494082339238682
0,31003901389915
-0,530073625615344
0,478738074663386
-0,266962243651245
0,136241283888042
-0,55287327690851
-0,286464881957497
-0,115462722482963
0,0296527777225979
-0,458380030459976
-0,445485246131602
-0,21862745960689
-0,16450465192127
-0,289263678999516
0,202149609532634
-0,121378769278044
-0,136986434785202
-0,145069924075319
-0,270186471753818
0,252562389881502
-0,419346287697571
-0,0891978821555918
-0,266980528452255
-0,483163684718272
-0,425833172022369
-0,0832067386169018
-0,011093428596432
-0,126934605368091
-0,0617597703355545
0,112239494815739
0,394561888833371
-0,330891103747872
-0,175444053350457
-0,538735818429072
-0,520339210829599
0,264475764005079
-0,213568808025565
-0,142198039112159
0,349597776872656
0,392698963139224
0,14964197430414
0,12303761237631
-0,248347521447217
-0,0651357619071638
-0,00312732655318655
-0,33171171557898
-0,272698623381011
-0,440710011496854
-0,0103456088153029
0,247615399183055
-0,446753419388696
0,0135031800467855
-0,289989746901284
-0,387510391365509
0,228786956392595
0,0820464008091646
-0,169095219116808
0,54481122620422
-0,167185650042734
0,261386595454353
0,212537956536659
-0,218726640374631
0,0288168479838523
-0,0698198778737605
0,0256560559648429
-0,0274794882909121
0,204223341134208
0,115631243987635
-0,0422577026638186
-0,0514554343017738
-0,389825955877967
0,406750027143792
0,278273150465716
0,139581531757891
-0,290796687414653
-0,510867615413423
0,000251147719646564
0,219264558022719
0,220184143624318
0,248700398653002
0,00876362563138268
0,155783856592972
0,495316613929028
-0,137417324746276
0,403621618285944
0,409205774039109
0,133988159272147
-0,5311684351961
0,0250903121146396
-0,0653271840478928
-0,346391610643996
0,175138744394353
0,00775809705560905
-0,264707369911723
0,302170287979428
-0,445740417171346
0,0908631038295575
-0,160094362543265
0,143411174110315
0,439224193097263
-0,287820137810979
0,378085378626666
0,014989844044152
-0,0169388220577459
-0,216879861214027
0,418612027432
0,382993077260977
0,0803701192197365
-0,0537543563740001
-0,231036160481645
0,333203278869951
0,225793733914913
0,180834989017527
0,15575106885806
0,16107443832496
0,11378090759442
0,254226285381014
-0,242667658906954
-0,0786675697088371
-0,146684331729942
-0,394267929782494
-0,242582068448375
-0,229010008114594
-0,19082791279177
-0,101526790404953
-0,121288502673362
-0,421073585194907
-0,286291474349863
-0,562769440122686
-0,544645533259693
-0,342348795198554
-0,353361585776899
-0,143949556415092
-0,259968644691198
-0,230471209854044
-0,0865991112565504
0,045647924662322
-0,145863191059727
0,0435482582745833
-0,253600858878753
-0,439403946627858
0,353825010743173
-0,0582927811844742
-0,317814856380586
0,0546534734676748
-0,0690395908286636
-0,364900153384135
-0,376773545943889
-0,373893449286676
0,236312962882613
-0,29994456707374
0,340603570225406
0,2776842304881
0,349714851367381
0,375883211992076
-0,177534893664333
-0,162578000880395
-0,364738525336227
-0,0720715149383824
-0,0509259078846706
0,416871953201472
-0,358479410796975
0,249677800274803
-0,17884708796913
0,468941142302445
0,217555542810613
-0,350752092828393
0,0269569066642045
-0,273528674234605
-0,113692282879399
-0,269136125255033
-0,23505824957212
-0,317447589623187
0,276241527512113
-0,251903930508919
-0,280463767593415
-0,539171304260445
0,254290007977843
-0,0510314524901573
-0,373273592035387
-0,120211020033816
-0,0940509701980571
-0,490630597622915
0,17887039008205
-0,356775602645253
-0,0940350899431578
-0,511618567460255
0,28560456439984
-0,0913282708626467
-0,0753644461404785
0,338256378024761
-0,0506414117084908
-0,193002431510483
-0,0425457123399459
0,378253031931004
0,449785302144522
-0,085497615292113
0,0762325739483159
-0,259820145199004
-0,133279085894811
-0,20279954598666
0,0635135981817556
0,349251672242312
-0,161203611001698
0,319336579486594
0,260736636993469
-0,156659862875584
0,315251078678212
-0,329965939892113
0,14696957892527
0,177828328133163
-0,035647277632984
-0,471275386128453
0,297194617795751
0,280352985703274
0,0879165428893229
-0,17608203122606
-0,271248967628137
-0,0436444630710979
-0,0968286631741128
-0,00651093270001513
0,405217438426436
0,179446244928728
0,203619611098422
-0,277261509328352
-0,433382860171492
0,0872508060408795
-0,136560066921568
-0,283480512046477
0,140602819589149
-0,190146247241053
-0,317925288045736
-0,235004812209401
0,518903075769777
0,145088407319336
-0,378139590537223
0,4086002826
-0,159591305545237
-0,493794826340514
-0,0852262233957852
0,301333221959627
-0,0296464750442174
0,32663551953301
0,220840090379837
0,154235811712735
