0,0506286749386362
0,021871901825942
0,190948023782553
-0,411646297626033
-0,183497198244323
0,173771987051597
-0,114881588898078
0,362046334828272
-0,310790112153995
0,0127908892523455
-0,113687116938497
-0,00616128999095472
0,148957944777309
0,479980807276434
0,107324959061726
-0,450362623180432
-0,00803823513353163
0,283032521504458
0,462470938899774
0,0786860923183551
-0,0369388612624905
0,340751412250451
-0,371052213418787
0,137342589272811
0,0653179593222765
-0,327367456549484
0,326665403706331
0,329126436183754
0,413836289157083
0,0918543299622155
-0,0469085073782636
-0,461196758300623
0,460918265376668
-0,267177961192642
-0,17305593596448
-0,0983746869481982
-0,188231265492845
0,481503255191028
0,343475215064226
0,140885615088566
0,202043271019144
0,14124452362985
0,351937563535508
-0,209150744009449
-0,166315231305554
0,23709217375513
0,251941502459044
0,0447128521803157
-0,139027314406796
-0,234999526017309
-0,348240561732611
-0,0157671135458011
-0,159892430836285
0,489849656349909
0,136805829422924
-0,477066219307979
-0,330177585980938
-0,0923591831663433
-0,130647954824682
0,326182757889006
-0,0309355503557881
-0,266557511299177
-0,096558743434287
0,14401136415266
0,216762169598025
-0,306547141078183
-0,241253859258835
0,45437565649406
0,460802505094572
0,261238435451148
0,410895430053436
-0,0489270659871657
-0,0281563848854682
0,428733513611844
0,438362863170069
0,0121599970491723
0,471520464791274
0,123695864620903
-0,138436928154535
0,112321987276569
-0,0178082247317265
-0,336405587306435
0,0736153864178878
-0,434143878488868
0,329253162643524
0,182497648374409
-0,198525306162669
0,195574906047236
-0,266103429145228
0,177158909699488
0,299318912936335
-0,0122067662390166
0,324600632668186
0,45805025029987
-0,54261588486547
0,257082033038133
0,314241694756653
-0,367383366515748
-0,312314322956377
-0,317224797462798
-0,0553654002756274
-0,296980182942791
0,390888258582165
0,220452741886557
0,234428488652311
0,422178999977577
-0,353176686661828
-0,205672142823506
-0,280042157100998
0,456850439289981
0,319472812497743
-0,145215557722941
-0,142506699842637
0,29796193484122
-0,445001631483902
-0,0114199759026151
0,45704592370558
0,48545637506063
-0,159273833284766
-0,206270633801536
0,38655082043248
-0,299523365991654
-0,226980837992291
-0,0617300057680774
-0,34341909546229
-0,238156683534276
0,336932857896285
0,141712371386305
-0,191760651471202
0,270075328630412
-0,158312812400218
-0,16432319146303
-0,438451338034001
0,319317303991996
-0,105268997994683
0,42943524972301
0,517506632203222
0,0355029030754915
-0,145956465809586
-0,0608429841514877
-0,49600019957684
0,0539848536970023
-0,292771080877991
-0,435326367451881
0,130089234981579
0,268235084473922
0,00735606662268455
0,218030569579598
0,540142233012989
0,266565539316661
-0,0924263766710906
0,376688609052912
0,442369910330536
-0,304454198326644
-0,0489152319452524
0,328485642441474
-0,199848787643793
0,461052531443434
-0,263822948766323
-0,00171763068535859
0,0230020328274215
-0,191136903096485
0,180358769657406
-0,328387640702529
0,434907920974553
0,37100142230449
-0,311566753888348
0,0329718019501175
0,0748478311928212
-0,134771498681405
0,447965630305915
-0,0253631204436719
-0,107374597945161
0,380810454204449
0,317857867840113
-0,376252769441143
-0,375438369073054
-0,0935757148684461
-0,283146594068535
0,394774018926918
-0,0524448950070543
-0,274965503720612
0,299557648875486
0,454359388746685
-0,284862836619044
0,49238578979618
-0,274048161431375
-0,0660249239346486
0,609577885065221
-0,173330345748957
0,310653971938215
0,343848916556417
0,492847175719323
-0,238650609702217
-0,387680551801504
0,108063107392615
-0,265614829848341
-0,0331261761175125
-0,221091516381286
0,13199702743409
-0,40641956355082
-0,299696892995008
0,23922061380855
0,0498200043083201
-0,0173426172379563
0,456263066376535
-0,122293920795308
0,280892646327149
-0,231065631569549
-0,160647883153582
0,0426661505984141
0,492046995097816
0,462567248665818
0,0302567033729858
-0,212158886455305
0,572066203535246
0,59498652697637
0,508428779912601
0,1067187201194
-0,363666820162008
-0,0878504006071546
-0,114823579188163
0,346188081776285
0,120939359576714
0,495371587106665
-0,412861771841003
0,128611549029946
0,29246854541149
0,296600915552415
-0,495070599708976
0,136577248919407
0,235402315127697
0,114434414397988
-0,237807257305649
0,461214904268907
-0,0225716927757255
-0,186714870993764
-0,0176285329252494
-0,379630185151614
0,071020672089033
-0,102054276277664
0,147118466115421
0,1791075888452
-0,456257689149038
-0,0783045820364441
-0,108689265709432
-0,313743982153743
0,0348262409696926
0,0440848892586958
-0,221110743660126
0,0173284999283626
-0,483515563413275
0,0964769183641658
0,312594273852654
0,260849589994696
-0,27525264292529
0,369541318133051
0,181789984853525
-0,164265439130797
0,515377538617351
0,224657815021865
-0,20188266001529
-0,280762981202038
0,195374881581957
0,373930493493152
-0,409024657821542
-0,120657402061806
-0,256589418809313
0,424753456086338
0,4823853505321
0,114218303459118
0,474979705751791
-0,398053199162312
0,174413588938913
-0,422530707868948
0,242750257547332
0,481535753995643
0,407721741199221
-0,382628373389105
-0,470616614432361
0,336791699210551
-0,233256739559045
0,423616963756796
-0,115854864011025
0,530741094070321
-0,43672242203289
-0,49683072933572
0,385100307141854
0,46336553203699
0,244729479859411
-0,290240519317869
0,24905285799338
0,197597418920296
0,443847763498353
-0,160479187000257
0,551447999910248
0,247987931606412
0,254542859645394
0,387854612363313
0,462536880956697
0,35885810484222
-0,07740326595257
-0,0206688575296662
0,380543478973095
-0,255093471217396
-0,430321059017176
-0,335209951026177
0,140010328795766
0,450001263502054
0,231517344122528
0,216010503060148
-0,371797702509204
0,0172541061983967
0,172532750801329
0,245507230404211
-0,252513787234221
-0,148792143964349
0,268824355427697
0,333887681611296
0,356940893882212
-0,00316776578120822
0,0839105244261059
0,522731637235333
0,108427493219094
0,00352071569573579
-0,263595014491038
-0,0402026876244887
-0,44323316458083
-0,178867331123739
0,0249230955095567
-0,189142267682798
0,22206115958033
-0,094402532194303
-0,404232237005497
-0,178570753674566
0,476939215314081
0,373222907946083
-0,126755225298347
0,240901062402968
-0,174695875674412
0,381351074506842
0,4441930497146
0,267762462897654
0,0384869408196061
-0,160538912457765
-0,378538843515251
0,476460355357045
0,102828183651403
0,439305127703701
-0,0806561879510958
0,482034971377264
0,351744908299525
0,432787776518281
-0,277843597413398
0,00243165967068431
0,50210495356202
-0,180300981195051
-0,503152829401065
-0,134236209104745
0,197745919354472
-0,475582659040115
-0,177491878411725
-0,187069133015499
-0,446297848193307
-0,167310620037518
-0,478384488717832
0,379696168271749
0,120309970388143
0,419429132737587
-0,372801630655857
-0,452609754160679
-0,279788794012367
-0,180528272974298
-0,25447242318255
0,289096316672002
0,0147366926326655
0,487424435185893
-0,268967619046147
-0,286385221196974
0,238963101604093
0,406942492593173
0,0830924114309737
0,245119338044289
-0,347046171135757
0,300997460021914
-0,347647284994154
0,0779735150792271
0,297288464808666
-0,243855925269697
-0,471532764762753
0,337220879071123
-0,461729762213372
-0,0489390946686916
0,149157904390785
-0,401005239479813
-0,262240108730689
0,3330800003914
0,28759097309351
0,191813767871511
0,321285630739124
-0,42619863980315
-0,642570302535763
-0,136840035764797
-0,324596670229705
0,111541200575841
0,21835949996759
-0,311016708628279
0,19602366897647
-0,208493061932236
-0,558719685992761
-0,472996276619128
-0,311369303469443
-0,138848330211932
-0,287533335053931
0,314707090268202
-0,311011213825733
0,428456361232548
0,342829599372007
0,363897665834628
-0,410421892580035
-0,223715276794376
0,117312383659795
-0,230423618519527
0,207519378761286
0,247907647658714
0,118040822959139
-0,533934740528214
0,253072054158053
0,0295055705179321
-0,222631427283446
0,343964929138742
-0,0959782075285942
-0,638212384639152
-0,165633487817106
-0,242305826418635
0,28097532029868
-0,434932987810489
0,261900303688743
-0,128476468473665
0,465528116903589
0,12749514457696
0,437620791010047
0,0708598151844372
0,391451253471841
0,0413961947907766
-0,368363292050323
-0,397542157247767
0,381912432934855
-0,0147071618189603
0,0698525153891428
-0,23825333709565
0,0342470589310899
0,0758529790145613
-0,0969161996449327
-0,427144750767233
0,0566920250239957
-0,16052718820155
-0,0856057742790158
-0,346353992093299
-0,0492188717012323
-0,00414547004751454
-0,088358404536941
-0,307526818806683
-0,0548990757975752
-0,197037914823915
-0,451948672045836
0,374771586183377
-0,406398631796539
-0,163474072615845
0,282343767525007
-0,461106223598707
0,0402797862734753
-0,37957329330074
-0,220468195188687
0,512565217015287
-0,474492718540555
-0,0232030146397664
0,126287553751044
0,060360717025087
-0,0715880275100751
0,3889980551609
-0,31035788835941
0,229866268929724
-0,135139943380945
0,0152268834437226
0,062277867719918
0,024576541648529
-0,18537871906063
-0,0458376277853269
0,415204180675026
-0,0602849967070467
-0,129771903811453
-0,374256835667256
0,170196517606439
-0,353384294675906
0,12860682863594
-0,0882147784930834
0,204137734025979
-0,0621085584495039
-0,49217332039059
0,315244869784141
-0,21804455997165
0,411285705531131
-0,0786901743920083
0,358261204724322
-0,0449293412011719
0,0426769513652801
0,155021921357552
-0,0808689714404221
0,298344211495501
-0,138184270847223
0,181459104891779
0,364912380013419
-0,118197267430952
0,158023951523911
0,131822700300541
-0,257160678661563
0,0121287912017144
-0,16594086174382
0,04241224553912
0,202899141350638
-0,188126117765356
-0,19727250803977
-0,511626236818776
-0,265656182572545
-0,509618137976595
0,31390378668318
0,194289929205024
-0,20050274094184
-0,432425181640608
0,119164440516731
0,0693953527989701
0,475482883386073
0,387923533976042
-0,201520387352636
0,370511381939825
0,0484016667586023
-0,0351822307584313
-0,446649812583024
0,286062507374512
-0,291333640464416
-0,409104955293892
0,490812568108058
-0,471538561078395
-0,246045823253311
-0,408469627016404
-0,277707004219255
0,175980119408563
0,273683419311916
-0,466415504046384
-0,290812841036691
0,10820629882
-0,298746008878502
0,299714702561186
0,425811222600144
-0,333365729833388
-0,0149427927632919
0,261177584139186
-0,301638199942211
-0,127451709384968
0,453437693861051
-0,21817614870061
-0,0349496535211993
0,0553159313167096
-0,0649347920660693
-0,300801130334732
-0,124199227674549
0,333011667404482
-0,079552930179213
0,0864132473743529
-0,034532428175834
-0,363222799862973
-0,183350072864958
-0,136318189404885
-0,0329639910491919
-0,0358308963412455
-0,104076923636587
0,444904860207595
0,475425244534749
0,149594879515884
-0,32690031493371
-0,312149135272784
-0,319215349765997
0,440915288287201
0,164765925239419
-0,154590654795253
-0,077747149029052
0,313345227769271
0,365140770964856
-0,104623755721666
0,242065581177634
0,22161648995148
-0,456154108340082
0,418773337017946
-0,140125704956719
-0,178081165204321
-0,230996879106068
0,310397954269357
0,00527534230785904
0,00139772450401715
0,221976347175395
0,172246391997681
-0,0412532179028595
-0,372556963226951
-0,0297500648253792
-0,363525735747407
-0,352777122491434
0,444813119538903
-0,00905051052661217
-0,263486310404253
-0,135674617968835
0,0639460756483873
0,397437885291966
-0,276341887334546
-0,133039784779234
-0,494525408369734
0,470032723140918
0,0409874480874219
0,125625556124714
-0,0925318634844807
0,159945974043263
0,410186071273508
0,46833093166116
-0,199402398658198
0,0644173971696197
-0,361805939700992
0,345686229409588
-0,355818216824174
-0,267134832739547
-0,558621239937185
-0,172263220976903
0,399144692756615
0,0625473975275426
-0,114642823418055
-0,563807605682657
0,179019482314226
0,498460270063109
0,462280681497204
0,18896502468154
-0,199935815889449
0,235809147203562
0,0925023969969439
-0,00810104568901567
0,451249944954761
-0,195349982797797
0,201364814164752
0,221486319418577
0,204092502785213
-0,177013401254697
-0,170633165938688
0,406178357163816
0,362724333446473
0,00532779515651504
0,282918730891919
0,429842107074336
-0,174351534651018
0,504234006396103
-0,00954275126301242
0,251186440003078
0,423780740122282
0,0573984136607902
-0,0530302788931573
0,0273565779580598
-0,00604772919614471
-0,291491034163484
0,293602680532121
-0,554854046980194
0,156801502382881
-0,487932211810582
0,0946511843216844
-0,415650274565281
0,421453995593569
-0,133727838114709
0,439296398283586
0,151331684389772
-0,0646490017565238
0,214831619407741
0,178335470236982
-0,0354448039367889
0,0858963626146829
-0,136495552434135
0,441719504299081
0,175017286115818
-0,00461454532612023
-0,0951153112760147
0,523039124325987
0,334408065166763
0,319122087048031
-0,0755852467376763
0,0713093627934139
0,528145546913941
-0,162191096811358
0,389823668370482
0,123097908547105
-0,329182557305698
-0,47582007494872
-0,349337756616926
-0,190744057153698
-0,142945014239729
0,00531799649136044
-0,220045920331052
-0,493344301354766
-0,183337748368894
-0,307344825447261
-0,167275211840838
0,487414464296276
0,242840778887381
0,450969811773636
-0,182206209326146
-0,200403483875156
-0,341815669927461
0,190616349537965
0,297498947007452
0,274078191038627
0,268822146960267
0,340340973592554
0,425243924299854
0,00399786764905024
-0,106722675186805
0,410817827174887
-0,529412673135819
0,376660217195119
-0,145707768212902
-0,174910254762404
0,347631741001331
-0,183897567300078
-0,416380238214685
0,105154295733736
-0,194889637965192
0,340037305764871
0,216651947571268
-0,135061316786849
0,169842537735315
-0,345316031527849
0,423543220102122
0,00511472003936072
-0,326399325463787
0,00191753701558288
0,402755430433511
-0,265765206319393
-0,0830165649875542
-0,138645561165732
0,108005507169864
-0,0293499948913468
-0,493653157867413
-0,0386087185489567
0,0596926057990307
0,211314872469084
-0,2031300083912
-0,223192333181636
0,166461813230202
-0,447770648955341
-0,223553330508784
-0,260455763787243
0,441203528056482
-0,460002395771445
-0,0346163336814457
-0,0379886066252313
0,384846798090658
-0,146916543900462
0,299007486924067
-0,295648675633497
-0,157828270449751
-0,0592958526939188
0,346908324156006
-0,0837419611893387
-0,262939162764926
0,492759975823197
-0,190071732415729
-0,0481185781566808
0,0650660134676967
-0,118107369072505
0,176292325475487
0,317321940119365
0,306297676006153
-0,111755217035771
0,177114977350978
-0,30714372117405
-0,0809471996412366
0,114138388360915
-0,136193437332377
0,0287601787265205
0,469809646238484
0,226038992743026
-0,340678969789613
-0,084842552237605
0,372979475126127
0,382886691430065
-0,074831104173712
0,43075413579622
-0,220462443176872
0,0122787586936163
0,277999980271794
-0,276635284431575
0,049629987007766
0,40581020196239
-0,217717555220107
-0,404797292735799
0,308154144235027
0,064643064776735
-0,06361687721853
-0,0180929687424065
-0,353962778977101
0,28316988879031
0,027717085335272
0,239961890848336
-0,145852332769824
-0,43392957417943
0,390538414889266
0,244067530959876
-0,348228676173942
-0,437611742847418
-0,462835675553808
0,372347131777716
-0,041462531099777
-0,483160648487117
0,24307584284948
0,205594861742852
0,0364845309110752
-0,272207960380338
0,0228022511689003
0,356474706370605
-0,361655306359326
-0,387302817611364
-0,0830321724447571
-0,493831817752704
-0,100629202088627
-0,297299832671789
0,355347919200002
-0,442672300762332
-0,268612936831669
-0,11537693902625
0,445507693620536
-0,383082284927506
0,271203978561694
-0,0410841212333572
0,333250814971165
-0,423923211602458
-0,0127632801946082
0,318652033255739
0,356636182338296
0,275947101775532
-0,0217527153537389
-0,143060267736698
-0,0430720097120255
0,186624548717693
0,31077408455814
-0,443125994383882
-0,044633915435818
-0,00790907186824319
0,084473591041732
0,322613538811874
-0,048369035274198
-0,108396048164507
-0,0485306893431181
-0,217070665312793
-0,449879980041675
-0,167763357484808
0,302661244519367
-0,486159486985447
0,149208815606132
0,382023629532954
-0,369400438454595
0,379696123620036
-0,182265282932248
0,0204625239225396
-0,159816246321339
0,0354501379353228
0,391842515623124
-0,379017472676475
-0,0319827117640444
0,14849933825829
-0,281966962750054
0,0197083659096194
-0,0586517102110951
0,0269641594830465
0,0990372758815874
-0,3819230096089
0,453157610171027
0,340370287791402
-0,156781021857672
0,0175235938710513
-0,300922835197351
0,414092835509012
0,0973743474217157
0,350114967128595
-0,124622089670966
-0,110347373917659
0,381544885618455
-0,278974329575079
-0,0874490684633796
-0,269244567986403
-0,209458347344004
0,388208712399103
-0,378341337143602
0,257987910768943
0,195684246577175
-0,284273198705294
0,315249504901119
0,250029733753777
-0,465904589647251
-0,282501988650986
0,202902838773812
-0,450362270890019
0,197243493706868
-0,220326994345689
-0,0308056120354884
0,161124706790171
-0,293543077496574
0,121578377291565
-0,101911372325531
-0,415773280816419
0,116123769237884
-0,174227100856831
-0,122799361308442
0,114228947464827
-0,03368745460674
0,0443571912909704
0,0654807822090573
-0,00241490165700512
-0,378981972276564
0,270816557804497
0,396310847204323
0,311795398505309
0,373226926137333
-0,178691301810877
0,101131871622583
-0,428768692185991
-0,27598576033392
-0,299616870295025
-0,134279802809178
-0,00844762578141446
-0,478770290395358
-0,0990494707130497
0,418331250134546
-0,461875713860067
0,0976968427199441
-0,260370077389482
-0,0174133531753498
-0,153696931105207
-0,00807146917571915
-0,0542651031422364
0,267366581809637
0,302018228766648
0,179700288049214
-0,246627449367251
-0,179899706557061
0,441305713796248
0,222128604643781
-0,257322407043601
0,0289916999450993
0,359058112771743
0,202408783930544
0,171032747100588
0,412588142749196
0,327491104356241
-0,441451862078637
0,436189985282895
-0,431453796663005
-0,503802248864053
0,240809165160076
0,00243254638294499
0,104740965214494
0,245581453008091
0,0279005662440748
-0,0458178015565266
0,0853460704098827
0,308232460218477
0,130065253748158
-0,178111022022706
-0,270434954525247
0,411099500459213
-0,470594532742133
-0,125702555921489
-0,0460523398997964
0,151805385821913
-0,047826559176427
-0,398374564864281
-0,460613289447209
0,364689325611018
-0,119409414762356
0,144390662035155
-0,192831136180457
-0,261002153980991
0,476136226072818
0,237837077185302
-0,267816299562714
-0,283764824109213
0,359031835850249
-0,0396567027385927
0,273793130421936
0,166319760005451
0,399223685431719
0,411521564423118
0,171113003784456
-0,106976398013214
0,618404811646245
-0,0311048022729389
0,228474580917317
-0,266661354302649
-0,102388947452766
0,13976635149729
0,251392681419468
-0,409811285171997
-0,105488595449893
0,262395904085121
0,17820760522043
-0,357878684705477
0,372406883571486
-0,0206373885835695
0,0404214332248111
-0,142707348218173
-0,135436765900874
0,12953051483312
0,387509603779396
0,540931963181454
0,464573773813874
-0,0936741269508633
-0,371345200902726
0,110379627821776
0,235883874055501
0,603654799566416
0,420971070963456
-0,266067010386446
0,311889764613215
0,258670939534063
-0,218129287355589
-0,187275643776281
0,0745989759126623
-0,227847809922009
-0,0448228786227494
-0,338557554047211
0,371226223880921
0,119051899865607
0,277446373001003
0,188671401091233
0,169519720910825
-0,0693681740005025
-0,164613088247507
-0,0168515242375992
0,181916671670313
-0,486214054102239
0,254766987511499
0,488603923958873
0,157423983104278
0,293642242948442
0,232323685112602
-0,201394370103377
0,0711571581085658
0,301515759315275
0,353904075705435
0,0840965338998256
-0,181864379370631
-0,0395127601854287
0,470805862160637
0,250779492675459
-0,360757899730552
-0,386549101102855
0,0663764009273426
0,445373607657598
0,140667101674465
-0,337851497612505
-0,335471322631555
-0,371735569961246
-0,372074333425646
-0,488134620607116
-0,502709449509363
-0,0532795294694421
-0,25192820310518
0,207806847206479
0,422451333398553
-0,139724544697223
-0,324815702676924
0,33939343476924
0,415631161694133
0,241105082313909
0,242655117412857
-0,222162039192514
0,00644055140731363
0,019639158047808
0,223920096234839
-0,0582119364467924
0,166214256215434
0,0552786135257558
-0,516618918570395
0,389774181161377
0,375567305298576
-0,122064082876049
0,000968871677616799
-0,104967492376178
0,231660135193203
-0,456287545597315
0,398197988466452
0,468522740978991
-0,20187103991085
-0,0304706845736483
-0,54596543961838
0,000617044073052177
0,298859283047031
-0,260883809360824
-0,0926987688450681
-0,166080710930647
0,130877436299938
0,608533615575711
-0,119138178058356
-0,382190530268948
-0,401103446754866
-0,572569976302255
-0,416890149758355
0,228200907447801
-0,193540203259461
-0,411830651384872
-0,113954802465535
0,396283953078974
0,207898428091265
0,472840475499991
-0,468029324564735
-0,348849320529323
0,306612305551497
0,10688931616344
0,397489399601468
0,300429954566262
0,472618629428807
-0,108903476488629
-0,244031958982335
-0,403673004016318
0,446121085223009
0,363156369684869
0,0191490409011691
0,419186558329048
0,209806695583897
0,559693902552278
0,446096768589048
-0,250751400238744
-0,276810464112277
-0,37810251478633
-0,316288035293211
-0,116930322279808
-0,504531940106812
0,429139983587949
-0,351148493119372
-0,0633519063562284
-0,379219477175279
-0,10864131733139
0,393177117776394
0,427315326727939
-0,366793778082734
0,121554029820233
0,461799151246342
0,14753909951427
-0,482411997208851
-0,125715052245356
-0,36104738531392
0,0718428849092297
0,473935731550141
-0,0989756425758784
0,242264519108202
-0,257182547761342
0,346040074745839
-0,30240228109257
0,172677224913283
-0,254480038912025
-0,328323373576515
-0,377367456493101
-0,312853948661662
0,551306600182002
-0,124922842071836
-0,025753454078979
0,237519157090511
-0,489666783870432
-0,317647066782219
-0,0201857794851518
-0,120824627836094
0,379378443505097
-0,479127441895938
0,202565213883513
0,246971205690397
0,466619998666747
-0,0639663259750052
-0,0415482928526006
0,152747710460017
0,060087733503327
0,293608723841218
0,0391776770719743
0,410512086139266
-0,312506399206841
0,483245363871953
-0,213234288880304
0,427613328912033
0,282539954101071
-0,144045650316044
-0,311828074549985
-0,235633363875568
-0,0232337795052652
-0,464989563733401
0,346953034991161
0,388946122870135
0,0397028079207999
0,352084702424124
0,147130573535456
-0,149966698817979
-0,0422509418401446
-0,466580405124473
-0,00346174684239561
-0,313605267933386
0,320379498796714
0,000613225382232621
-0,295260565107453
-0,251777339978654
-0,44864035406176
-0,352372393573603
0,0941934255557475
-0,0112784557993406
-0,262029225893666
0,299475350847225
-0,470277791876274
-0,234040072829346
-0,207336582130568
-0,550860526817196
0,345818965960075
0,0259024356692826
0,0616064264597879
-0,271466538479477
-0,0976308756979479
-0,261949707060385
0,463517072263188
0,464429362476703
0,229752593929361
0,146986262996939
-0,127713678360051
-0,0609863228480002
0,243481004382196
-0,143364295663016
-0,041582854251183
0,0296847755522195
0,481429307174447
0,0384219056284911
0,343594276956941
-0,33430838876753
0,206922425606809
0,0506808930798373
-0,217444817805961
0,492230547572231
0,164048187958772
0,269133583679077
-0,218025010719343
0,212410079312296
-0,0577566589256142
0,0724022561722509
0,188624426910433
-0,012540670758067
-0,482176873791692
0,312265753650494
-0,211961505219097
-0,404462731387192
-0,220421753341496
0,143521714574583
-0,126590271717493
-0,295532471179484
0,149188911735588
-0,244375863924798
0,450277077010962
-0,447720245160414
0,0301581353043032
-0,00328017135379559
-0,457770834773985
0,440712907158278
0,13085231169633
-0,239337972466857
-0,151961716935657
0,0518233954548305
-0,140509306859051
0,284436767342631
-0,0214027355552805
-0,306993915527356
-0,270442829028847
-0,168538517530569
-0,257059851519801
-0,548594165248087
-0,369048002763348
0,149038096943676
0,24435375378491
0,357125286471973
-0,365244209154288
0,0344938363266944
-0,286798655221852
-0,0675817078872615
0,410259930731803
-0,157297180805959
0,281714057913848
0,213631611687451
-0,386579594236228
-0,194473388105332
-0,364816943747898
0,0144222200922894
0,407170597675287
0,443678281897627
0,108411416248046
0,463217212440938
0,187686702060218
-0,0474049395679139
-0,0821446205588636
0,113604996776966
-0,162060751616786
0,433539354754785
-0,45374385112118
-0,399467515654984
-0,172620311628296
-0,597701598234792
-0,0398604096012145
-0,500598521454704
-0,082384716011736
0,346482981576967
-0,0256616915546731
0,265753404484901
0,153003156845879
0,204533715594808
-0,491503786757357
0,259451476172629
-0,32655023548585
-0,0132156160345882
0,236469821811791
-0,561515392860094
-0,079579400922224
-0,400521034334002
0,0327916106260161
0,151145651486408
0,0575338241518903
-0,0941843872457363
0,464472064067208
0,193545593936054
0,134458052725732
-0,240687278486732
0,0558253191504786
-0,506566493294181
-0,0938528096520186
-0,333616962904756
0,41807131545953
0,208879477288399
0,189928507751334
0,431446134540436
-0,411816915066414
0,146222925005538
-0,266321674920815
0,321803892413994
0,187954294815638
-0,0317086635824292
-0,344431504970072
-0,476966810008269
-0,222090265182319
-0,0243586962375764
-0,0934228821003864
0,207069093723192
-0,190337780936056
0,0577147636631236
-0,144991767803792
-0,183868077508835
0,262914907131725
0,587857047665197
0,243775146648365
0,588686818166233
-0,168640498188597
-0,280830437473128
0,125246991020062
0,124582855120777
-0,236980982099646
0,438344037615733
-0,21085456986988
0,256044211185016
0,314373229343515
0,417461834913686
-0,322156033861523
-0,102921886650343
0,358197906919847
-0,493762991997522
0,176605782228885
-0,359012112832592
-0,0515036766772752
-0,456523692312857
-0,270855091702739
-0,0589721319946311
-0,155098266765395
-0,303070029180888
-0,0469633917893184
-0,322282294095869
0,0198840854515237
0,607765931040919
0,0115265882897449
-0,0865991927273463
0,331271627004467
-0,329225720958509
0,213542283101669
0,438371354899427
-0,0193950812137954
0,460081795915735
0,287668183306759
0,296124068264417
0,00407354048203256
-0,320323082095596
0,206304260858476
-0,0956304341534294
-0,113599172613397
-0,0180048268459312
-0,420823729410583
-0,490373333199877
-0,249293100530237
0,127466478704651
0,165625027707132
-0,274330460390914
-0,394617408487358
0,10691227680743
0,239162423785371
-0,278782115910173
0,554833368086081
0,457373740941863
-0,275420133174277
-0,154820684224616
-0,0133200298011526
0,215127034211618
0,481473625210081
0,0346479740388185
-0,342721835171573
-0,213901744979854
-0,388175537132757
-0,31118114914174
-0,411532412603394
0,485623538591609
0,246200849183929
0,108926874403342
0,110137765579921
0,286137266312334
-0,370914020408776
0,115085428487905
-0,304784346786294
0,186001175786681
-0,326985786295726
0,232836513723735
0,188773081453947
0,402876203021896
0,390006914532175
0,497717901152598
-0,170884606742717
0,0853038460127531
0,309695577410681
0,27994757333824
-0,141897446116692
0,400578866757577
0,207007566661689
-0,420317691990878
-0,0588278695317394
-0,352468607442952
0,0923504379838767
-0,399607896587265
0,358416138150923
0,117617139414706
0,305953355881364
0,458550666439603
-0,466324849038536
0,16242031597645
-0,363346689600976
0,148721108335739
0,315905449034634
0,358221614183377
-0,352123855481285
-0,0586504289229508
-0,180712549626882
0,0136146525105058
0,406780806780266
0,132569578946748
0,186051493135584
0,0202622059613908
0,313888882901797
0,299919870969312
-0,318114324732001
0,601546574980673
0,400283650665027
-0,110445982798062
-0,219786218278692
-0,439302009489279
0,048934244281475
0,0996295551758001
-0,083467378552755
0,326037933037634
0,159636784186418
0,126025778532971
0,244654003411836
-0,256210171504044
0,328460011741151
-0,0940176917373011
0,328684654439041
0,209266905492347
0,024919956895494
-0,0248481789363969
-0,397371911715308
-0,433283636469343
-0,329807175181783
-0,354241388459225
-0,29619276611168
-0,115937640530628
0,514562689041447
-0,447574327259269
-0,190005937829848
-0,0999537766859489
-0,340546437694776
-0,279638622204329
0,237560244885701
0,107432346036198
0,139013137538924
-0,375167594550626
-0,421760039833263
-0,18062774775579
0,279012195197405
-0,253883398489041
-0,436909827374346
0,32448370513715
-0,0864993379827053
0,000664054438671953
0,0867881329001635
-0,251550560121306
-0,381596829884844
0,0500704009337859
-0,297905692561877
0,297653998316738
-0,377027850018295
0,0400878394538224
0,234645631115406
-0,110282154943088
0,103071732810303
-0,095222590384013
0,156310149530431
0,225981279791409
-0,0472692023506931
0,0787134307986922
0,179018696573901
-0,238423601997958
-0,372594961767107
0,31502506966471
-0,276928719494924
0,265293861164383
-0,1283553310802
-0,0747005462528675
-0,319591652052287
-0,13171587308483
-0,114761254570801
0,27480118012745
-0,371204416564562
0,358497733543725
0,2614964858401
0,285400347368086
0,015690202498104
0,50068787380493
0,400243270597263
0,0512718668576522
0,446428096157707
-0,101889125626022
0,244522119610809
0,466741479114717
-0,417490678757955
0,403100627021712
0,124329065844712
0,0320859004427148
0,406697850165282
-0,201786447643203
-0,330624460629478
-0,45062731576647
-0,387421215366303
0,276329650439476
0,455454678719609
0,393614802460007
-0,18499426901573
0,306264483745333
0,1297178066474
-0,332879163712673
-0,391535504204936
0,299361776932777
-0,367683731423544
-0,453990648944858
0,371822475861675
-0,127157259093205
-0,226858341007893
-0,0261825288302184
-0,445519357894323
-0,463280311768539
0,403915372632405
-0,353806125863365
0,429351205904666
-0,219405287280402
0,453003420006951
0,234412739395356
0,487668250216017
-0,422562001236976
0,187124026793579
-0,0720215158406745
-0,223016986028765
0,126846150321349
0,421123543251829
0,140625852924132
-0,330994162629821
-0,489651263221005
-0,00883247401045284
-0,0513084579963742
0,13705537451294
-0,451551963552624
0,161165700601957
0,434045761792942
-0,322796333964354
0,188371222361176
0,335660154429118
0,205775529940508
0,0142361480939377
0,196706959530752
-0,000265576792738092
-0,0088925381059298
-0,175857927131281
-0,243131594203121
0,0813670315390194
0,479527970520758
-0,29865140017412
0,0774204241646774
-0,281368902782616
0,19801132040937
-0,494830541310287
0,433453267874873
0,473240452806112
-0,482365977476521
-0,172876451477817
0,488026475993929
0,0559289788622078
0,277955754556673
-0,0434751955529094
0,351056731702321
-0,00333683355866782
-0,274844245880304
0,266099692679057
0,417988161221622
0,421836394942253
-0,210080633913091
-0,288759109229893
0,152986900539532
0,013426281984947
-0,418075016243764
0,230412936291039
-0,259662189430556
0,0900586743355095
-0,481021791352842
0,0022660063321151
0,475139061656099
0,216605937300078
-0,274332899977905
0,266879849027321
0,481547514433762
0,174938677658764
0,345105664266788
0,100936323218484
-0,109670636062357
0,448564571770171
-0,0301896606246893
-0,201988283406006
-0,320883854866943
-0,279435963965939
-0,118005470074426
0,37332401286059
-0,333235476925143
0,27856358937666
0,05828064367845
-0,170921085101798
0,262048299705055
0,400233701910773
-0,187072736961124
-0,397203709259183
0,344226650525223
-0,0102670048397404
0,210300261755181
0,265434301790971
-0,250757091505842
0,271794027027669
0,346861134056313
-0,442760847947915
0,427077143884765
0,26076111465728
-0,203882105510627
0,0687952756736405
0,49540473613674
-0,149519134615324
-0,50341487918361
-0,480502710551677
0,384877831934896
-0,344442016238164
0,12255511784335
0,0322860678498447
-0,254503700860162
0,504732581340594
0,0215936189938342
0,0309839212507955
-0,277108641902209
-0,18969897672306
-0,0408023213160098
0,301791251374066
0,241641952314877
0,352775958602905
-0,150440933798087
0,148085161114044
-0,448701009101042
-0,0286372921756935
-0,028710521848666
-0,12143575718277
-0,0648474505007488
0,369464321932506
-0,264189492335631
-0,456795606742052
-0,329361659860873
0,482297992284615
0,482332035042465
-0,0314873343398479
0,315144488135282
0,484016150961876
-0,0136433532027254
0,112917334202898
0,26612186501882
-0,114093038161304
-0,266085223513074
-0,370460553705963
0,389148388018696
0,202058359311108
0,1665047353411
0,315044955267633
0,248753689141168
-0,00160844744890856
0,0142640364967975
-0,459139848563583
-0,414840489593053
0,00921770003300672
0,204511893960833
0,035237172870579
-0,196554781420567
-0,107549545638053
0,36698411212628
-0,402134911111619
0,0601599745266884
0,341201934530363
-0,425678420574776
0,361534374988555
0,245295669318933
0,210575703040347
0,286468203087642
0,109434533456608
0,349777814651899
-0,294340833724276
-0,344082679525002
0,120984893829655
-0,121712721156075
0,381449151911108
0,167809281039099
0,494047918532252
0,522050079013315
0,1739624087987
-0,384507654179325
-0,33119120765778
0,277626278695609
-0,0896356978420781
-0,214610576772499
-0,472115015623997
-0,504873721578173
-0,195668199098684
-0,316663163628738
0,306285956784285
-0,058822753488032
-0,0133005668545923
-0,455452428083872
0,0247425944385991
0,235726119645282
-0,30546542621394
0,0549525955041082
-0,0831167169848594
0,382303060376043
0,32378855559538
0,525815876562153
0,62752417845055
0,656161776629688
0,457835816819327
-0,329663428891622
0,304594403059287
-0,399645942172099
-0,044884898067585
-0,396996565978353
-0,352993469269792
0,272440429067667
-0,0451057955199577
0,308891734071264
-0,141468442273445
-0,0146996939561443
0,277090151549654
0,380429675746909
-0,273221042832928
0,302623813258083
-0,0220944644012645
0,119353064466615
-0,104562596695863
-0,349318539044594
0,12233880908991
0,186737803934574
-0,0379918586334562
0,526425533190611
0,198985230385465
0,324148699329827
-0,030520986975913
-0,148320916787608
0,198108844625096
-0,131550509225145
0,28791182816848
-0,399624469850396
0,406601800587861
-0,2870691683954
0,394860738094442
-0,00274588024166588
0,119077568836943
0,121236511403508
0,183627771399199
0,304666264355784
0,437424127449013
0,424508176708831
0,536436441536522
0,290997770374532
-0,358021002679593
0,104204946035022
0,5029405818296
0,209081524847761
-0,326961964989522
0,030240940772159
0,599395380671301
-0,366963453928597
0,0138727191736793
0,470996707691802
0,125798079847346
0,429665166314323
-0,293709339728353
0,55358200106695
-0,000220212452439215
0,188663931459373
-0,420794042092492
0,334142194661026
-0,0447963005001919
0,519493160449415
0,468527334400151
0,421315217669371
0,0199889303076404
0,377144119016393
0,10413595596521
-0,372390250615957
0,194411915284099
0,295040018472295
-0,455919499644296
0,160949933677182
-0,225909882215882
-0,0715224322521782
0,411084366282219
-0,343374322311789
0,408892855063705
0,363287465967282
-0,368196802549779
-0,216841234721441
-0,246583786646338
0,224017214138892
0,618552042595106
0,19042154064376
0,572477325509703
0,00749915545153745
-0,0959112527205392
0,486768598847046
0,0402271654451883
0,12382188796307
0,364178004594464
-0,214530156641714
0,4147992405446
0,489142180285848
0,344547840694221
-0,183508881686027
-0,304881013838985
0,431537695072074
0,266659284631425
0,00946932310287971
0,26201407296888
0,302557158488236
0,451337286130751
0,256606721839007
-0,10155882418688
-0,117581130569535
0,11248326925056
0,515263778130034
0,139715704363399
-0,553763689349701
-0,121253680221067
-0,490304825734373
-0,1069765108369
0,0899370172465136
0,37223925460453
0,0240500962861812
0,0507072962500176
0,174629158027477
-0,284925959234082
0,279007225201516
0,132134955587648
-0,397872730951042
-0,0734554601709617
0,130967453881617
0,481937861061626
0,436421533580817
-0,36401841990406
-0,53017459549222
-0,623798505418692
0,0435462175840067
-0,0175488818371974
0,329062352698019
0,433291989365592
-0,0165104437740776
0,140409880613616
-0,330586678190761
0,0564870858456488
-0,504266858206722
-0,5936403347763
-0,236063361661159
0,076608964232076
-0,176700766811619
0,18842973056236
-0,325853611115728
-0,16196077539043
-0,128659344131319
0,340065957262968
0,292775651046845
-0,412884368554476
-0,494544097132597
0,330886964558304
0,449712305771984
0,171740078214435
0,0478859030902264
-0,340449955341895
-0,332690707907547
0,370693514578503
-0,209575799831094
-0,469175914833238
0,117551378665889
0,186558768028503
-0,0724671629679825
0,460919209885627
-0,276773306694146
0,307302335688967
-0,394969723641022
0,341844734190409
-0,327211541899
-0,203874545664317
0,373847619303125
0,492611162039156
0,133243720184695
0,0989412621564148
-0,348709127193369
0,284527600551023
-0,0122457226578659
-0,421775746400248
-0,238712565126883
-0,233001242316595
0,119607015801411
-0,385136069676437
0,345748383327784
0,0739532017528208
0,444036218826529
-0,078778355029857
0,0869992009225883
0,381089547001714
-0,371696829244599
0,107435574674452
-0,432609294616355
0,542806721085714
-0,413322887502135
-0,298737918132317
0,276575065342774
0,296166508097967
-0,373292515927997
0,373009285846953
-0,358432033788769
0,388205969848976
0,0635728424818444
0,13068518832636
-0,224823683636082
-0,108814713472967
-0,0549945043493852
0,185120898649362
-0,324695180686615
0,350031216509854
0,129167755893044
-0,338278419262859
0,345841471085888
-0,181194926021076
-0,380480836239423
-0,0887050061356717
-0,38036654612713
-0,590615269819482
0,267794582673616
-0,272553982486105
0,347714325133318
0,205431641645843
-0,0582166171608443
-0,394261822731352
0,115566321818264
-0,250629343563566
-0,251689833579286
-0,0245779186565253
0,37644825657538
0,0718544415235874
0,342789570073003
-0,0509673394329369
0,469778057126615
-0,223602562121926
-0,44142117498529
0,521982331499231
0,334038498756238
-0,0349916124905293
0,494071351361494
0,205126795314777
-0,186826980280805
-0,228294725322586
-0,331485641642866
0,175951710194562
0,362252275948342
-0,545123808624424
0,127326396047315
0,0215467102496976
-0,442810499156705
-0,129783876988492
-0,404150417591242
-0,0689406512040875
-0,142990252543297
-0,42871777700221
0,595102411857889
-0,304877288142929
0,259485369742358
0,619835744185253
0,35117665987943
0,330722498731642
-0,0498120674280902
0,422169744136584
-0,0650521579384197
0,20045768913322
-0,184771354295774
0,287481366508598
0,28893111729479
-0,414711325389664
-0,0860587000376546
-0,0983754997802502
0,00357710239053411
-0,134887972005434
-0,463124124997561
-0,3254878544559
-0,259031329270228
-0,247454163336934
0,0560601301209636
-0,192886131908038
0,0506317185112786
-0,0913170420514939
-0,565712299791433
-0,213836814759016
0,231766204183509
0,217756975162436
0,359375286253759
-0,133833781625156
0,418535991073711
0,0787247991864079
0,442177289997813
-0,296718668169235
-0,0884722952246248
0,107606449192858
0,253530117083468
-0,0491840586321227
0,317518870726935
0,0678434491007791
0,129195866117069
0,0432739402792062
0,0387652450184597
0,0665416565166046
0,159788042525327
0,342214963965462
0,411713451997858
-0,201238514443867
-0,029688566549166
0,0377461698822814
0,461512359815622
-0,19445486597455
-0,20016877395995
0,216262531009568
0,601760020382909
-0,192424188197405
-0,473523274303485
-0,26081287811899
0,0290587464576116
0,279909082806293
0,232442912403369
0,176268910160723
-0,345581512323824
0,0949360813933782
-0,226340908478905
0,485408809445722
-0,0742223107135959
0,425423265865735
-0,176739115024073
0,131036749374122
0,552909429468212
0,42390065117828
0,461479164132288
-0,367631675384515
-0,457276123918146
0,269154413347073
-0,254854238059872
0,304056076628606
-0,2484289395498
0,380890150451274
-0,438006461531005
-0,0561976252842893
0,59119465876963
-0,121599697137615
-0,167628979634576
-0,532140555655606
-0,443018128565081
-0,489947565788384
0,050925491529544
-0,161946384747017
0,253194237897292
0,319406553390818
0,142284965858195
0,374974293061254
-0,475221818767126
0,463680535537973
0,317684269421054
0,50241421074249
0,0720047609448338
0,26949171244592
-0,458772878514058
0,253791448175131
-0,155775202147205
0,177335703342892
-0,177876075745997
-0,317605257113912
-0,179876998691568
-0,0147757792091013
0,43582702817243
-0,394291113993436
0,243567026899842
-0,425858749015571
0,41648504087465
0,290877473260621
-0,136827703472719
-0,625227062222736
-0,423702635059443
-0,188880582815415
-0,321280465918844
-0,236205517485704
0,0224153311551876
-0,194386156599217
-0,308091276235921
0,475603282440269
-0,430591460825501
-0,286267398017976
-0,191015032667992
0,471812542348713
-0,195210007818652
0,0311988236362346
-0,347516229157862
0,288200764584306
-0,125417257305025
0,253151644072615
-0,182735448942562
0,243026574837517
0,240214720213996
-0,0442645275551158
0,307955325855969
0,213422933514765
-0,312983373695733
-0,662677002161254
-0,538130615458285
0,0617382911591662
0,186574853996004
0,217948396497891
0,369893805688358
-0,12355614753937
-0,100447733890109
0,0250796016888132
-0,00591505109607943
-0,423648083546966
-0,000204351028150999
-0,462334777487684
0,194679022734546
0,309310363446658
-0,264838205803674
0,0978833061023739
0,229803656580648
0,464935145465556
0,0272406955971055
0,323058114743057
-0,135965914767064
0,0965199141154186
-0,306520648830398
-0,056485544237259
-0,54374246369805
-0,24755266382391
0,101696756570028
-0,506552566161985
-0,270438522557063
-0,436935333529378
0,259582938650926
-0,166642443842662
-0,329479429526879
-0,151843652154314
0,462599195800933
0,395575140088599
-0,0229622812582936
0,0261546161613215
-0,377435133805915
-0,0707298681812487
0,0614514396704125
-0,0150633268127567
0,0187799570301637
-0,108427846001157
-0,0877735398667016
0,228381054149043
0,195001473069944
0,588706055142596
-0,275893840359349
-0,239926890018475
-0,260037852003976
-0,095521131974427
-0,59459276532615
-0,0167707544751139
0,369857622577915
-0,0848901144918843
-0,315053851251331
0,161117635462421
0,267319223516633
0,484113619235865
0,0865611652921472
0,463439360243939
0,485748377156327
-0,0686501444171416
0,176139253506502
0,231039728844091
0,0956741155105056
-0,175704647290614
-0,293106877735788
0,407293335568176
0,290251193144234
-0,213611839151628
-0,117050916479751
-0,16430650867027
-0,0407224203119816
0,198420293063706
0,103060292745757
-0,23237313851756
0,130726504792541
-0,444151139478979
-0,424164561936284
-0,287624469667291
-0,352463566057775
0,319641754293103
0,0875635348787793
-0,189892489127212
0,54553909772964
0,416357870489657
-0,453460098783213
-0,361351602180559
-0,113731937303083
-0,280998621965292
-0,497255218214009
-0,468118300646599
-0,288089223107365
-0,301623947589155
-0,302219658883579
0,343176603827883
-0,364380406459972
0,612811828240591
0,371344123366376
0,204851414762666
0,435664962234651
-0,277516333631583
0,157766646622885
0,326810242861834
0,114038879222987
-0,159815772057753
0,04242042002944
0,615853592085218
0,168381246301421
-0,287345374251962
-0,448488436635777
-0,171053324848876
0,212844728368448
-0,159925240688427
0,251247584904209
0,327806856403037
-0,348197636123839
0,39243245864866
0,347110082789841
-0,238319410354979
-0,161870158119998
0,354060846722471
-0,405897028834262
0,021764724232946
-0,332157893731639
0,488816753533712
0,417098855482624
0,303259315882614
0,503155504361229
0,052284106971373
0,430363548772176
0,155301055386724
-0,1953811045524
0,415474782729063
0,262540623819121
-0,0246262169009347
0,551418825319603
-0,0783900750194325
-0,0372762109008378
-0,217204285149887
0,0517359046815223
0,0533932649156605
-0,180402179565468
-0,00501612876775492
-0,305095445739615
-0,408358907284382
0,227773878130957
0,0342677233434597
-0,481568632638812
0,246786978909181
0,129752047653195
-0,483209618227589
0,408271030935233
0,435717751410612
-0,122810058287238
0,132064135549122
0,149006761084117
0,168135712623624
-0,181609484977384
-0,473350812096955
0,0129474323830432
0,169495933280886
0,392245823049161
-0,180629867565731
0,0260760100544734
0,40351682056911
0,297498346677748
0,411498960997676
-0,183050157354702
-0,172645584527704
0,494513619688579
-0,227136404592142
-0,167483983872218
-0,448809415543829
0,290621167882635
0,0229457861385056
-0,0706489973564861
-0,116808602407951
0,473164362354746
0,391344275740601
-0,476907179680144
-0,396717694539911
0,22339387504542
-0,325034395244454
0,178562141339556
0,179248231313773
-0,377340816369905
-0,277021589119463
-0,0111711050901427
-0,0370939232116071
0,179276524893603
0,155961276337486
0,131849057335336
-0,32827253492003
0,0761752815806191
0,393156801766323
-0,262673465890192
0,282531817342402
0,491335747293819
0,377363020497078
0,0879312653969653
0,135783355047825
-0,335089822222986
0,472583841985363
-0,267436730567104
0,432987430567382
-0,120358626181427
0,173767770488638
0,326954160736387
-0,136303881013907
-0,269152338509053
0,0301465101214808
-0,328236361438619
-0,414374968015864
-0,029723301776556
-0,202056728629926
-0,358124055752963
0,0832574292258242
-0,143843760976252
-0,32869289707191
0,414683862228759
0,303442465492978
-0,139953729840922
-0,387416207956826
0,2827871922223
0,082074707179365
-0,481413236810553
0,0679532166421195
-0,287755455257257
0,0145226863746172
0,412814914673946
0,172686126396379
-0,256405050752873
0,108400365155377
-0,0562683760916201
0,0803740967905028
-0,140512959864229
-0,285179147862447
-0,416797190865873
-0,120082843871826
0,311808584460873
-0,322676010901063
0,439582523000867
-0,0738399967853055
0,367120971893807
-0,352602342379743
0,0243797498687334
0,280890140298518
-0,36358822232329
0,0799974048300902
-0,346487480015179
-0,268405429577496
0,154375265507636
0,455718660602408
0,129561136591363
0,18166513446796
0,0350059808860561
-0,477589142032708
-0,0471835767604334
0,0463156167167778
0,186114682669805
0,195254332244049
0,381933201049423
0,0673821976256473
-0,304326736574796
0,0297309296534081
-0,15778368229236
0,195783864632061
0,122068991795343
-0,472684434050599
-0,150071098894573
-0,453432858284174
0,316009493661275
0,111761621541485
0,260621744561684
0,0507984377386965
-0,287427494320655
0,0424541363293206
-0,339859957555336
-0,275244830609562
-0,0293773911627182
0,424634208749195
0,411838496901926
-0,477752111841809
0,409427837892169
-0,0614700198925426
-0,332712767102156
0,168431863965668
-0,145129690247183
-0,0679340812228313
-0,124777947088751
0,00369952418335009
-0,169901957093822
-0,0421253274109202
-0,266994494387803
-0,106003078561443
0,417553365146571
-0,314167520144813
0,328356776507382
0,517563836639744
-0,364946145264527
0,000710609241879289
-0,069522358634768
0,556201329203509
0,134754761823203
-0,504671276120599
0,17694639227195
-0,501251346440551
-0,0606962730813637
-0,0815154366168993
0,471997331410763
0,02579234970884
-0,180503748208519
0,238269822550132
0,347183193008966
-0,363429769810024
-0,365387115099182
0,102257122022773
0,0215269729600319
0,262312879876221
-0,400026318614146
0,254664743710044
0,057328615418607
-0,412645193587383
0,0569915657186655
0,214943531718535
-0,081068316970602
0,0108227574787512
0,192595210466758
-0,353037002382072
0,556884688850841
-0,204471115439771
0,156067190725745
-0,298677128934604
-0,359764219957861
0,173893697215686
0,233876762510513
-0,194435502176907
-0,438718267390989
0,340799998450655
0,394084323150837
-0,0424943815648995
-0,271743119588002
-0,260447603538841
0,33310682085953
-0,296519558832047
0,326713358185628
-0,0698007952558052
0,321596727815542
-0,0857424780422484
-0,137325767977417
-0,124439267897948
0,118976909144143
0,0364908704192098
0,217025527800769
0,235443427117246
-0,404653014255221
-0,276059290115152
0,239460678080231
-0,144582928303584
-0,2399025867414
-0,329272316257808
0,0386611876189983
0,353463774753808
-0,153485196852498
0,1209908293333
0,368202883834996
0,0593582307248234
0,472992702192454
0,0726310884826801
-0,13449473475781
0,440933455219927
0,280626478870447
0,361527593072672
-0,245530220950051
-0,500648230006169
0,418382613230099
-0,508991122537527
0,00728030951249539
0,0850968867070181
0,0753568340879984
0,145828278723248
-0,256723335859171
0,269659517502279
0,300148315732371
0,110796791929112
0,452231904162992
-0,372410773906611
0,128934286738471
-0,395958342403764
0,338197749194273
0,0672147221897044
-0,0367971188951279
-0,393443421577645
0,158975735071664
-0,173878938445903
-0,288018013980052
-0,08359879921341
-0,438837435999344
-0,0425342696451276
0,393355770937164
-0,209817867221797
-0,496271503743161
-0,130880351517969
-0,130957127608964
-0,149245585835986
0,446748995688186
-0,364584271815029
0,236569249835392
-0,0295654629413562
-0,120545243868453
0,566304045153879
0,204719714953946
0,116341298019997
0,010818670543216
-0,282425252118825
-0,15224934167252
0,0598049949025984
0,240777136416008
-0,146636840974767
0,302995942585026
-0,363477923425762
0,44400893628154
-0,441819973159256
0,0396024111439604
0,0159328312221602
-0,24913233320654
-0,0302203809383491
-0,0854113479099357
-0,497647304419858
-0,404103032306361
0,255391842721905
0,239007875947166
0,175742050195095
0,453844856334509
0,00534356130439501
0,18621357044829
-0,2858358257081
-0,186701146793605
0,0713991963486436
-0,189223255341795
-0,120498884298427
0,133959822242011
-0,211347732919858
-0,144312947324895
0,352042279368769
-0,210247317981916
-0,245586411275807
0,377990158985442
0,301059921954255
0,0056158155474163
-0,45466584713611
0,0820519478740566
-0,309980950695454
0,341126199737716
-0,0806224928013224
0,243514211638469
0,161796006709779
0,0187784872363293
-0,155443494601981
-0,299828073558144
0,210289279064132
-0,285403509071763
0,32158101484017
0,311371407389918
0,341725011636887
0,0046147266981133
-0,0768531450286888
-0,537772056530384
-0,21187034154891
-0,465232885732072
-0,447492315260297
-0,019934575769289
0,00527956243041235
0,0345518163344539
-0,160582766229296
0,399602640721467
-0,43270842561202
-0,156559879841442
-0,0799267275118822
0,0807852802217929
-0,228952677328583
0,128163539165707
-0,100865949225084
0,341612709514449
-0,480571718813043
0,300329807621119
0,377192384437438
-0,539278258720893
0,316339207603678
-0,123409286344553
0,318122271696085
-0,0845037606083992
0,301603737906071
-0,33260859772477
-0,100328090348571
0,171135197951988
-0,0977622005992601
-0,604097526857724
-0,166149294013344
0,181862502481853
0,1168897628466
0,396711337558452
0,036891231359351
-0,0743446198398482
0,214615127400767
-0,061973088486894
0,244904112958353
-0,160585106173073
-0,214325100050459
0,44591964406237
0,2254725837733
-0,483986060913181
0,4535070893803
0,340773575171884
0,00133077726825578
-0,300209835893751
0,217056166363452
-0,108997354370739
0,0347707701524409
-0,188813060222658
0,228075459008231
0,227231355594514
-0,193533387152099
-0,00126391744320248
0,043871146926145
0,2868276073016
-0,115081750418914
-0,511872662652019
-0,142163303201735
-0,453956873784604
0,0879156241378531
0,11856677031548
-0,113757994710044
0,367586257668519
-0,0726341502556666
0,132421749684141
0,308666317079578
0,471712073763698
-0,414809785743621
-0,5020551516562
0,203190045792015
-0,154906307262228
-0,0828818710843965
-0,331687537565418
0,236311205297408
-0,250655557190424
0,466297890377226
0,36172793949239
0,0610165593205146
-0,0688439626791139
0,139298723779841
0,445906348742275
-0,525816871867872
0,261173025664282
-0,287092048408604
-0,432158247163041
-0,164673770767904
0,0383866706324383
0,0693901991069794
-0,133364723501133
0,230693808446964
0,134733370885574
0,133971744371671
-0,520546685841308
-0,153713477237897
0,0682238501348644
-0,128367014521904
-0,445838843525687
-0,00338649629385622
-0,105253363922476
0,00844952518953622
0,538779339511411
0,502127843306546
0,247255845221665
-0,0700886218793449
-0,0954537495479749
0,527089675890006
0,244489667064287
-0,109465957822728
0,00481294350386493
-0,506917578867231
-0,403980242829467
0,282522575306173
-0,212514596387768
0,0514928066082171
0,303189289199074
-0,351702563394531
-0,178629308528585
-0,311838077361062
-0,493920800004643
-0,342171503450166
-0,342320063116011
-0,472661778873089
-0,362767015054248
0,388447374519169
-0,0194435963313999
-0,202653337108906
0,265751808727803
0,418572673398305
0,0585093729255018
-0,0535690777558062
-0,31599044013194
0,0549606410268546
0,629490479247573
0,121399501938291
0,381570708046317
0,0567626121544651
-0,405692289086105
-0,146096675767978
0,568336433353553
0,0772972123115016
-0,393438765828486
-0,669339534225357
0,282087372803697
0,284856417235468
0,208848326369083
-0,112498782689647
0,0154869863692895
-0,239495561967571
0,173050480906454
-0,495721897197706
-0,0995046913621503
-0,492013403210795
-0,117548841644756
0,492390814729863
0,0340257112916405
0,214086619765996
-0,474387941639129
0,347575771377258
-0,247019937992772
0,722481459471689
0,28154012080048
0,456078538639884
-0,0647100733883779
0,31267390409813
-0,276720288805542
0,0271099097477776
-0,133685448544789
0,303926009800595
-0,286322458023349
-0,581308876059265
-0,00189150840860971
-0,167671870524103
-0,103850854693556
-0,164613119203433
-0,264508914181052
-0,164966632803825
0,374524528064245
-0,296937312459958
0,375446044781919
0,285241839841586
-0,345210276420974
0,280932393746547
0,0708623708086079
0,381296663395633
-0,180828080149349
-0,0011724603068425
0,149178052299477
0,110343223385305
-0,0518061692893353
0,205926598904287
0,172418672864135
0,410400560567108
0,00694268329858181
-0,0602784958184305
-0,320038640945974
0,311051639469005
0,174581055581848
-0,0155968293511766
-0,202564749866117
-0,268792295133928
-0,148557297157586
0,0794347185880959
-0,364888646556678
-0,17947111783831
0,0101175376015728
0,0322894595285876
0,374656469037131
0,0626067694102446
-0,496970841385055
0,181611265135359
0,213223094932299
0,126167211755656
-0,62966814751415
-0,225412112148209
-0,0669606320463812
0,350181348375011
0,485776611451326
0,436532411113204
0,232683988410731
0,0756890626541034
0,50870690103314
0,414298920148221
0,118160269909411
-0,324272206789287
0,11954785259788
0,0946601823216696
0,508131233776704
-0,505031992695763
0,488176135041485
0,308417671514322
0,131397157125336
0,0752037207017599
-0,0431364019098813
-0,148316383753068
-0,147143516525227
0,236168566968371
0,429803289124517
0,0912823883200461
-0,367037256409343
0,245699815812041
0,406782548713145
0,261418323929896
-0,153629966891636
0,256737987693959
0,0600196056811252
0,241294977714628
0,366899715540447
0,115740917626385
0,108968840159232
0,105786149921728
-0,152514673662738
-0,00376309504695456
0,433356081023584
-0,344148701804591
0,467893453556085
-0,187508405701871
-0,416050555076076
0,156150533914184
0,109123469366703
0,103402414671374
0,139405626080704
0,0861432637992564
-0,162182723946023
0,0136073737002943
0,255510892386552
-0,214332848391706
0,264597524828519
-0,592026122994155
0,297355141208068
0,0124830191630219
0,352372466171631
0,108619199737549
0,310648234447383
-0,393049678181516
-0,153124980326163
-0,211517685421493
0,099600377534393
-0,0293149991376963
0,0677434167005933
0,571956175814288
-0,253961103171659
0,147348573446297
-0,422427288847787
0,400547170533814
-0,0400677302670383
-0,338468502364932
-0,316949644877915
0,426671341629953
0,444697949128766
-0,366379680049783
0,257743247206203
-0,271184695312374
-0,0601766454580338
-0,298779025271642
0,354309473022463
-0,487899411636195
-0,365500852071848
0,0385392564403985
-0,430327386816371
-0,362674830774301
0,00757235486043298
-0,47332634281401
0,156947101954297
-0,00895880746277143
-0,225916703880557
0,308086084485894
-0,277610034779465
0,453961218827719
0,0253197561859736
-0,322168812003913
-0,248289971389702
-0,482626139962538
-0,341907930246797
-0,221795975961615
0,196451345807614
-0,403762001239066
-0,307694962052575
-0,166726555985737
0,361678773472867
0,431726447274781
0,48387604723279
-0,32008290826694
0,205320260558329
0,33362847234151
-0,175320522269032
-0,191966122380003
0,22032755381563
-0,627787677349232
0,284696453484704
0,140338839026075
0,103652555074763
0,13101881179739
-0,286972230450967
0,347946324379376
0,0504002290950377
0,0327253435588737
0,380465994682308
-0,275790064653104
-0,0456432509229859
-0,211609489825541
-0,392856086830326
0,446929301020885
0,204837828645127
0,430041255912979
-0,210647785385225
-0,440918245325293
0,233410262844251
-0,215861218383471
0,19368716218078
-0,165632804862941
-0,588262296093871
-0,483922365776067
-0,507093699814759
0,39931167660084
-0,191468129572043
-0,275835959631003
-0,345894550537546
-0,23543852293522
-0,113465679644284
0,514282602531771
-0,205325703676091
0,2078632918852
-0,197223458028101
-0,120063808099779
0,012554885787624
-0,0435665226969679
-0,3110907070904
-0,153073037327216
0,355011217882932
0,181271505264387
0,0531382813898077
0,218841807785836
0,0353613288772112
0,423981875145799
0,277498708468628
0,0843003008441535
-0,422126588841028
0,382878155629841
-0,0743272708008052
-0,0923489369373939
0,187441456308857
-0,499049422724226
-0,444760244514752
0,346942599108951
-0,0271681144823276
-0,523438749183775
-0,562838425501854
0,0443453828505061
0,234382459815128
0,357910552643556
-0,240786895632718
0,394536736696047
0,190958415362338
-0,340889748013004
-0,297265871480276
0,323442737487636
0,199100079801304
-0,325179091898904
0,296487706248856
0,0918477431833035
0,341906339322173
-0,000217745313522311
0,333256530032147
0,207546136671466
0,11961080581863
0,340643246834064
-0,116628744416098
0,174049176834679
-0,543475361262822
0,153152552591661
-0,238853746750782
-0,0641728626744648
0,390870488281895
-0,412824447055964
-0,143321056157604
-0,300206186971674
0,186525166591581
-0,341953476336028
-0,37798062346276
0,324427639057187
0,268035238661368
0,406727086594769
-0,388020419027318
0,209494588353998
0,0482106161366571
0,322500298998812
0,354609528721106
0,124974423844821
-0,146814037415578
-0,305946150704262
0,424075967596879
0,293174866490613
-0,147539221517527
0,0763117460354642
0,33547044158187
-0,00154166187504788
0,338867922845215
0,313597693538394
-0,227041697735962
-0,504431668766316
-0,126216356174509
-0,0313399348673404
0,130696929952607
0,208683166948221
0,31018638995459
0,261948235902272
-0,436167230029531
0,282768512913816
-0,472996480476309
-0,408045082683507
-0,33837236071742
-0,279520914088359
-0,219955881744177
0,385288025382069
0,297574464137468
0,438787626074063
0,0978472766456414
0,20023646238271
-0,167592979812805
0,19223569691751
0,0235951983014099
-0,0155437684224657
-0,296022647431131
0,336786644975337
0,309565009997456
0,221366631047335
-0,256659556711425
-0,395380612146031
-0,495515616690815
0,00746834129938496
-0,296899088464842
-0,430799142014198
-0,308018061129592
-0,197377790924483
-0,236830065389771
-0,216624525016752
-0,30375609899959
-0,314447732904201
-0,11873557121434
-0,393083362790329
0,291585688382194
0,326328045607697
-0,0995776134541154
-0,00263782893430342
0,125902341970197
0,108065149098665
0,0561491342057238
-0,299452727101488
0,269000086825807
0,329693378801315
-0,22385916240693
0,318821417549076
-0,0410398219437524
-0,35553706710019
-0,231861646627943
-0,288938339235698
-0,353541220935779
-0,342043006253449
0,0673873301443585
0,465411584342556
0,324855570134174
-0,327899357223836
-0,229109914847235
0,196423076417494
-0,186328070092168
0,378768988828533
0,418974402788549
0,255384421793457
0,446242443726511
0,350973552954837
0,15995849560013
0,113559542975183
0,457050217761216
0,280339533360833
-0,0169444952704685
0,472084276830817
-0,293273191337135
0,124585365701739
-0,0627440561366938
-0,454833705888518
-0,35278985176831
0,0710312330960442
0,177116735687999
-0,271259441865263
-0,0556508496893556
-0,157324699595045
-0,356671512525841
-0,230786735566706
-0,410715728755754
0,360510702242001
0,357170616536878
0,443699209877289
-0,147434599524572
-0,283452086780814
0,0924521757997548
0,424531602805515
-0,228803965262808
0,489452279633587
-0,0385015581448104
0,397644563064745
0,104514099939034
0,124849628016748
-0,184971581997802
0,274862018774665
-0,259723725151142
-0,468426774241229
0,228437216360326
-0,177625682520506
0,235694212250269
0,446326315843652
0,11805502400643
0,29777010753647
0,0291155395281607
0,247111418472534
0,468818349992505
0,289656510571682
-0,396916057256155
0,384866851205536
0,25431163068294
-0,0475419131962351
0,297694859667047
-0,0200677509362483
0,348476189163773
0,446161283729225
-0,115693891938735
-0,482021058893513
-0,397515174788049
0,39918397362306
-0,394868476733038
0,469074473701918
0,269276275657712
-0,00177970784799181
-0,133693754502429
-0,438794412156006
0,283217621866249
0,174719881580546
-0,0858511242230395
0,500590081266699
0,35008337855463
0,490326470616286
-0,0236413526956526
-0,267845921368116
-0,490007880561739
-0,444812655314754
-0,405434523145653
-0,158780585133241
0,243224003734982
0,228539357048911
0,336144268697714
0,25763536519608
-0,0266578726972492
-0,205014269418038
-0,0663806409685386
0,35447271036203
-0,00490593715343013
-0,175825147272938
0,169746648366445
0,193762621234061
0,0618539171115746
-0,297415683417309
-0,429943683990251
0,0972799782628566
-0,467558154551463
0,347415086520861
0,306123181320308
-0,266466106751595
0,216489870853269
-0,340726923329852
0,309692331032129
-0,136648305246014
-0,113531598354251
0,0366677211764402
0,129711583231208
-0,552196275568162
-0,121342263003969
0,0240580862068743
0,0638070396531381
0,120079113011298
-0,103394815707595
-0,113309887027078
0,474722150269584
-0,416165775499392
0,0505978070070432
0,0860339136540448
-0,382536597495217
0,498719246591776
-0,0866299684097199
0,024276210704947
-0,00243643182443287
0,354768121652807
-0,275125675436565
0,217231497978695
-0,120084472394395
-0,316710810819986
0,0126538818083901
-0,302332396515626
0,00190942617958078
0,25130412408838
0,27530344548743
-0,0401672881828543
-0,174844758249207
0,0211526786963702
-0,090475323798496
0,209013173558319
-0,305497901710104
-0,55666297729668
0,120252744175079
0,307702873615159
0,063072285817986
0,0768741611389927
0,183499895805619
0,019906290328968
0,200074867881017
0,11311826976627
-0,150479258806668
-0,0862312636274059
-0,0557457621003248
0,0865349745792919
-0,327579861597604
0,315751737038875
-0,143403967023461
-0,0936099381740464
-0,36867840845651
-0,27241745961651
-0,278472978135723
-0,0839027916885869
0,192655289686155
-0,18741658892125
-0,292336645340691
0,209454619270084
0,462211629822565
0,0254652308387405
0,129811623928503
-0,470161002688508
0,0314841210407272
-0,385917181074591
-0,296874499038263
-0,101179760225878
-0,228186797167521
0,341292688540708
0,122644348449009
-0,055555207027878
-0,124805245839434
0,0963562962582132
-0,0070962100819572
0,0026461957841517
-0,0829069338166161
0,0521024592719242
0,231304702670687
0,189560355082792
0,151418654930099
-0,0308217555927686
0,0577111502064182
-0,0730913261553845
0,397738294854494
-0,341329732977256
0,0804814041060941
-0,192066241550599
0,0574483834755551
0,45720170608084
0,180600292340025
0,000247197629833878
0,0542733943345557
0,170224791880617
-0,490317817111709
0,0567972420233056
0,286010074457273
-0,137546695363568
-0,339381237331443
-0,37883858567891
0,48541762586004
-0,478529200413511
0,0810040383626395
-0,277947567615525
-0,0806654079074053
-0,531353831499801
-0,457032932287972
-0,574320383655758
-0,383388239082288
-0,279630750290275
0,151430501205039
0,107107197779589
0,0374109632760389
0,548902558654537
0,0283923290871773
0,0903491717578922
0,163290600766017
-0,0755951575064435
-0,354202587909276
-0,185570632050681
-0,593922134682644
-0,453757905430984
0,238441166315058
-0,304563287807532
-0,375120130151164
-0,456753593617141
0,0785796400158433
-0,440723793087864
-0,436999061115551
-0,321942130229269
0,289365771057429
-0,12281712702079
0,328484527848386
0,14308608002387
0,357071645457303
0,139236416801415
-0,198094079675669
-0,627843856138043
-0,0478032042549102
0,166255195627437
0,274503890662637
0,289099271104545
0,139366246710407
-0,276449387584034
0,402557323873261
-0,320857384687881
0,384181502672818
-0,0757849563328808
0,29484202533256
-0,0910334830067321
-0,159898441444921
-0,283162681005441
-0,147832776598219
-0,202202021982134
-0,238053513220134
-0,0702113083425031
-0,102268870734735
0,324109036650699
0,28001890109576
-0,246836000495424
-0,345850906351925
0,425375124741696
-0,301349165511027
-0,343527710827824
-0,117131546626479
0,145463462679356
-0,113091509646513
0,36316618323504
-0,082017919947631
-0,064330495188713
0,0762243340979817
-0,17438247390566
0,0131508287054031
0,118557501062114
0,482043389211876
-0,360875925660016
-0,00646694599241107
0,0250788341922679
0,316220350822229
0,424194062054714
0,354357242964118
-0,422946466476396
0,469729832329329
0,181255182102907
-0,37561109423433
0,122076084661333
0,105980230586076
-0,124113788162324
0,419035717968814
0,329275307009856
-0,165407176268223
-0,414148959432535
0,210926083121871
-0,290232914960378
-0,296643583526654
-0,365552757767732
-0,585387012492262
-0,264403314152643
0,228584728307192
-0,198396299735963
0,0564774066231933
-0,350206595636279
-0,269798510541903
-0,229582942579918
-0,111371232677835
-0,138477591133871
0,036577993381804
0,451550468614189
0,486674921836213
-0,302941200945513
-0,193021362991249
-0,136289068328351
0,00935587869461429
0,167150061888224
0,35416231758309
0,294486990368902
0,451371380916207
0,575795853077081
-0,218408439518905
0,249494019746243
-0,178472488875373
-0,171584844532846
-0,229033500038113
-0,229099361153632
-0,149607962583123
-0,204134613432584
-0,291634635758174
-0,340956614589869
-0,0675600903773468
-0,0233694311033417
0,154475239355323
0,373601282936377
-0,154278224360585
0,587552562384506
0,453285920597419
0,0977351250676237
0,472983865128383
0,34405548137624
0,199273375698845
-0,434528698471369
-0,351649038890213
-0,223722708282863
0,522571344189985
-0,351235410487409
0,00723721491045571
0,0501361494813923
-0,378203087530029
-0,213135734876016
0,327108022827221
0,339430726074098
0,462504110009591
-0,341009456069726
0,110747630627194
0,0186227880173322
-0,0588537753947997
-0,244483498077634
-0,0971142565625949
0,0949080440105781
0,555092458102848
-0,295149220418427
-0,266709879746403
0,208074387393289
0,531628583257749
-0,196145423972441
0,0309143176883828
0,496710164071221
0,0743610039564434
0,0691321003016434
0,457322396318113
0,0649675142788178
0,445690317325762
0,497036072325809
0,181878517254591
-0,0866323630565262
-0,0788394907484666
0,481033928453933
-0,179683226073099
0,0193908700830754
0,0966189605836911
-0,157457182927062
-0,251803595783351
-0,267769743266887
0,295824379909708
-0,438267097893721
-0,00199325384008398
0,00696661421292885
0,319574512872215
-0,147656858629989
0,33123669926614
-0,316498436767424
0,171880127991123
-0,237397768607945
0,134488574226545
0,118104744990116
0,469354239728394
0,487209316048655
-0,429706399296274
-0,18998390701133
0,188704126638785
0,357490127394155
0,476677840279095
0,496505850774249
0,2176007114516
0,35331118183812
0,158124911987789
0,376764069990226
0,228483090558975
-0,0522943059276452
-0,299792040066318
-0,500590472748272
-0,149954810971501
0,256867891992314
-0,12937265980769
0,347477563812861
0,199290828848575
-0,36422035394949
0,144354911348336
0,0580592515245823
0,249547142748034
-0,198704455075538
0,514279757708898
0,434489113948461
0,0851882340115832
0,43701457526421
-0,278432115343601
0,492995019067542
-0,246622422089854
0,25736987088851
0,0854446168009485
0,211831778537179
-0,500686917633665
0,244502232584126
0,112431263370309
0,130113497915025
-0,13328617019941
0,20893658285909
-0,265492990293622
-0,467875399622763
-0,0768051774579492
0,314729290364551
0,221787261892758
-0,398449332004723
-0,35033450651904
0,0527073456468826
-0,336786916749493
-0,373826943507477
-0,422002879399851
-0,0930864825547359
0,326481803508133
-0,446655778212446
0,347192301793972
-0,109520543007636
-0,326280383312274
-0,183300839589583
-0,437001682213285
0,171815944359456
0,147847742715836
0,368763993105493
0,199087641041717
-0,390524609681932
-0,260303927968696
0,525419003804353
0,619089647931548
0,0543007902617531
-0,399343233496305
0,19177183932343
0,0200819648820951
0,365190401613195
-0,167638537245695
0,275130610677659
-0,152884894933095
0,200694351818414
-0,0273397037020438
0,404817136524908
0,263110939964241
0,276055253298026
0,21491594674062
-0,217862047741437
-0,108081634136755
0,46835392543529
-0,405397617214079
-0,26983625524204
0,141034014670747
0,268059225716059
-0,261198675625894
0,238419266907425
0,229934624120581
-0,215290990080809
-0,277112324739891
0,350760869408755
0,218023720619773
0,0261618368584139
-0,151058286169364
-0,00764750188012791
0,446265902189234
-0,259079605716396
0,404107847172967
-0,481439152995685
-0,121634453350164
-0,127858998480762
0,162843895156577
-0,198263898638194
-0,316467098115565
0,45188969160563
0,0852277181678048
0,156963917234559
0,288792688478406
0,498749948283328
0,0656226615261392
0,3837655954453
0,502431771668074
-0,196187641870632
0,356760564996199
-0,353125586794954
0,429305555661131
0,47970216624921
-0,236800843970889
0,0502895888809168
0,414557414059723
0,143770005985379
0,525883825045708
0,232416178991271
0,0613658287399706
0,15024924973156
0,376550674694981
0,144880521621743
-0,0394734176267986
-0,418281854197922
-0,14415828609611
0,312585616273167
0,116137187877747
0,352182409439073
0,134637909737763
0,10771928727405
0,401364558973306
0,0613369657387397
0,204410796381724
-0,388519140839818
-0,00253249865031459
0,300399557318171
0,182732372872245
0,368929511324394
-0,010247380417111
0,420210826691043
-0,0506327776231125
-0,0578887176502247
-0,250124536594333
-0,425734680732857
0,357860496948563
-0,140038665045636
0,441180321189821
0,342427044713527
0,231200210560189
0,0369321281744239
-0,344524667314432
-0,123595953414721
-0,40232763872071
-0,375763639332297
0,360092935610636
0,356998147470633
0,217242469513528
-0,0127010481201713
-0,434751980991135
-0,21877348596173
-0,306278691536877
-0,0785391216997705
0,0611138224706578
-0,238197306423343
-0,206660411012855
0,56018915260447
0,0418196875462247
0,298100236858934
-0,311032038987009
-0,356101918792764
0,3636132319394
-0,299110063065495
0,359059544079136
0,0567017374904986
-0,045084379125418
0,282456613964592
-0,428216462737702
-0,512867406396045
-0,09088445740466
0,353230307322639
-0,218386629478459
0,292181458635481
-0,23193482825236
0,106101571115106
0,420558112451268
0,438078392020711
0,328478405459072
0,169834550316369
-0,4315923172662
0,451822838257916
-0,203560779661109
0,0469882337020546
-0,183699635753888
0,383081429312608
0,362982017214174
0,27342576711565
0,107028018071415
0,0732378234700489
0,144575520354211
-0,10150078288318
-0,0375635472138699
0,0532320624470269
0,269358678205465
0,39326549557332
0,299048892497976
0,471714228137774
0,187113681683006
-0,40430123224272
0,385517449527969
-0,0483542495800934
0,142500359678726
0,400815682604974
0,444521336774087
0,273572767895766
0,299826471889629
-0,264027268515913
-0,247398718142602
0,320153216281977
0,380826746895829
-0,180062360485839
-0,326938576481159
0,178793482253249
0,363484620598531
0,0982003606318248
0,325873189710036
-0,0891352013260651
0,376493814557981
0,33193630295727
0,419712124099529
-0,0278673489713096
-0,552271093878071
-0,48755186644198
0,159115986386751
-0,220471486980674
0,284456190682446
-0,102859967601738
0,24326421925511
-0,163033033620084
0,0446023946837617
-0,0449522059470612
-0,352005218367006
0,240804239055516
0,088249277131748
0,162147833342733
-0,380883910637761
-0,321119080680012
0,0680499624312156
0,161689635705224
-0,212977288069621
-0,129700685067768
0,479125023116319
0,424180110152543
0,505135211527935
-0,0438258309280164
0,399992761758187
-0,021696982174594
-0,440807814264813
0,086579779027946
-0,509411923009672
0,408113021151485
-0,00745660445756359
0,18700985276435
-0,496596863109709
-0,279170031031647
0,0772892463124784
0,104190589339956
0,16568168449443
-0,0270612713513597
0,213423635434001
0,423996397258712
-0,32923328728845
0,0130399006945267
-0,398686724202096
-0,478300237086741
0,364993610822127
-0,267997895845806
0,125589749768854
-0,484331415478498
-0,37282778051486
0,0945788322050787
0,189618710244562
-0,121283704674525
-0,210555706082204
-0,151878795000379
0,301812267390849
0,279165839032032
0,148216481592154
0,212741742306931
-0,252028261851151
-0,212531406652784
0,470716516127677
0,289158555598645
0,137759543138035
-0,238110084563972
0,410896661197854
0,425984278240742
0,121422204769816
-0,402811594727827
-0,258706834054881
-0,177935304901533
0,0108015949422501
0,234830759342215
0,298035818523744
-0,169735320395932
-0,122443176436832
0,267306021472688
0,0853716341490335
0,373883999779713
-0,339511467377682
-0,0860836273621996
-0,326975971482407
-0,106139329576154
-0,455653763689347
0,364797092239177
0,145402765066453
0,0147642557953035
-0,490476452581385
0,250328250854631
-0,304509177962438
-0,409170519364582
0,200788300860264
-0,0614939712202819
0,123856800977848
-0,0458319673203723
0,288005742145705
0,275076588511037
0,269526029829646
-0,222994453610384
0,189624619991344
0,326596086298393
0,220214418470959
0,0782390998575088
0,0500582617474992
-0,218235727215842
0,095770974089662
0,141962751669707
-0,106515706592871
0,231574315145961
-0,151761049661303
0,118081672927305
-0,443351693337268
0,32527030576367
0,485929597070095
-0,162509191865226
-0,416329332285326
-0,391186485192224
0,0396899738057847
-0,410154833961294
0,443483095124123
-0,263786218019103
-0,0656639698732942
0,257352169955779
0,337001294287388
-0,154804761826435
-0,0968621185034803
0,299713819194452
0,433556108704561
0,13111725572083
-0,390099240415776
0,0759779706485467
-0,180601097028982
-0,493309840091183
0,282783735908002
0,486538942431351
-0,241778966384837
-0,0194167594981458
-0,0560227858629184
0,0271645758893175
-0,413060883950936
0,080594089152568
-0,443389667637362
0,401846076316129
-0,0630159562281407
-0,263721617760007
-0,110464362711862
-0,00396164623273615
0,131103802300572
0,0390686344071611
-0,071836908614187
-0,0724300335033005
-0,11984889796928
-0,399383387015845
-0,462899194081733
0,0518425742871327
0,277669384972038
0,138364267367108
0,426911046228796
0,152512535291031
0,454735876971267
0,23147723205922
0,0231002972103191
-0,113280688232407
0,0947630356972865
-0,288849159976863
-0,407112895212144
-0,0241356720100341
-0,439357224823608
-0,0723158261138276
0,377473589756681
0,310298138023792
0,311731776565087
0,284763276958709
-0,375104779956322
0,0806526695405866
0,457619125054593
-0,258682217751395
-0,373918635859171
-0,357475337506028
-0,273334315872441
0,289628676506518
0,334653241948529
-0,148393757943247
0,371618697825642
-0,483455729663119
-0,289310857089847
-0,420731068551881
0,110537851047953
-0,202012869856326
0,38261691847938
-0,247779292402686
-0,371311627268471
0,100378645397899
0,446874690306384
-0,461688151835802
0,43045788182811
-0,473870728926329
-0,140750473040409
0,0464821542260111
-0,304142380689583
0,28880525652686
0,432371688521293
-0,183117376446285
-0,206007989792606
0,230463944108182
0,0513900773006964
-0,218320148230363
-0,30908759779001
0,0995195887980608
-0,487549121485813
-0,256957020497395
-0,363588287431555
-0,454770669785687
0,492334254548109
-0,110743656573232
-0,0968927855588928
-0,344979700560206
0,0438256653366249
0,227182082261265
-0,15186461585901
0,43789908941642
-0,127664991421386
-0,0408244950860374
0,0355983097006764
0,0189413632705403
-0,266237141471147
0,077000739064436
-0,130939919220203
-0,201897570564089
0,259389427570028
-0,30061232815955
-0,303518832385725
-0,395811185391986
-0,205713311030847
-0,329518334617543
0,351313802466464
0,100365622248671
-0,407598849342949
0,344022042976703
0,271189846457536
-0,318055887156192
-0,321660224730922
0,367037103915139
0,196345273493317
-0,443137448635871
-0,401344962180602
0,0469853067132547
0,210711148739852
-0,0222303212262923
0,382452218609351
0,431137203391903
-0,285487309978937
-0,0184742873587893
0,0233939331755293
0,150940952418255
0,151208038475528
0,369737907599361
-0,418088018603022
-0,176109789972234
-0,0193576293262503
0,372226449807987
-0,138172110656181
0,0975296546589312
0,508193492686468
0,446445098184702
0,299557013343813
-0,0244512965550885
-0,423212986869371
-0,207245953244737
-0,391528861081008
0,0168603732672736
-0,2863277971111
-0,00960468324302856
0,410538239306053
-0,218179161397061
0,419217523262589
-0,545925984883167
-0,397415365281312
-0,0796405810792169
0,0513465853465799
0,493380233215194
0,0762246022265768
0,453026627330623
-0,139104290568098
0,191401941959731
0,233140258576116
0,0662791059667913
-0,041289655024378
-0,352823139399724
0,187921278801932
-0,44634087544631
-0,101435908074006
-0,0529524308959391
0,217496822285239
-0,121766064139905
0,136250232642633
0,0883151742575296
-0,437945388694268
-0,41887481951632
0,0882853047322801
0,369670112020707
-0,219456280650945
0,402268599430168
0,187515808825988
-0,503501394815008
-0,553655277879395
-0,0488531412771215
-0,381671625608788
-0,110962612265085
-0,187932779605319
0,0430935962457814
0,135730987735632
0,105127270043775
-0,267085405902256
0,0603720559508015
-0,222257908982549
0,534021764175553
0,143575166609786
0,120031928079926
0,276285763386656
0,0712328445076956
-0,0356323488947539
-0,285283336210179
-0,261934383661456
0,197230005961484
0,278152799063326
-0,225182957801516
0,257077500472238
-0,132689441994629
-0,426251485327471
-0,428447723153112
-0,542779204912817
0,130177997302064
-0,0895332610346942
-0,14102797156266
0,433312695099158
0,334598823543491
0,54914682831965
0,492716398702745
0,0277865499521723
0,639399575471358
-0,0878270540270062
0,491087017510465
-0,124970880670819
0,407993838051119
0,145393068020073
0,0539403547448792
0,469602272838586
-0,453582155246862
0,293847045073098
0,287922897383087
-0,221923403778078
-0,284732784044339
-0,0484884475265418
-0,494004036502761
0,241001794493692
0,29415734013543
-0,367022513159953
-0,485616553136732
0,289070860792293
-0,175526072493554
0,415719023781955
-0,282577302277755
0,0800361357159418
0,602498963660192
0,201864653816232
-0,108901171819676
-0,22196995569745
-0,0831233381038349
-0,0139353359527583
0,0260585149062576
-0,491280153403991
0,0195966807884842
0,232098193069273
-0,528384700333169
0,265178420060501
-0,376315201605883
0,144558332074082
0,13671165222149
0,180310161635424
0,348267544315542
0,307753806906965
-0,101661640163687
-0,301770222478358
-0,229178962649539
-0,350068534229115
0,196368658740217
-0,151799397854662
-0,204546109843855
-0,098297604084368
-0,250157791446445
0,174510757418363
0,22594725821486
0,0850559065886914
-0,159153569522339
0,14188251856192
0,355462964208848
-0,222149201709819
-0,47466073849664
-0,588591621332562
-0,35632371785113
0,418224317449059
-0,231822878741762
0,337662776851306
0,248946589332964
-0,0796730902103708
-0,126545365725898
-0,461254413687277
0,404111134168964
0,239540283576806
0,315907430859985
0,0551404440523202
0,459331086847562
0,0124438910075373
0,100314104796762
-0,316342874364779
-0,286418272609165
0,50269949845867
0,431246227592459
-0,0439729449428112
-0,342539772239
0,234831294587213
0,0909061241710505
0,0187798613970958
0,0423857047038069
-0,556008586615977
-0,280315235749126
-0,476565937691398
-0,25277570327783
-0,11681492420948
0,117217528079891
-0,212968887941487
0,176191164662448
-0,484533489414059
-0,00107038929177
-0,240952660209012
-0,314807307820212
-0,377542484935647
0,264346198920963
-0,34429536346651
0,0401954970969364
0,0455117969688652
-0,131213212764866
-0,202800742760873
0,10476724218168
-0,255311999737461
0,15801056795336
0,200888924380189
0,0400669888497467
0,442429176320641
0,0722421084141653
-0,238969536971054
-0,295103460080404
-0,382119246669473
-0,37693369397548
0,106344265337122
-0,300567830831302
0,432571241152204
-0,0483723889925015
0,254314998381038
-0,368732013443162
0,451143843113534
0,0368694944944556
-0,0701769425394838
0,49478531162943
0,0845366480977975
-0,0467781381297388
-0,0876528217200174
0,400979122789078
-0,133705622243452
-0,403380544802308
0,360774412175039
-0,327627409532777
0,157242846120461
0,182592200616201
-0,168699939565494
-0,413622053593915
-0,472596178234732
0,132132869829578
-0,265926732214094
-0,467144092980674
-0,191854765538562
0,198339988095867
0,184868321585585
-0,167285808466007
0,242045711443265
-0,403205818155746
0,44826252716345
-0,182307227594882
0,303810149047723
0,40661996692896
-0,313496571878668
0,298173983953043
-0,0471663685873374
0,34886974906837
-0,39048160517374
-0,297060740851534
-0,550318251416889
0,0839167380305312
0,341453983212252
-0,0923707792166931
-0,0833326638037629
-0,408870665977097
0,0415081731295702
-0,244099558756806
0,0256133021634536
-0,165653530913059
-0,573083176495345
0,249547290203731
-0,376064450847053
0,0318680504529565
0,239663309257631
0,294884399577537
0,426513977739328
0,451333629657899
0,270759174893078
0,377800387282163
-0,293563318761169
0,146935399002656
0,458810614402783
-0,381871686262019
-0,438569949144138
-0,443265501577409
0,229418305186561
-0,0914569645123796
-0,356287156316829
-0,115467508808939
-0,247476453777986
-0,272687866268296
0,239169545804191
0,425337064768832
-0,379384707245333
0,0968975769680544
-0,262550132715249
-0,234540660097842
-0,5749169170472
-0,547202611409845
-0,162000593770068
0,277304642360893
-0,226213988673513
-0,333382147959041
0,245731052502643
-0,22878129930326
0,455151466041364
0,00121923177658294
-0,0156313038987174
0,239697231335249
0,0201118376665338
-0,380600600913447
0,377526651745879
0,0503436772985652
-0,0023899855757001
-0,280133951084013
0,218274025887395
-0,0479308185833443
-0,255811135055071
-0,244482050321666
-0,0647345830602539
0,0433791194612787
0,256692975659706
0,229358230853354
0,143695384674834
-0,343544933028261
-0,552658338871086
-0,317875961672326
-0,592185305190632
0,0960766032378028
0,439363651645198
-0,436414979963602
0,321464097164484
-0,362548800299674
-0,127463071581516
0,119292346914901
-0,291963533907644
0,180283844333099
0,301410401147516
-0,00728019629944127
0,125037472282782
0,451175690178906
-0,198321111062251
0,476584696319458
0,188688336895122
0,309905547572878
-0,216057277104831
-0,240184056384217
0,157775354218738
-0,361864428731981
-0,367108374908908
-0,272198234654976
-0,0387392288375496
-0,558578525337297
-0,560916437010215
0,107937446999183
-0,0504853849886807
0,299902683046381
0,39527512304982
0,378603625095855
0,175823237761716
0,112444143996012
0,00544788294093264
0,0848267857797755
-0,0297472172107222
0,0170514837562452
-0,330028688921607
-0,355868781849681
0,352380214054276
-0,0237016109949132
-0,435378849966306
-0,464856862315373
0,305747762882445
0,144264236542136
0,144629184356601
-0,0413647422747709
-0,278263441448731
0,0325342286292542
-0,272006205886821
-0,0254932148766385
-0,376756086799477
0,0621270108488023
-0,490995464676366
-0,225994973944139
-0,44777248028721
-0,182306537032923
-0,122990371871848
-0,00670660432276176
-0,114258625698251
0,327828573339695
-0,315684708637795
-0,205936924216318
0,413657827233537
0,471650407181714
0,252388867434295
0,174815312807828
-0,0613359778277513
0,116377957482838
-0,109240339694041
-0,330040236219286
-0,147610427830301
0,550937732930896
0,13492578191203
-0,560520814640969
0,288676372022701
-0,220968260348711
0,015322090013899
-0,281501154358468
0,0404427585098786
-0,487761713977267
0,0816608031344895
0,193531406799919
0,38492134740305
0,416607439107925
0,255756457755292
-0,0971613854701915
-0,155493609908818
0,0950478769965054
-0,279969770101303
-0,0750826361138062
-0,0834384432806706
0,243101320120843
-0,00538678211410848
-0,478587539390934
0,248240225187946
-0,214642122397855
0,129980347649068
0,504985719332579
0,274954225778967
0,0474913615779899
-0,337613235210043
-0,398048120841734
-0,0726777501107219
-0,134520011638925
0,00911972747366939
0,201064129215252
0,382977433891173
0,33300936231832
-0,496191902876764
-0,0194276257938112
0,091949308734471
-0,00859191271195501
-0,335538780633413
-0,157791154007527
-0,324669034040602
-0,0774617359725602
0,0677526258576413
-0,32515126489642
-0,1250368699438
0,432299166431614
0,187786041613569
-0,478192465369679
-0,233650761707428
0,131879951666366
0,0105921296645879
0,514330913078203
-0,35706147598012
0,0799483464975832
-0,213028260061934
-0,310577553052326
0,0909895337489819
-0,313411399256931
-0,0889762404949491
0,386620466129275
0,188490863711218
0,384784192979043
-0,293372497148451
0,0216480160940525
0,316245490357287
0,226674494064375
-0,441718273058112
0,450013179611961
-0,292266226206205
0,0923046780304638
-0,0852490993643833
-0,328539362550449
-0,0799335159436632
0,499478137586023
-0,0810809329064008
0,44149828280392
-0,310864650849472
0,235789013805345
-0,501915228153155
-0,188456698252658
0,263095878654
-0,457517774319317
-0,27231901085119
-0,311396441772317
-0,207829100765106
0,204189783168223
-0,165775643643548
-0,0766117604814854
0,142754221951864
0,338067559466763
0,0984224890430474
-0,369215406180469
-0,370109079735591
0,425198793814587
-0,235656929060599
-0,099940716469178
-0,37643748772741
-0,324222823232503
0,446749115842672
0,149325910914504
-0,0380013232266073
0,177450954298233
0,310825742693071
-0,471925921725075
-0,160713958405307
-0,466102735608609
0,250924482893392
-0,448331657049561
-0,394260660811169
0,393448338463632
-0,062850455627344
0,0428710475395459
-0,307374439364762
-0,519817373475821
0,226744036208009
-0,561034005881976
0,261261117310568
0,00103616040261925
0,234468671349224
0,363756837043655
0,259862908987866
0,407841536287714
-0,420504473748261
-0,375707873009323
0,275424096431016
0,159146087984072
0,0618132697833481
0,492037327101364
-0,222826108131118
0,366344109115351
-0,177077184746543
0,00793490256552343
0,129214481625429
0,257506891940382
-0,449429865566795
0,439425697188917
-0,192008984552221
-0,122899335333682
0,487871444393842
0,0128734553866064
0,389336652593859
0,431408149201591
-0,431258482282962
-0,305442776444562
0,152723845820728
-0,301934329844544
-0,462042161324729
-0,345477227760726
-0,237882991525854
-0,383125345575678
0,295067596436702
-0,169939670361283
0,21938479544887
-0,0405605953216343
0,121917203809541
0,143334464469615
-0,105295170846067
-0,314317718527428
-0,352319775546118
0,301994418633168
-0,182879747209549
-0,361198733394917
-0,273422237051975
0,241630048342346
-0,362286236933008
-0,251328099660545
0,199552153865639
0,298363669567162
0,0938793925142179
-0,0994524664978134
0,0666987344314692
0,187374994889212
0,0075489536179297
0,242916126669457
0,289306253337611
0,187192119850202
-0,0386030874715119
0,385962315901864
0,205168825255255
-0,477276945493838
0,308455378163781
-0,0784644308410659
0,470097488589376
-0,0724494096694744
-0,199936673371092
0,00786622777016188
0,293318945818264
-0,313328089105584
0,427826783120552
0,103055952340174
0,379174070062883
0,505581122331169
-0,285921013572242
-0,376525040320463
-0,14187960626686
-0,41042249107882
0,332321376477916
-0,00851335357044695
0,0320571871384685
-0,21507378718
-0,224514217003284
0,401405696107388
-0,236432146409729
-0,25501177982273
0,341053567527268
-0,257146168132295
-0,24003992020421
0,1934138444371
-0,388199371103849
-0,46045347174332
0,0396434161718357
0,182485530936385
-0,396255358539641
-0,220635796301363
-0,103808342294678
-0,167071441033423
0,356043747093549
-0,156830268243908
-0,471896450641504
0,0410499981071208
0,413272152572094
-0,137026223078725
0,473219626909888
-0,298871378001744
0,246952923055865
0,245400065309922
0,326744122127005
-0,0253510661705952
-0,26548238326691
0,26912482023325
0,368048492865152
-0,185703217795479
0,0113480638483151
-0,36633814389839
-0,402150213491111
-0,0511352783090354
0,175177814439129
0,317010339881406
-0,0988846787246339
-0,0624096242535904
-0,266587258673546
0,174631941912059
-0,489935849322908
0,412766557611882
-0,0402457185742658
-0,356098741225944
-0,241379557988317
-0,279146159027575
0,0658563827448169
0,27647796877178
-0,0752542727545417
0,481831434064046
-0,354217202644704
-0,110417073114827
0,42527863529788
0,324860813698968
-0,408618421717412
-0,08321776361437
0,413031954969604
0,0539617277705365
0,299883187546469
0,133751339087569
0,425985679461614
0,389341629058747
-0,412365058861843
0,301614860446013
-0,194259659710461
-0,398355925874019
0,00524655194266077
0,148298282478144
0,10455840667922
-0,247193147310611
0,476269068651027
0,421081107073036
0,0721284530927094
0,374554587469695
0,196560693297796
-0,0516839188298601
-0,416256066838399
0,461626011394721
-0,254709068571548
0,477305700060588
-0,226593114308358
-0,268257405500979
-0,0873383048862863
0,151450671558944
-0,152879851242937
-0,31911192825954
-0,0742860965310997
0,080958632557168
-0,258081524520219
-0,455416869351369
0,23883051087094
0,487379380961591
0,323103838052183
-0,0568118354104514
0,00830824929676399
-0,263546359149528
0,0285138513560006
-0,177254774457428
0,207860529752383
-0,0114641648304947
-0,417437558023928
-0,210571966464898
0,141888826918736
0,24515121325159
-0,103289963958454
-0,442137659966078
-0,000756919900589078
0,0138953281125479
-0,0309735036133665
0,21930681811011
-0,0553494847154467
-0,0664118497125602
0,190916725323755
-0,485670484056457
0,0510442331046032
0,407742908587639
-0,306747180802142
0,369063085333031
0,446542781329909
0,267478171162064
-0,410514363511705
0,296789441628749
0,392471130421605
0,451690542954807
0,424098191281826
0,399082892993038
-0,0567354446075556
-0,498957776929698
0,422238364779501
-0,262438928597811
0,118289341041022
0,272930667164238
-0,0776577575959534
0,377278894594535
0,460080535616954
-0,435661640367882
-0,152208616988251
0,549533718227206
-0,172183872652868
0,475700431693372
-0,220131631979039
-0,395044817608991
-0,317431253048201
0,00772839107762958
0,255403094729648
-0,120722521935731
-0,199671027232478
0,47911737919668
0,0126733716539404
-0,496588968204609
0,225248698482871
-0,143848300279979
-0,0889959198371488
0,121214007316722
0,136708790267216
-0,415857911070743
0,393861775702733
0,282938521254313
-0,406212089248049
-0,258148478655232
-0,167013307572089
0,0371066300685882
-0,269366175961829
-0,18198484382546
-0,140764370575559
0,511711593621073
0,0274297983042277
0,306190838395338
0,0318587357839711
-0,0460758742792791
-0,149401748876412
0,0108423478875701
0,48257186852391
-0,16999258699577
-0,215303333447364
0,215812135633231
-0,161402625965109
-0,466135322566207
0,245873668578395
0,276687907882355
-0,464578343538837
-0,455275082008576
0,403569023545631
-0,491492160591992
0,166002968612059
-0,42813949386448
-0,462689539169565
-0,36610825868896
-0,185032822517114
0,246809336356856
-0,540798607945378
-0,270159482411807
-0,241048154452767
-0,295660624882387
-0,43556976601834
0,30479700260365
0,163249326430856
0,145010609593226
0,150639532562008
0,0802646217831053
0,257578374414179
0,485752230520156
-0,470433980034212
-0,0587655057117573
0,318724306782972
-0,155900152451947
0,0551001441455913
-0,247446865657087
0,420471330601942
-0,143530655020629
0,439701364813233
-0,43706256126923
0,279184914861174
-0,0844775508135986
0,0574483469083373
-0,45559428273377
-0,097321060618112
-0,38094645046861
0,0944483323929185
0,261351174948982
0,3279114570364
-0,208580449538285
0,176206826964063
-0,465163043111231
0,374890968449616
-0,465549787162534
0,191976523176161
-0,0559119366152035
0,0265715633711404
-0,32956510202505
0,143942578571933
-0,403271415813069
-0,526302739244352
-0,371015096371244
0,104833257322816
0,285146555297611
0,271731436611959
0,0200301262177667
0,497104550244801
0,481961457341118
-0,13630555382084
-0,361152783359207
0,210059182324234
-0,123819220090369
-0,136389141637357
-0,135371658169316
0,332414526581437
-0,0172011610821287
0,114950420287654
-0,306216097056342
0,183473567389048
0,202142247152491
0,421829133927691
-0,133261648818815
0,075527481889154
0,424557128063314
0,189802731707943
-0,181024470358268
-0,0754433362082265
-0,293141690803333
-0,461422928010585
0,172961211685695
0,515945163078099
0,391579989232642
0,0837245581595807
-0,269201713506692
-0,243423997127422
0,0143670032660751
-0,116301844767669
0,368284438343458
0,449321640609047
-0,186780892975664
-0,224509727349338
-0,0202260431449784
-0,107307330399411
-0,102683076179213
0,360596467457491
0,526390783151127
-0,0156543254080481
0,156911049512094
0,0869182233583562
0,493489187087681
-0,348665120846407
-0,0939451794573808
-0,0941450797531072
0,126490889336653
0,377522231084423
0,0413125678855222
0,304425485097679
-0,129576655430398
0,0438585911520502
-0,443868807085946
-0,481564000705985
0,00260878424281663
0,14295712202047
0,252570922890776
0,175120497220983
-0,338925919080509
-0,0261501811955403
0,0484841873024348
0,290270685787654
-0,116012476812616
-0,224531010721359
0,478107710596145
0,424866210111425
-0,139272468908626
0,0261114978585959
0,273646392656977
-0,189676895245468
0,15966968953018
-0,400333115110856
-0,411472148668277
-0,623842427630533
-0,184311071429507
-0,169603937189929
-0,120491354822283
-0,383262825177967
-0,448713451356862
-0,274439419315027
0,0830805346290956
-0,46287080178171
-0,111112913636353
0,117838477793534
-0,319440784585681
0,295861927093527
0,226496914904311
0,111476913259338
-0,502485428390422
-0,374557661274038
0,41151067890536
0,203477371408119
-0,241572664456006
-0,388449646682843
-0,271333375984087
0,347032182023845
-0,0775519599589648
0,44978267516605
0,176902895259887
-0,145875095262877
0,0472022302149335
-0,168934604044866
0,0460714055883997
-0,0273459897618299
0,334415481403905
-0,414211110030843
-0,0587171918154465
0,35857501492245
-0,221354354508852
-0,375859781110594
0,138234370450323
0,0708583047326472
-0,16758424545355
0,278479001425707
0,246580125325702
0,351512639913097
-0,482175304479591
-0,214108397648841
0,285026078971364
-0,142105150883953
0,118405657835872
0,0445775025016062
-0,421650655462032
0,0784900689624744
-0,425010457621212
-0,742455496745355
0,0870302051623194
-0,14919477779698
0,0561194308883423
-0,533684389702075
0,389104639315389
0,213122315523993
-0,216648898623462
-0,490612769549329
-0,0211671090511271
0,462304041865822
0,480505404519153
-0,249744194443218
0,454296627991971
0,226441893386952
0,312366224954921
0,0397004726197454
-0,285891959520391
-0,170841898773159
-0,0430291440598745
-0,274543277744838
-0,190779662773799
-0,365767482942831
0,278915203184238
-0,493709255641228
-0,352955123483095
-0,378845575970646
0,414254836215477
-0,132042986116838
0,323777861267427
0,514970248524488
0,304096571699154
-0,0935004558377856
-0,0557776012121742
0,172968361182442
-0,0391745685284004
0,319631641535852
0,258749460654533
-0,380115994963041
0,35771609230792
-0,108466577068189
0,385254464524451
0,273528763487628
0,138108287393118
-0,239194473637036
0,21126197478088
-0,0943980419878125
-0,431629295437021
-0,34552935051718
-0,108314472554153
-0,729457596492466
-0,433328003335815
-0,142362905326973
0,233834482695942
0,222986210486069
-0,0791799520465527
-0,476947166671514
-0,0525506127695561
0,468248518814296
-0,00497769751653343
0,229826341955678
-0,339464690792963
0,213497888692615
0,21645575424327
0,207402774047972
-0,129708947197037
-0,409003896008045
0,14665560783298
0,000550712691876454
0,202398626926541
0,0156901503604654
0,310127239504255
0,323549211333295
-0,327808569644354
-0,212507982790473
0,336436173650964
0,0718725413208636
0,166811583017416
-0,442302921131841
-0,472442843377394
-0,0783365727762228
-0,0166193985691449
-0,269838026719675
-0,00436162436244067
-0,397933837734358
-0,605685756263186
-0,528878487138466
-0,118254714323795
-0,0269117374728868
0,190844863233275
-0,0214682587118692
-0,0585444561497989
0,155692276616709
-0,0953066376726848
0,047303455529151
0,383031329580211
0,355834146428776
0,238580338069508
0,336671027932321
-0,408914915808084
-0,0739257064369688
0,226147605740021
-0,336286022978189
0,582718683296716
0,179100567578574
-0,108732634497058
-0,14230096656624
0,107358489702833
0,514377406296655
0,513516958554736
0,41958228122937
0,243009406341062
0,376189982132178
-0,214487482338363
-0,517590050132761
-0,342719414314676
-0,253021989127715
-0,157514179933082
-0,150962359332588
0,240467962086636
-0,179668858684942
-0,192123453307774
0,368939096098332
-0,489439656458454
-0,259142317231345
-0,452605871461614
-0,465521840086283
-0,39116279098614
-0,310508651992615
-0,196376144853359
0,318426457977498
-0,0637828438169895
-0,10885441432415
0,466252764127654
-0,368909894517478
0,121012753402533
-0,245742356593013
-0,413945571401337
-0,261806620805272
-0,254962064351812
-0,00752025362124903
-0,339990480620922
-0,373199635033714
0,206203587122117
0,00250047997052909
-0,540601481241862
-0,355178069507994
0,087199175656206
-0,446599174051235
-0,0495655156718284
0,505295932087861
0,262592792429386
-0,472543935278684
-0,126449927513697
-0,145332172973415
-0,385315529177651
0,446398173660081
0,366681342740081
-0,408140335876972
-0,225800287516929
-0,42610625674615
0,369567557279556
0,53581326435234
0,451312726217182
0,0969187589168695
0,204704925499162
0,463488502402475
0,118346235478306
-0,0506688673473883
-0,439172172508533
0,40145560812254
0,032018692033035
-0,203531169706264
-0,31445416453408
0,111837900835461
-0,405838208035076
-0,124291340861673
-0,0198535567665213
-0,244856956710446
-0,157975666036739
0,2340092597222
-0,243783355571229
0,0356948512166497
0,4572219553846
0,0943215367952541
-0,146103839972449
-0,607171824329994
0,199305972036551
0,31776775629194
0,0684020845726462
0,482539048557908
0,00174544216766628
-0,151652869322297
0,0307594893856308
-0,0183823684729934
0,220888105916376
-0,238539389650763
-0,107175763089762
-0,0877889015356321
0,0291038027101113
0,151755312600547
0,00113503457773965
0,190812437494808
0,293146360135951
-0,107082433951903
-0,256727293367878
-0,438061642987914
-0,00315330850006216
-0,00819342793347005
-0,0123489813470976
-0,466006387710966
-0,208363111141011
0,319343156807028
0,333940848318053
-0,186301881731318
-0,367916357474284
0,0559305769479612
-0,158684218128889
-0,0190625644739703
0,215257037576336
0,294499079831695
0,0190903756502452
0,0324586149687171
-0,0904181994256357
-0,122717149404901
-0,489726339506784
-0,422682665669225
-0,353345208390717
0,0941665971088261
0,201050739972713
-0,0362193927431498
0,26928403894669
-0,338939452586889
-0,468902877348613
0,459492600998685
0,439649704844607
-0,150978418835894
0,321716077542732
0,218873703094014
-0,441348784024038
-0,105838479747009
0,00414568868463974
0,210572306118541
-0,472942606364905
0,522433517339802
0,386363108322056
0,116207289339265
0,170612908026797
0,0291716703694127
-0,300447492605943
-0,180884710365191
-0,168761925249109
0,0992622165207334
-0,22824985567466
-0,00318343910036287
-0,389139616036099
-0,0912398372662786
-0,429416599468985
0,303432118677546
0,302118674066251
0,0228563933451378
-0,46773662674105
0,317606868166373
0,113667796214967
-0,300938818045398
0,479368104589809
0,0848145088364737
-0,091428718215939
0,474067285323936
-0,0391137058259161
0,325780856611581
0,38178466978294
0,239296499306453
-0,301857955213103
0,234095667779042
-0,0610198273790409
0,0887310147707432
0,147928220885846
-0,0986141229303217
-0,257671184123907
-0,0709887579898681
0,456383884738488
-0,266622176315326
0,317854661771746
-0,0534007059839802
0,0994182739209301
0,340381814120962
0,127095642379253
0,0342985573633075
0,104615557651298
0,277954506998832
0,152449542029039
0,205603047136964
0,111737481137615
-0,157712782805597
0,0198514959656999
-0,267546368888387
0,379410953673675
0,11604425250564
0,476082870454114
0,267129653174307
0,123580515552354
0,340964671716839
-0,331289254984668
0,460668489207832
-0,32195665308482
0,401221462617434
0,52680364271074
-0,0476339583250451
0,125397566572783
0,28967454623209
-0,305191247100164
0,376153911930752
-0,202364383556288
-0,490845899647504
-0,361707816336023
-0,26028807380747
0,0746543063855796
-0,0193227812477938
-0,236484156798797
-0,330887301280576
0,480525201177469
0,10058613850624
-0,326312423381785
-0,479902552109771
-0,399141630785125
-0,145537806015276
0,350664427483084
0,4647292682351
-0,426248431792176
0,250769161992664
0,113232576401779
-0,192245890536001
0,333817381035845
-0,415019831855145
-0,264580698847128
0,305982330366074
-0,413911836318437
0,100579281009338
-0,201516703707344
0,459841846710705
0,53127161188517
0,539131189733346
-0,119774142416314
-0,3614025091749
-0,443866016368348
0,122721650410751
0,0213883540227023
0,167551219774201
0,201098914118995
0,284297161750379
0,245734435357537
0,358393941325816
-0,133425572103408
-0,130921114616325
-0,215740240383803
0,223327840349866
-0,367108474991989
-0,0151742567646114
-0,00223147127521485
0,211545441619445
0,435543380855433
-0,353934896715683
0,212328337126837
0,249977926053113
-0,329163560470686
0,14061833231764
0,276690207206865
0,147417303770146
0,152526355112863
-0,139655729763767
0,199203479536302
0,292912107273031
-0,323121907572784
-0,428617519293268
