0,276925660100265
-0,0566072787887451
0,318445498504883
-0,176746238803838
0,200510385772451
0,0591483542505411
-0,255924423577229
0,251818386722272
0,157195950698664
-0,158877084804176
-0,123535216610662
-0,497563550247608
0,0807554040014536
-0,0753798804131243
0,374991926306389
0,0306392705676328
0,368183322655122
-0,192119244342725
-0,176575226092979
0,215892620252395
0,31027270984383
-0,406680161555614
-0,324750904843561
-0,481999392147176
-0,0811818449670365
0,440072698025067
0,175223404856037
-0,453979628139166
-0,373432314430099
0,127421418031408
0,274673833406844
0,227223860438552
-0,280387441991077
0,40810686112759
-0,0726232391654622
-0,127916795493996
-0,267135475188091
0,110196707588712
0,0932146886980691
0,397487672062957
-0,100066283065857
-0,380005306725844
0,372548835205191
0,211337743108965
0,00193087175035652
-0,140299392790087
-0,256506491494948
0,193230537805236
0,398640107128914
-0,456769727337686
-0,340496118078281
0,173416086320493
0,276558502938858
0,0159970868919032
-0,213086672459304
0,42051583757648
-0,200038597779366
-0,181684425418118
0,435772402182115
-0,00679913093652534
0,165195327096244
0,245925511580857
-0,391117552710286
0,346545395369895
0,0540630233260165
0,0619153466829636
-0,00740008478326001
0,472286991561619
-0,182880307027894
-0,0411883887995897
-0,0612874946280463
-0,0340296234531441
-0,195785990549586
0,286557101029168
-0,0712397303236691
0,0532893210531737
-0,160547672792385
-0,0610381185837545
-0,378992590972937
0,246029068253448
-0,0945079278845931
-0,43265595051118
-0,0247091001480395
-0,368387770777749
0,0956396798582932
-0,486354308196508
0,25816190278072
0,0806893750935278
0,109607599959526
-0,09079484669063
0,104061084138254
-0,398667215899352
0,44602909699318
0,374703726472373
-0,361880625156098
0,404024785980783
-0,293153414180943
0,138061929109199
0,251866127734624
0,28907908433007
0,164398411427545
-0,634329254275429
-0,106798012069952
-0,345114238800211
-0,532162738242224
-0,295555309250176
-0,454034972401194
0,43445852085753
-0,29207826593801
0,25143284059662
0,25089117919602
-0,00964375888446523
0,251224254142132
0,0388968594087739
0,294852263664292
-0,12336016661644
-0,145621992419468
0,0942393127582141
0,105157928438089
0,115005153262521
0,39177822672043
-0,306350299725864
0,381782760211468
-0,0973255574548169
0,263842228846906
-0,426609044347456
-0,092595318085157
-0,00295886937407726
0,133221748820256
-0,330860963905071
-0,323969828223123
0,319393652119001
-0,218485731879936
0,431896232007757
-0,0648741422406825
0,438688839701212
-0,427894092708876
0,107143036577236
-0,262313001678471
-0,272313720906299
0,319985628044226
0,175840602105409
-0,0468235307125484
-0,246919090339727
-0,168059942044236
0,287743731105992
-0,320367694876418
-0,0809642126195153
-0,319921974185287
0,0428426264321498
-0,541256332240089
-0,317863885573118
0,371704400216668
-0,117797705303948
-0,58621691802294
-0,210260421306531
-0,298784755949065
0,0784105236540014
-0,0414926389514514
0,144814341739939
0,368598875834931
-0,0412574595971605
0,13466468017688
0,195136587843413
-0,375437699315903
0,330708120112683
-0,0601424453895584
0,163025973207795
0,135395139286013
-0,444735317930922
-0,314493551298274
-0,0841099821118313
-0,485003056142882
-0,184106256251848
0,40712569888816
0,0855265739157769
0,143286661358934
-0,0252069036208259
0,247793831382348
-0,149250173274631
-0,199799768383704
0,226416899868537
-0,39710757850999
-0,0226274907310605
-0,406220572641167
0,450678876424308
0,369431197421142
0,013447948874065
-0,116181479029121
-0,0396157949842548
0,205317661618143
0,0903841274740034
0,128086182272186
-0,0541452868778452
-0,0181515232252468
0,152496899453688
-0,325977125589725
0,424365073407239
-0,421327226300232
0,107203277571379
-0,458146673580541
0,299916427369058
0,205354620903246
0,213144046601669
-0,187192107048735
0,111872271738742
0,129305126142506
-0,268661414097553
-0,335886960961284
0,182403939094744
0,00739495311938361
0,0491458924365043
0,174254447258716
0,386347264766105
-0,190917188723416
0,0679051142462638
0,21865548732227
0,0930303476323729
-0,304502881827445
0,315791473021831
0,544005963015329
-0,155660580995081
-0,171522186823346
-0,138397891234327
-0,0469492350457931
0,457185119836212
-0,199975709412635
0,431961447266403
-0,190515881805068
-0,141152395021237
-0,00700171285394235
-0,0734787191249184
0,425867648688704
0,316533571680622
-0,21724215972007
-0,0723794280292252
-0,581677245027819
-0,234321450199208
-0,122003085060023
0,424879282385523
0,409055403216079
-0,227291986701634
0,487116330521052
0,265949301895309
0,45586117486179
-0,334082201414719
-0,0805245589492883
-0,161032372538364
0,441638231404869
0,305405835946169
0,0885762504626343
0,340880011134259
0,324923674494458
-0,336326708000009
-0,230129055694646
0,259293775091002
-0,412137003084075
-0,214610338368063
-0,141414029692246
-0,505386224407007
0,39518363689724
-0,285342687743268
0,383917887318861
-0,415811157635048
-0,12870033517998
0,0820494759650307
0,367235900742893
0,245053308624716
0,31059234268424
0,264750966889813
-0,433715386253893
-0,0865489040917314
-0,0426861777864693
-0,0156498910197966
0,0529945213090397
0,339927438858331
-0,323207162116666
-0,0363783032705669
0,109280621549079
0,448696800018054
-0,169774086992151
-0,15325495583593
0,349799313844001
0,3883753311623
-0,3815062789241
0,168892950456582
0,136596336528963
-0,368232532113937
-0,156690837941566
-0,404422485000132
0,00861658587118632
0,153637996825858
0,470424982914529
-0,267423050734412
0,359570296058864
0,150007221967329
-0,233784326750579
-0,345936051068419
-0,02664972472913
0,486976095755545
-0,0352984585366512
-0,4718895766102
0,245459472825914
-0,230525913679429
0,411996210459864
0,46246173469896
-0,0537999367959244
-0,326297172264334
-0,0175045521545711
0,26648769889329
0,436293533070454
0,485740541635978
0,287359180834679
-0,390345827173555
-0,016592310606967
-0,283702870190199
0,0622806307451341
-0,217987574592704
0,089865013460317
0,286796547950526
-0,144171116053709
0,389392581789276
-0,181490362606656
0,0524183940184206
0,172094297601011
0,0056607205521097
-0,0241001146870948
-0,475594509988078
0,176612303143136
-0,15482867387524
0,223021801321721
-0,0225466844964869
0,322201718342912
-0,221312097168252
-0,301448582881017
0,103859375512162
-0,143155542036125
-0,0518598000294808
0,325395218460172
0,506130279477358
0,411474367157301
-0,146304389558754
-0,0303619407477387
-0,391372227498492
0,487415703432482
0,110765972271223
-0,225932094164117
0,0894782130724737
-0,0344812692003471
-0,217993483375346
-0,265024081987285
0,0475399392338961
-0,0253112681122759
0,455546222045121
-0,118912400366677
0,255167571722408
-0,402630814493081
-0,108325682037539
-0,215807624633095
0,223782186337354
-0,201829040161428
0,268406174661376
-0,166950764812089
-0,319276405458635
-0,2641726344657
-0,488125326106383
-0,208008605773232
-0,197059531313739
-0,282645848174132
-0,33476109481743
0,0510987068241915
-0,0961703910768969
0,262860457480183
-0,268070961935121
0,112850067542218
0,0039780241573444
0,204916061701867
0,392313678668056
-0,347210947062882
0,237734432594577
0,0140034061123695
0,37460734152667
0,413562818687381
-0,157461850573552
-0,0349887428507884
-0,497946879904655
-0,297616332317221
-0,334209637242474
0,0224694838146543
-0,0870052573905044
-0,439864336123401
-0,430753389385582
0,367535542635031
0,347560420095716
-0,414944862832945
-0,0205338340725662
-0,525763814077525
0,467103010946039
-0,197871523469385
-0,261159300866544
-0,0384611292265271
-0,0665475303014038
-0,183867885028565
0,0604978790304661
0,253149243276063
0,430821443590293
0,112922999529029
-0,315139927281672
-0,262181293383424
-0,155015705230914
0,200521171732709
0,0279658799803001
-0,184739549423545
-0,387542209416646
0,333472642202071
-0,506468033541445
0,418187269005178
0,0426315762779221
-0,25965201005907
0,15158656311977
-0,0682707585246632
0,46884936279098
-0,256409413073848
-0,210485908005586
-0,0414201688726505
-0,106017880682465
-0,356981976892694
-0,294650846076534
-0,564368244664495
-0,10528703086189
-0,590063197922053
0,358750578911749
0,100174559591173
0,601850751908747
-0,155418817475214
-0,21702155784145
0,113869329628235
-0,223106453769181
-0,12082407751266
-0,322216072500903
0,202384292706248
-0,431777244958832
0,200880563118248
-0,245834685351454
0,369309633880633
-0,333719614895641
-0,308819383033146
-0,00554399499711692
0,157731560365172
-0,263957138063366
0,116535654591379
-0,1704485832564
-0,18003223119562
0,266476246166975
0,0954246236575522
-0,259237625646994
0,0529284368324607
-0,384321685992294
0,238911048736321
-0,102855700155012
0,469405182309572
0,131573448996889
-0,301131511649766
0,313141122689465
-0,402674821099961
0,0130443698565171
0,267227667644047
0,282982260828174
0,138898706493934
-0,291481705740574
-0,320783841205764
-0,279696021231617
-0,238912436985736
-0,468567741439298
0,462285832944211
0,0789515983702584
0,153947730853198
0,14210944792354
-0,126141887035955
-0,310554422154645
0,389395715854222
0,215554249053608
0,294210342534152
0,0305169145632198
-0,106419957072446
0,31520139211287
-0,343260288034453
-0,106965227774589
-0,336855980518762
-0,259000794848915
0,171830289081812
-0,250764070461607
0,363285150399442
0,382758587554562
0,12280345028801
0,398982503897556
0,411249962282586
-0,470553519552196
-0,463262213065216
-0,0328666566955247
-0,0747165815218623
-0,297118857762534
0,244339522171261
0,443676475830523
0,449414393375355
0,484157404389306
0,298010920858946
0,464464699648335
-0,144665126217378
-0,169735624792393
0,136422756709194
0,0887136051205718
-0,547812619514702
-0,0110357011336643
-0,244793700818515
-0,693593964488214
0,215279219034398
-0,49597503065611
0,138139051272303
-0,227382766523631
0,321317471907144
0,326027817448796
-0,342890569537364
0,326331786234328
0,286591553191145
0,16401400880945
0,177716291504859
-0,303771472609663
0,315283597960626
-0,468382235083817
-0,307557688980791
-0,399782729798529
-0,176085840759839
0,0306997543809469
-0,244491628855395
-0,147775160650131
0,115451164616494
0,130329597999353
0,43951621591832
0,0958961288605865
0,285987143234895
0,0650188000316972
-0,219471275236231
0,139740669486104
-0,445087318848056
-0,447713438799663
0,119403964717365
-0,456613850524152
0,49586709737783
0,218310943824453
-0,308332891698214
0,250594833175176
0,0998553038740729
0,133858163989006
-0,331246727565404
-0,185265385108543
-0,202580267916148
-0,200687212551182
0,214477013619205
0,0112062266170269
0,0519196901246531
0,327993230814111
0,454827219485301
0,129191405113094
0,466589088326725
-0,181171421499122
0,448465803854139
-0,0338515896168917
-0,589836640666796
-0,268912536366727
0,11391182715341
0,136697471144436
-0,720073009582158
0,132044374060337
0,108279380204468
-0,0377664590667468
-0,278348903147069
-0,0948902924085777
0,358130031306406
-0,265143755865677
-0,330227218086048
-0,13154956205697
-0,32955886777084
-0,414532402356987
0,208748758989694
-0,461532045403407
0,0988214228752673
0,377757889627366
-0,215928746720743
0,217465729321104
0,00951908857529782
-0,279020882808906
-0,0135354494123282
-0,417555788897499
0,0588865293271234
-0,545333004779379
-0,248569041098227
-0,356465131425757
-0,0877959315722024
-0,642096162676876
0,25239865157396
-0,345214604206303
0,23729648221541
-0,169417307361537
0,154365654025821
-0,47960784730784
-0,0628879719326549
-0,197540412579197
-0,114131739182258
0,0222923226444187
0,00488884900785327
0,210443907593377
-0,526195882591187
0,209183403698207
0,491759428320923
0,300423235073883
0,41544639641207
0,0215352072946425
-0,235511421353965
-0,283602575790593
-0,207915687592036
-0,0295032962004594
0,259935080192635
-0,348776509603743
-0,379064776571262
-0,0742346589697633
-0,146506490032238
0,357787262533709
-0,379575317023832
0,215554308626585
-0,330768993603236
0,0748980986951657
0,128660892581389
-0,0740770838882076
0,157342340792975
0,24509136470195
-0,352829804912473
-0,115793877080867
-0,436727189095538
-0,288985196637241
0,412575750866007
0,387464083724363
0,355894567423409
0,076478898793682
0,247980364946639
0,342744297274735
-0,400637244296261
0,315291897482509
0,357445224827675
-0,375522889857901
-0,00294137203113719
-0,431317558975844
-0,0622862962012491
0,0939688077677325
0,217589208946735
-0,379021147851065
-0,0622588253447146
-0,314103340237602
0,274360106394268
0,265600932566604
0,496520834220547
-0,293838153804776
-0,230547529786464
0,40314860083081
0,108223863524381
0,377165743848417
-0,210704141693549
-0,0942192099440632
-0,0794623934350392
-0,129343673879906
0,266461071915208
0,426505519974281
0,15321429383625
0,0561392682400249
-0,446770887797126
0,271899586849714
0,325189135888386
0,371425586067217
-0,42071547214104
0,324053538880782
-0,209378155439963
0,270290761931815
0,200845415629287
0,299965905278586
0,355627219304749
0,395641164658333
-0,186328246765621
0,40861585088188
0,585455646601577
-0,10187831387843
0,649044599737602
0,4053749244319
-0,282307769247252
-0,204640588359812
0,258607321646269
0,235835394231489
0,285815777507806
0,138550005684863
0,327049711638619
0,374616486893323
0,0842494068593949
-0,245722794786898
-0,00648083468269595
0,0161646281197799
-0,353420504258493
-0,238115028983439
-0,0548073269265829
0,32039792399959
0,179776833396894
0,377911656439051
-0,0886476244707696
-0,349220987542344
0,0318674539497026
0,405521401527732
-0,175080228745148
0,103958913411459
-0,268900517418761
0,12578122964039
0,353336261558539
-0,418177224481097
0,347840741535162
-0,404317151226577
0,103364289690085
0,342881594088541
-0,243359409730429
-0,494496201628119
-0,0472954798244384
-0,407658981581991
-0,314850664611371
0,34374077703978
0,0195955850740874
0,403505316347195
-0,0997041355669425
0,388020651208956
-0,444506661594831
-0,529763318345327
-0,272772130045542
-0,38514150116314
-0,353807850090616
0,449837244526873
-0,303221152758431
0,137548970523735
0,0651549711595546
-0,490542156016054
0,380540758867699
-0,265447869820071
-0,316473877003527
-0,106302415779826
0,380892646900705
-0,206391419816329
0,079844551404008
-0,367641467100701
0,0329503088877305
0,0518326850383695
0,181080234088507
-0,0476466666663283
0,175339354516631
0,14406254777874
-0,221563650631143
-0,163361050963104
0,00606716308093969
-0,470578639919081
-0,17548738949036
-0,461278485635502
0,487693569700505
0,168398176868829
-0,462565328589027
-0,500493342003183
-0,225681937880272
0,194814468990032
-0,211371634227085
-0,135680942384083
-0,391015265660891
0,465071941542943
-0,430243685755365
0,117825467846062
0,283293761677711
0,0173111732664104
-0,029627249357117
-0,331053595911271
-0,0913152436685354
-0,383858704885402
-0,352063621325448
0,13924860611523
0,0155120219641887
0,47839240868501
-0,332647429235581
-0,3502302173759
-0,40915379948409
0,180601532422286
0,491767556402724
-0,445011696752632
-0,374174972471863
-0,151212613867229
-0,494160077066235
-0,156581838920983
-0,374419136380041
0,423810740431683
-0,44023397934634
0,0499826285755181
0,13913254562725
0,142314785924887
-0,00726594007912368
0,0525944780337598
-0,0636938971298253
-0,180326975267533
0,0964854730276788
-0,376488640846912
-0,233279023660942
-0,474016739509076
-0,307064454447042
-0,0329214770034521
0,393222463267493
0,137785357720119
-0,348876858525386
0,0875695592665903
0,351271964540366
0,0159277061540297
0,0601646241546444
0,169610664094617
-0,483553374644161
0,411831549327742
-0,0409365808871515
0,118573021655587
-0,268105206437458
0,0275949801252039
-0,281514675173963
0,253981216831344
-0,534845370295352
-0,462159993345896
0,182998654116519
-0,253143460815641
0,377687895742321
0,107760359479225
0,245600165319
-0,0449215814214766
-0,204922973040921
-0,0609691955898745
0,469163770773059
0,258776295817819
0,18463211957581
0,422000821177848
-0,00793881458599999
-0,124901014671149
0,188801246084646
-0,404760559976455
0,22251567464439
0,0787605105800371
-0,32146019061164
-0,381941525210599
0,0122419177766723
0,168890801983397
0,272066881620292
-0,284556814021893
-0,139766784815786
-0,438445140693404
-0,385675731302033
-0,33984721246244
-0,486299020977586
0,29544822835814
0,136916513608287
-0,0497643491171093
-0,253896571826615
0,149976983214148
-0,484374803268521
-0,0673098892752593
0,300281577650589
0,188696078345504
-0,238497234293491
0,424616378231261
-0,298876856825723
0,264373495133768
-0,401294324035428
-0,0599949418380833
-0,465167192628599
0,267154220257417
-0,220481036132904
-0,447299617929571
0,100979076585473
0,169484734707829
0,117673708261946
0,4136124870115
-0,509335038753159
0,203324208515588
-0,0449510374402616
-0,454322132984343
-0,375862695032654
0,143374572768859
0,309114055382876
-0,111689758768474
0,0285643159881568
-0,12356109239487
-0,0107083788851643
0,172233850542565
-0,41762790266314
-0,0819724456323183
-0,136197095567452
0,0551426133863361
0,20331218079818
-0,467454478595152
-0,42267221216782
-0,234238026517412
-0,208309977595555
-0,348303788073284
-0,0443761374404357
-0,271436510581595
-0,240546990368066
-0,244807332375923
0,329775219654018
-0,412965304121474
0,290861473500332
-0,1349831844946
0,207040601541075
-0,27436874878679
-0,445222784128278
-0,123228624974173
0,225081792298748
-0,0984657078846888
0,119688110467488
0,110894591436979
0,338189367534185
-0,483126593481997
-0,267278658117763
0,472857379807559
-0,215931312980098
0,218234257175696
0,367713157025964
0,0895244039510439
0,0870481139457351
-0,160146074758193
0,0972262223735202
0,389169309163567
-0,366073667697852
0,0281080718989951
-0,208270207349034
0,174123665957027
-0,335007501914689
0,367453856139105
-0,391259757126324
-0,40845686468476
0,192914292303276
0,516718224932748
0,478459686885172
0,466444612140594
-0,219562463773509
0,385155545373256
-0,250334891863941
0,0667443164612257
0,0363720993076583
-0,0400426009854306
-0,398270704496099
0,0584589357294417
0,265379475786062
-0,293801474288945
-0,00173454149706964
0,0635552651281843
-0,0830403715574956
-0,198365534736938
-0,4274220774623
0,24484668127719
0,0135809016983997
-0,0855683988892691
-0,0995704175708873
0,193828070169247
0,0100669378267151
-0,302670102701048
0,697208697122547
-0,40830655136357
-0,313421110278329
-0,273802181146981
-0,314517944570748
-0,360738035955961
-0,138214407831425
0,293576901242233
0,497072660524692
-0,275590630644066
0,320483396876203
0,246515928445149
-0,106662510815706
-0,0148851404857195
0,0149646827555097
-0,374230264627482
0,272796254044072
-0,125766515312495
0,162608458105867
-0,348983313369677
-0,236594375316602
0,234594644201513
-0,482342211353051
0,293117901905076
0,168823727718013
0,146377746809702
-0,245816619402753
0,258470766611317
-0,414038755139843
-0,166460989294022
0,346305041657621
0,130546208776938
-0,553494268516034
0,166673791072146
-0,365025799025363
0,461460050475323
0,0769990418880369
0,0585639471740931
0,565671218849015
-0,171243596373501
0,05451650136489
0,390773489426072
-0,0360244622156138
-0,384591177983485
0,0490991233111667
0,39400026476477
-0,237957688876992
-0,137585574859357
-0,420121402394355
0,096945554086302
-0,250252672542811
-0,537640899741457
0,0238155461379257
0,00954016377417354
-0,0591325044517315
0,0400849359773129
-0,0934432892405365
0,181607108833367
-0,373818247859582
-0,422920235930317
-0,40964090529574
-0,557761885909341
0,384466936439165
-0,525749841809168
-0,124672072424072
0,298487156204282
-0,244709923046759
0,0978205853836318
0,269129226538591
-0,273293437330655
-0,288362550916319
-0,296875099227983
-0,0216239063686689
-0,264034111538365
-0,440011993368612
-0,378915040655023
-0,488786364343845
-0,395765321543866
-0,112809199515278
0,147083951051067
0,113883721366528
0,379330271675219
-0,410608606281007
-0,248902039944395
0,243470238149143
-0,464637975375054
-0,619591334777501
-0,351882199095435
0,146263179871941
-0,530605378184799
-0,213444103736247
-0,549074701018327
-0,0801439791483217
-0,337630618960445
-0,321908784869734
0,467212037080329
-0,032120170660515
-0,406681164590028
-0,402972752648859
0,277745956780459
-0,148175454922789
-0,334917709695749
-0,0969423590049521
0,0444452018674903
0,0149468153379203
-0,502076641549557
0,387303268936986
0,770346888980075
-0,0495951916744199
0,684893547444112
0,574093247734908
0,558855663429918
-0,459737351227036
-0,569037591336301
-0,551698836786994
0,114086092665522
0,150435251568412
-0,240109756123518
0,169458027006546
-0,304835036699484
0,112012839784818
0,047135244351435
0,338909528228291
0,511874948020767
0,340217873126387
0,242416274613895
-0,189379474934833
-0,00567432563084846
0,156387365210881
0,0286406934625083
-0,325772749678593
-0,499515121804786
-0,136274743855655
0,0693502726432171
-0,226034935982662
0,0588521286933069
0,28774909693702
0,265179124102114
0,488994019544193
0,432757264955498
0,351235592240549
0,532019436771748
-0,399707463470153
-0,46161950313567
-0,520563578402395
-0,431200717269629
0,403043766463181
-0,122992819326265
0,402606667107254
0,197585439528139
-0,445332786608866
-0,27356623383084
0,212741170819477
0,136988557240455
0,280273281866812
-0,387623029708687
0,457910705614537
-0,0181982257373429
-0,440045271926965
0,518471462620749
0,551202951527765
-0,0942827953860024
-0,313479828164118
-0,404442353320083
-0,421710077279344
0,576142378999573
0,604455950129803
0,273306215552626
0,517928875564356
0,354477095648047
0,212749905183042
0,0595224223621894
-0,120808849194624
-0,0285071249190746
-0,15607224076826
-0,0487487873145624
0,198857613468609
-0,0618920462909025
-0,126455215343793
0,132035129546827
-0,379679597320585
-0,26022994435104
-0,412707439117463
-0,321457807822832
0,0274704301893025
0,060043293895489
0,462815241992851
0,095854180800278
-0,184853479837446
0,495010076673322
-0,03421435247949
-0,177508529447217
0,694386424098107
0,244231101628081
0,0276197736479817
0,705922720573666
-0,172165042983329
-0,020284997469386
0,083672874021768
0,277074818013163
0,313556460029062
-0,222059155767628
-0,319187607208962
0,120045145952905
0,297737820239665
-0,243326620669929
0,130381969322798
-0,0997118545165411
-0,409963522040321
-0,051520503128459
0,134170759298918
-0,457284203710633
0,109281520937019
-0,160492737670753
0,348279706513341
-0,17235683325395
0,122346920383426
-0,0830113471467117
-0,114599147019988
0,0326556770462809
0,69412407612182
0,78909223699485
0,170488884719994
0,0718309264204585
0,43241935786975
-0,212235606249201
0,214471371945763
-0,341164027726963
-0,468167531765153
0,0637718445066952
-0,232306363414068
-0,252770009205721
0,350684237993718
0,0342328068596136
0,149658563961768
-0,109011151926183
-0,139300747273665
-0,262307753421313
0,474664523720119
-0,265920237063393
-0,463365123372796
0,00138866243055692
-0,000238914712466362
0,00387275369965489
0,0590201081529341
-0,32806603239973
-0,376866444986049
0,300088728304276
-0,514833169223603
0,356746796644882
-0,0360538225681277
0,534822504621447
0,391153230150518
0,170653553524075
0,611790467999026
0,089464319297291
-0,211850831611603
-0,378057892748913
-0,722609329091282
-0,157177594180743
-0,269864453250927
0,404472504377664
0,470519029190763
0,468083272214232
0,357211851783976
0,423442697836955
0,0374231429479193
0,288792051742222
-0,0334809071073363
0,184114211866691
-0,574137375262714
0,0127452280556737
-0,389096996878984
0,257517169350102
-0,584786766402635
0,152206107456005
0,637472008506778
0,420196212024199
0,0804037476869769
0,398861461606062
0,176959324846369
-0,141916083598993
0,212655976021107
-0,183627968912774
0,287966598494062
0,00945267525420023
-0,0733406559710892
-0,144903958869806
0,271908512452023
-0,337130726435997
0,428562223129363
0,216736752048131
-0,285732498425436
0,200751397873822
0,132983162362586
-0,491437875661737
-0,0109185538783537
0,0610907307349924
-0,62734569445566
0,0500624244192992
-0,405862108346441
-0,369654976025593
0,00898368594066597
0,502116224318555
0,357078766371368
0,504918308478019
0,0971192676185508
0,368548392319728
-0,172086841065661
-0,15399641684553
0,528489185675436
-0,181078641332972
-0,0258949674113749
-0,0054721825498973
-0,0845976335944657
-0,0653846858112411
0,146068868323016
-0,0228129325071235
-0,153388060077459
-0,505272627477489
-0,451846879859425
0,302501546381472
-0,134710662362497
0,390649386165035
-0,506085122013091
0,348154199428096
-0,545876153202348
0,142834451347069
-0,594422896145715
-0,200622263388491
0,131884014780621
0,380837572145375
-0,300415070787168
-0,0614097519159361
-0,212866856585117
0,265203582508352
0,169994911803704
-0,222541910972305
-0,0990897590957513
-0,175672916749641
0,109042223260972
0,136786440713349
-0,387136051409362
-0,610149360772765
-0,43760313738949
-0,376994953313585
0,0031080720289142
0,486038588298857
-0,377682493222533
0,279946445173756
-0,244511809081078
-0,11191305639777
0,292744674745112
-0,315274655052945
-0,147208440493757
0,424867170599656
0,00757428575290168
-0,325878700873931
0,355715283712835
0,3768368210008
-0,166092173291516
-0,092785881780996
0,106984658423719
0,177073410142306
0,211149313325767
0,0945395680249308
-0,486431439726493
-0,761408413351179
-0,312651202168981
-0,354777516621308
0,274153960562618
-0,0976481481112357
-0,0795754392440872
-0,449889057246562
-0,0416778422409211
0,0145738908276773
0,350347814800577
-0,0417904569745848
0,409889799035103
-0,0676953026874434
-0,324354942811152
-0,472661989332932
0,209835927129331
0,287796837069175
0,219865294056892
-0,0807807965575
0,10204995174595
-0,301485472976204
-0,105606396515388
0,12238293985789
-0,703975114204622
-0,379827983721322
0,478210118235371
-0,311243068090361
-0,0525627367513854
0,00545064602259288
0,219000454008351
-0,315852057132721
0,339663131715196
-0,0772298048561163
0,299928062928826
-0,146938885964284
0,373459507062222
-0,209213810884165
0,366081266600665
-0,247825960045599
0,233625514774409
-0,1876583540289
0,286949181856291
0,132297101396694
-0,501250541623016
0,0130936016261348
-0,0253900474760791
0,122560383710033
0,0699649445839041
-0,0940951006513058
-0,529102374132783
0,360344999587064
-0,187503542858139
-0,295749008363418
0,573431064278082
-0,733134595039763
-0,591321840476002
-0,409037752714837
-0,222545914158395
-0,0558180253624727
0,0355250281544218
-0,171034333615347
-0,240513565325942
-0,266354269028115
-0,505398116807542
0,0532420775437959
-0,417023098721022
-0,333253127445119
0,378252738564393
0,371090604397976
0,162595977813977
0,509167700296832
-0,32192773910715
0,103697333731316
-0,378395804604201
0,314516092036501
-0,220262861855263
-0,0648790193555104
-0,359846749631732
-0,431984382599225
-0,295109838260031
-0,388984289278156
-0,283732294941738
-0,223438565904635
0,0728627144459634
-0,121399270875851
-0,539597366758629
-0,390896254208923
-0,125798487596891
-0,21774640362527
0,233179156568926
-0,0214113537847432
0,320281613130224
0,0378871571905264
-0,402930043127832
-0,221323419232538
0,0140394482361337
0,1400266669877
-0,452092471944685
-0,0956773575996404
-0,224428977858582
-0,393411514648773
-0,340233100236597
-0,28554244067952
-0,124386054509957
-0,406298947882948
-0,480704148318206
0,321864228154269
0,326484267583898
-0,157754568805984
0,10233667283895
0,041878095704913
0,133275562055485
-0,229761860074859
0,224144492784016
-0,211676314655184
-0,205311739898279
-0,359677761034762
-0,347245915199679
0,079721771249373
0,371183091491261
-0,34377256820154
-0,370886097136366
-0,0606140999871372
0,0390125436424336
0,266081916990728
-0,452837489057722
-0,172415277937612
-0,294072217321896
-0,582439597717661
-0,00111782784606726
0,318886436185075
0,12856184248635
-0,175005851147141
0,0099029028790569
0,225439419489993
0,450553256195862
-0,30617957764079
-0,432373644916531
-0,214640787007791
-0,539823086435962
-0,237671350997021
-0,284060282754525
-0,454556581576123
-0,448542600242266
0,294985484696321
-0,362321262527698
0,114734056494937
0,384148674262824
-0,34806714525822
-0,102295971756008
0,359259077282277
-0,0471260606065048
-0,28852314445587
0,393976303233754
0,446265725045323
-0,298104712930507
-0,0241822896122519
0,175701266194726
-0,496467141627761
-0,59380445092683
-0,420982225269511
-0,372451661032379
-0,452034338993744
0,0648684269333336
-0,144144589108574
-0,552390097740906
-0,559727286519053
-0,426409150313559
-0,484908546213081
-0,503084566877371
-0,208551755843955
-0,036733486121229
-0,517221201785987
0,127221807071205
0,169640877718962
0,362356980579868
0,130326796150918
-0,0232373087309475
-0,389526226040687
0,348532845661292
-0,229993229606186
0,336593064869099
0,0132979851818439
-0,479063978591431
0,108906744497484
-0,122562670354873
0,258470501752055
0,0621822483897735
-0,270400317640437
-0,0620263962035476
-0,121355024896619
-0,301472418207686
-0,356932525440648
-0,0900240425109698
-0,04725101848058
0,403551525219933
0,040494751788342
-0,531904747506742
0,102020856380274
0,213683046118401
0,372388321915199
0,023731515455835
0,301830923958571
-0,0875660123245632
0,116709357414725
-0,455525650622102
-0,201367047476287
0,417119225448519
-0,37095744203355
-0,19911082773428
0,445866190337514
0,205717146259601
-0,303476839543596
0,0502893035803123
-0,0735888686635733
-0,307402131024979
0,206765738109508
0,113616183460363
0,0763128815246699
0,129469465985402
-0,424723319501599
0,328415596276022
0,435036552832325
-0,0472089722113706
-0,260568221617718
-0,100196864095694
-0,426252198487261
-0,105439977070987
-0,38074867421796
-0,0186490037099686
0,433267768441359
-0,416697493249875
0,37270318803969
-0,350612897821987
-0,112816358270504
-0,21022979342855
-0,400968609797288
-0,34034801034273
-0,295334826593909
0,128903386475939
0,398120330599193
0,0262515463522875
-0,176496505586662
-0,341484346353209
-0,308288535013929
0,426441285724957
-0,150113361259044
0,00775196194078398
-0,447206796122345
-0,0217712901168369
-0,343692164329669
-0,474111482488975
0,087331411702247
0,442087526871863
0,438699569990253
0,329752230471816
0,487795119633803
-0,218690603840486
-0,326403409161793
0,271062671100284
-0,144472189547714
0,167340573234177
0,199177864798893
0,36140889481707
-0,413903927390419
0,405223039866063
-0,271233713613466
-0,287642462080178
-0,0534964686043078
-0,230127286040283
0,100204754434621
-0,0396007227430124
0,13030503486763
0,442017620341605
-0,193864211823984
-0,222496324555248
0,383364154453093
-0,15241939858009
-0,335766346928295
-0,0437425434816949
0,00798750084841984
-0,176164350586271
-0,295619042871754
-0,489991764920497
0,0839442954177539
-0,381287767507062
-0,445985095084638
0,19047331050526
0,137529486621511
0,331804732248096
-0,486983320669729
-0,217683784532213
-0,0239885340090787
-0,382456488852602
-0,00148206274094154
0,416581628339636
0,078082862113641
-0,363467848330488
-0,122180960430848
-0,326709461317728
-0,347494075469437
-0,410775000620099
-0,35879466346481
-0,164052116157664
-0,342107627030875
0,345197501808395
0,449865613460481
-0,444108821940208
0,0789792845490785
-0,142558676900518
0,458786185202588
0,373858257922243
0,00361525889450909
0,322696011207686
-0,342682874541047
0,355173543623381
-0,030883881510647
0,108681134231706
-0,416748713197535
-0,116348535109474
0,299474126100295
-0,386265599115875
0,407693100118867
-0,139848240483482
-0,023873392270819
0,0380515415559156
-0,522183421664991
0,015052871527959
-0,0285378153583069
0,352522006785018
0,250345410300349
0,0078197018987281
-0,413048058568269
0,393500569564755
-0,349469351155212
-0,00806476780240431
-0,488701286579834
-0,0849937650853133
-0,00195018834008831
-0,434124981977663
0,00162910866689083
-0,168198777932861
0,132860211643584
-0,258214454642902
-0,16102768045898
0,386319806280695
-0,301885051094873
-0,348402401827463
-0,386897006019436
0,108400847580471
0,451335223368991
-0,257215053250829
0,445697996320791
-0,266203149761734
0,130008060519055
0,143956455085672
0,214602746414548
-0,43758685501683
-0,071012696455561
0,428795258961694
-0,151850097624845
0,24280485078264
-0,31797543744323
0,256590453527029
0,136794634742649
0,257124403734069
-0,141433150748201
0,0901590180250375
-0,178772968309218
-0,324651434288924
0,132751247175008
-0,222796574729225
-0,344943553063685
0,271061088317568
-0,347209896821161
0,403221704486395
0,182745584604678
-0,361076906724403
0,166506712866643
-0,414449147873814
0,332799608093247
-0,135726116803594
-0,0777180574654067
-0,178188796328368
-0,294745310289132
0,383455902963459
0,157957961995047
-0,152126021721611
0,378664243355898
0,464706466504809
-0,536546275619472
0,41988440025195
0,282568348525129
0,471192330884141
0,432359091522189
0,350052198402678
0,211093294750069
0,304988411292329
0,362292040815041
-0,222807725650396
0,353189816887331
0,37812169926808
0,396137707352702
0,383400086724851
-0,183484053557498
-0,328608247837335
-0,109894017148516
-0,0440050363548228
-0,227903317446575
-0,502433285044492
-0,162431863475911
0,151769470600571
-0,104644452154163
0,0862955543676254
0,478856242019242
0,148155451501087
0,132444700731941
-0,0839216061266575
-0,00509385474385785
-0,0757034503254868
0,328470380356096
0,228127270394607
0,278548994220895
-0,161388411754206
-0,0388910923628806
-0,170359415880067
-0,422632762562885
0,448270264580079
0,119361022730748
-0,344736532250754
0,202734611319258
0,00589403300820568
0,284124416198639
-0,159767221181044
0,295487188312166
0,452049390180708
0,124321017487515
-0,265019790408307
0,127209215068639
0,00325689177176787
-0,141421366756225
-0,302616254547177
0,452203491648878
0,0188399430954759
0,465966931010816
0,118689057619925
0,545218103718642
0,506158518046607
0,653359785632078
0,658093313150818
0,630081864531335
0,71775384328416
-0,19258393878451
-0,289397345091411
0,361222129094149
-0,26731315791805
-0,203945676114517
-0,0383439737825987
0,240537368100856
0,1883096162641
0,278090659425636
0,211196998513449
-0,0921343900366124
-0,355972560173116
-0,375621739854029
0,426403536710304
0,0462738634756805
0,0148116089340832
0,232833378322647
0,23870602411974
0,30725957187373
0,425126231852847
0,0165337962621702
-0,141145494378111
0,434557162899997
-0,00773803876663789
0,108123891220422
-0,0352788057840051
0,673836115849958
0,437118810039893
-0,0195610328188864
0,492460218160604
0,470019599699628
0,14330973903785
-0,459771852557343
0,234981394943655
-0,0359723733439913
-0,481564501757531
0,212814472764604
0,19283271709976
-0,25646831796213
-0,104636086861706
-0,219659304959909
0,410332685028905
-0,245906464874395
0,260431821020137
-0,140473946153527
-0,232821797378137
0,25166633638119
-0,19929172227383
0,0864402869122044
0,563173838998833
-0,183526920774181
0,235613272735002
0,394576457370053
0,567082920495799
0,384163175700675
-0,215239138154341
-0,295564011381408
-0,127789147627315
0,543920207227799
0,174798689332553
-0,312997362440046
0,224722733883437
-0,324686007492564
0,466527618917882
0,380366988706999
-0,0155126536843726
0,0574736524626281
-0,0789047836963173
-0,249223393418678
-0,031004666885068
-0,0622817182276653
-0,415581393724038
-0,587051474259477
-0,430730538184795
0,349543493708686
0,303237570891949
0,146190366341567
-0,136064965559952
0,293153017428621
-0,11106920935578
0,285716152818319
0,305828694083959
0,0792594694380812
0,538664563398199
-0,0728983212451948
0,36174129622617
-0,0644258294618799
-0,33264556285949
-0,221646184692993
0,0747961522048084
-0,223125344944711
0,258436196836846
0,342285257690719
0,23755600699844
0,51681188206327
-0,256040879707173
-0,166875531608423
0,133933375684454
0,123502595427215
0,216667426837528
-0,581797409531413
-0,200465493510819
0,315981116204663
-0,104568644881971
0,367348628288434
-0,115899483684847
0,101935248316363
-0,399173176458369
0,278756233270907
-0,511983759170205
-0,368777154808855
0,187613909536189
0,0595282506981017
0,356503671017636
0,120223061577695
0,393126715392103
-0,341219296002518
-0,404991020206652
0,181908446681643
-0,0476421562710973
0,478126863473154
-0,341570928107381
-0,366481924609887
-0,472254507142421
-0,476078020328355
-0,166627852996596
-0,331076782315568
-0,413587271830014
-0,0844848954070371
-0,478786829415273
-0,533059654916216
0,252724274064039
0,343331350251406
-0,271102944714426
-0,253323544906752
-0,24545749645708
0,0915965881821523
-0,269384882566028
0,160326495199754
-0,324025041314438
-0,495397306160074
0,343595360937887
-0,12168937159292
0,51529991451461
0,0629952729750699
0,36727603802017
0,103530758327196
-0,101464715600696
-0,0718855888451848
0,335264757262748
0,333050769834547
0,315596815462132
-0,0861955089644968
0,247419099680115
-0,0533118762873994
-0,394201926779784
-0,0260575876441138
-0,0301340489469463
-0,521560061589435
-0,313057234477872
0,139734353316591
0,0526864101525538
0,274943116257542
-0,279661481442279
0,148528219181244
-0,502091466380891
0,285217654501328
0,301661689838384
-0,0250131210046966
-0,51266108666019
-0,193421019657608
-0,317470502017923
0,201555983045112
0,427607921244639
-0,267195507789976
0,400447738310531
-0,499768229666989
0,116726508596527
0,361719640099781
0,368885534923741
-0,00926305842935979
-0,448612900672951
-0,0497463906083757
-0,0733831188267595
-0,18335716995559
-0,405722960580497
0,183342416212633
-0,302621129778101
0,389642562678397
0,148536551157827
0,196545023192102
-0,460742875617279
-0,40463537916277
0,398629541484746
0,373834747668467
0,0385206455544223
-0,342743722485104
-0,364277376337459
-0,266266204464734
0,178662950236916
-0,371341326370438
-0,351232491412748
-0,216866817673531
-0,495825637595647
0,294150850639749
-0,48846207455125
0,257042809536874
0,294380953762034
0,190223553066045
-0,388351924327882
-0,38163797641647
-0,471995383409409
-0,297718043850612
-0,121223467432594
-0,0757997826552424
0,0226147710464505
0,44778162641676
0,0366295679564323
0,0739187262681229
-0,000716184884289251
-0,385879282981098
-0,302519620368605
0,0825231548315845
0,161438105312012
0,161220912193236
0,236350969673267
-0,0126056927463539
0,0027754514926613
0,385867284338279
0,298498916819725
-0,312319693548211
0,248578774160044
0,0391791316397391
-0,0231179195217556
0,199298756162537
0,224217043355502
-0,31435035125909
-0,214607545774033
-0,272317713502909
0,169722443744159
-0,350122212250272
-0,128529434014031
0,304751009261997
-0,0482872098658189
-0,24245688490772
0,339073320288867
0,0507553810926663
-0,32969761399564
-0,375840629025894
-0,40011771281734
0,0260464743397617
-0,0166302210863918
-0,0878989974899887
-0,294076390480314
-0,297259033768029
-0,358304898525927
-0,437491881406162
-0,135550559842724
-0,276881135444956
0,0153124567658233
0,492696421217498
0,491243159089453
0,355786564533082
-0,352610861346825
0,40280992330609
-0,220806890846213
-0,357701795507661
-0,167811168440818
-0,457272185101835
-0,29077961230875
0,121907742310997
-0,459330468920538
0,291560515353462
-0,0583498582833645
-0,0750304696876387
0,171882307451636
-0,0370483528759545
0,401376701896166
0,115338228895357
0,540345821928796
-0,164339122535205
0,134872495529431
-0,268295451078037
0,224727479661145
0,137949058564316
0,0398783253858881
0,478770157763704
0,0132298080777888
-0,380389840286407
0,0746108952678629
-0,466652082529759
-0,411148585762542
0,157492909536556
0,516454412420535
0,301740976840442
-0,583177772533217
-0,346300343366932
-0,136769382855072
-0,254343939207569
-0,0352451839999425
-0,28090997965862
-0,0834887071661997
0,2533834282981
-0,074844029335972
0,0849831820839157
0,396458579032583
-0,117563405883802
-0,188006400043912
0,526994183286907
0,0847512800296064
0,063232309609582
-0,150778431440985
0,346963481288697
0,0133144885685652
-0,189546435475528
0,264946599847147
0,165076687310392
-0,406412122370912
-0,152334711237151
0,534635659631196
0,561976577074627
0,400221983220631
-0,462169388709539
0,0947584151296886
-0,292703089323453
0,459003975270231
0,196278306413243
-0,46693106243324
-0,0465321051518686
0,384957636525801
0,260538596870975
0,0366223983371674
0,256205471124904
0,361857508726275
-0,0696840472871193
0,156934144661518
0,276366877777838
0,334990521748191
0,26004478351678
0,388868748697583
0,274197371406881
0,264282043899152
0,306386607128918
0,212848428503074
-0,187237026489916
-0,326681068816403
-0,168946646293628
0,120735327822841
-0,127420149581127
-0,167418175679949
-0,198701334903351
0,676336322576835
0,451468600054037
0,237589490152514
0,139121458464589
-0,0525820559262489
0,48460385121735
-0,328978223875862
-0,0300574400483874
-0,0462933885248539
0,0301307723331049
-0,338379370617101
0,265548426074901
-0,30778893453943
-0,372482186125314
0,0988031316386095
-0,528987859610403
-0,0447054555387874
-0,288247458320231
-0,430699371903256
0,0340046843206532
-0,0481397549380268
-0,412843934219724
0,136920027691636
-0,149432701028101
-0,215740278516094
-0,0250194548704861
-0,367334474320158
0,201371746530144
0,318862206045547
0,348327010326621
0,107216010479066
-0,0742322962895532
-0,398079486648846
0,398484845462633
-0,149327537376325
-0,421893934920891
-0,390765615424717
-0,251248874575052
0,0144224098075394
-0,059692196822881
-0,054682341037593
0,377474995540156
0,411453962227743
-0,053690602062206
0,328604570056912
0,340124825829677
0,412032580977157
0,110081691579
-0,259114182442014
-0,109203060441279
-0,320049638005406
-0,155671696755204
-0,373332043069134
0,0078356457818575
-0,066502565711749
0,1580329859667
0,63796791182323
-0,273596207114099
-0,403269041789283
-0,00823808761484135
-0,125024586344285
-0,505358243011198
0,319133362141975
-0,0136914019508846
0,0601243612596617
-0,440951421324105
-0,12653350229783
0,00598750803837534
-0,421967424128439
-0,0497582279913743
0,211125245357823
0,159348822280283
-0,346499589640182
0,188733148506526
-0,0382286878179955
-0,14800320037082
-0,436695535172101
0,179908310845452
-0,0230654259402234
0,346018022380596
-0,35636987773337
-0,161880663349659
0,502269514507478
0,51397257708932
0,398674739790655
0,333764018102821
0,111526791068158
0,111161036808464
-0,272386727813041
0,0674449279975713
-0,0387450280554277
0,44305905963478
0,00515174306716801
0,0553345893254453
-0,11047615377413
0,565746716301368
-0,159756098461096
-0,471869283072922
0,44911816385521
-0,372720306693603
-0,454803233256564
0,128092416854618
0,388250634022174
-0,333666913133891
-0,0308609556084782
0,0159667183253759
-0,079498999090632
0,178148598568649
0,388286838758409
-0,342067472948199
0,0634876905337824
0,0185021148316224
0,1497698881467
-0,18048017179504
0,284058830784296
0,625731831967444
-0,242784655326993
-0,317192704431547
0,0597530066231868
-0,149087408855682
-0,210391593664257
0,0840511457143279
-0,29049178629872
0,13961282216148
0,473980409152273
-0,380112723684505
0,26986144935073
-0,0910005463075538
0,0225141019468234
-0,204705490593196
-0,017841221540161
-0,437990721751931
-0,129998871418647
-0,225579349661981
0,332643802199812
0,252437896045269
0,39569431282188
0,0855807909435513
0,425180252638584
0,101451594401943
-0,198144471096597
-0,265743732524532
0,578968665050064
0,679353886735254
0,402815644128879
0,0984087724721221
0,0729167166252658
0,319632028486958
0,313307496969521
0,34144344510774
0,220661348944693
-0,339115107543024
-0,00975048066811187
0,216477828260343
-0,241377164524585
0,0387743208717914
0,11632412535616
-0,0324376325739723
0,210508316154828
0,0752010939527308
-0,332977794032999
0,314589065878926
0,124612688377785
-0,338083919871164
-0,0295273525371523
0,0626724423313254
-0,145769563449648
0,0613160009234087
-0,189087343001942
0,213439371576714
-0,296732278242677
0,0868806232493661
0,394778833722791
0,433837304311802
0,0882238989062464
0,0621075025005223
0,12542829693796
0,470085812482719
-0,128540623284085
-0,147229177554935
-0,0866580595197252
-0,153532701857039
-0,031191406377849
-0,182411676880798
-0,410000618505292
-0,255013817341539
-0,143000267745461
-0,471811948796647
0,0792992047869131
0,0132886667332094
-0,413760616403893
-0,086569910676484
0,250052829622316
0,241181595328836
0,200587219506363
-0,402923508772578
0,330846111712604
0,335546173691205
-0,111469013352906
-0,34527593334195
0,289110203020665
-0,40002386964831
-0,0141881412011248
0,278342430818686
-0,288214521601281
0,267174376028993
0,0580727031247994
-0,134176048344433
-0,329006465072281
0,125514371146222
0,14263673994813
0,166951489479724
-0,0875956861244495
-0,00765981315991832
-0,363936824195058
-0,161438408150076
-0,0366976873654396
-0,272453235356348
-0,270726532568562
-0,32842193442789
-0,137206236197244
-0,365678875644542
-0,154542854360558
-0,3694373247537
0,0820684365844673
-0,282997658840845
0,421966060494057
-0,0930686400239675
-0,0492529708655798
0,398618744639037
0,131130294702542
-0,147352322771844
0,11488190042548
-0,240218191286651
0,145413220694947
-0,350524035212828
-0,023127432690527
-0,253008413479202
0,488170187449162
0,0649749085144024
0,266730561743831
0,237355339684223
0,161712339456059
0,19549861303321
0,397765913464951
-0,0558657811749101
0,0650159966037683
0,0623474025923514
-0,451325715496822
0,391799010751675
0,184943421597101
0,270089242500295
0,248810928663617
-0,0978897766200312
-0,535420084421423
0,219046320136954
-0,0835040614863411
0,184504137878059
-0,36792267859017
0,313059869626111
-0,512433659204086
-0,232321042690673
-0,0606168333746439
-0,391371268574171
-0,471162355852182
0,371675313961282
0,238622020293373
-0,204285991240426
-0,344808352107559
0,259011637307243
0,38939286437323
-0,491577915377718
-0,323364079847636
0,329682695600056
-0,199470645142473
0,121325779529906
-0,413897047710557
0,246267715816511
-0,134728383102793
-0,129636876112612
-0,420114530678892
0,289292314457378
-0,402939688100562
-0,108064414904223
0,48808163080209
-0,323417161020366
-0,0136669147824129
-0,308016983813394
-0,267828971512
0,28849111794324
0,187771104866394
-0,410571406643056
-0,09985264848266
-0,0875147611674897
-0,0828398684166785
0,322854498939985
0,329053643100991
0,128354408605189
-0,0780122361974848
-0,0656072458092157
0,143698216715687
0,277594433993844
0,242922904781496
0,420019302945593
0,005258825377216
-0,0920507216789064
-0,476846028775499
-0,214086716501513
-0,342482312931586
-0,507249287791598
-0,149131255826336
-0,5981438502418
0,0976569762228639
0,430320040380823
-0,189384494584901
-0,335705663823488
-0,00504895084391767
0,0846281092365925
-0,596984320381978
-0,0673944380130664
-0,804007379182361
0,0397283719814605
-0,349035020653095
0,190826535362289
0,154835531126111
0,104458928389688
0,0851952347835504
-0,471535437727131
-0,23137558052846
-0,389989459835919
0,340926628020092
-0,3322603822836
0,106641933728954
-0,481440010756405
0,159077908639856
-0,239352542788872
0,379631518307847
-0,22141261841444
0,297350308228822
0,00882438510711406
0,228762290351997
-0,0694673586675603
-0,000345714712939026
-0,132500664223884
0,119461253111229
0,133832489264174
-0,310773855361284
-0,00542852075145594
0,183273026273012
-0,359157802191555
-0,232646091400079
-0,187273689366582
0,26831983129359
0,524604662184577
0,226207717194319
-0,0791751377187553
-0,47334078372146
-0,385082501398904
0,222993063611441
0,00691750164503108
0,038301513747778
0,337084714288909
0,200151534016471
-0,210325415251076
0,485741906224396
0,532882762048569
0,195513485354608
0,450473509372208
-0,274597696749338
0,141263063886448
0,166015171508969
-0,125756861480786
-0,101524868812549
-0,295883203116434
0,352799820927517
-0,378523618838383
-0,0614097721369092
-0,501426543588225
0,304365148271311
0,342530956860037
0,133490007586284
-0,024722020532932
-0,371392174369606
0,289844785253445
0,127612581303163
0,373454426356337
0,101714240201616
0,157119492189507
-0,102647238849184
-0,498879220799151
0,221250499655408
-0,447307390660041
0,373681900599236
-0,234697810350521
0,169789049291996
0,0507193369551307
0,414995263415423
-0,201593234525011
0,109798324899988
0,124005732047682
0,527272004047947
0,384941546402983
-0,193776073096642
0,414126638551938
-0,160515840020537
0,443852671516804
0,640083380099577
0,187416007975476
0,266662728267617
-0,125955956170332
0,30600261580613
0,159589766242204
-0,298594548273177
-0,281016075881671
0,12012138669229
-0,330719817533119
-0,305390134971299
-0,222834992240062
-0,0275498321456522
0,522900012800217
0,622078024827719
-0,217680088789914
-0,0791707673040767
-0,0124367540314998
-0,12677426500193
-0,323056383238634
-0,0155152223789984
0,463711677161387
0,201973977323571
0,167823638834349
0,157497252181746
0,677467357198559
0,212917240478435
0,353070095881405
0,487871977019286
0,0250244267188159
0,253563471048503
0,170581275654123
0,206237135267068
-0,409914697602498
-0,156293233230847
0,205548965235031
-0,108072553735849
0,406680765657203
-0,281654995752748
0,0754942987064569
-0,0404751019176467
0,667308516485603
0,278852523183805
0,128002537649478
-0,146712484086781
-0,28372367007873
0,552272453087605
0,00370715674863624
-0,154455832880641
0,0955794549630688
-0,0583195316112491
0,268525756027516
0,48348393800522
0,0525227425032243
0,607339360647204
-0,0942491825654428
0,00935888620547884
0,176456748398231
0,0662290151896577
0,25319175304571
0,106295385432954
-0,113028414832907
0,176915716695094
0,140845448482611
0,0940686744460723
-0,440437417759342
0,202749693340711
0,383571844148407
-0,131628726239517
-0,0447402740428812
0,53459117150512
-0,223997635825629
0,0574090096993641
0,101763366042256
0,697160927147843
0,527246398158552
-0,205386563166406
0,259331702274766
0,563539611999285
0,587750456488739
0,345907130849137
0,00671095593669317
0,641499481327786
0,222558567142659
0,378712600088927
0,505034702017932
-0,418387476183395
0,275267959326156
-0,117331346736594
-0,493242975321246
-0,121244266918508
-0,197614152369474
0,17357011193634
-0,427308263989881
0,239376105034816
0,175878302304121
0,320731581493857
0,268082394333449
-0,231892911382804
0,144088533009058
0,337856937278922
0,219450863913397
-0,150856146234123
0,273938054218544
0,0581199514649655
0,256263349372915
0,198707025781428
0,7420609316292
0,366836656813581
-0,119004485916552
-0,147877690632533
0,417881755092953
-0,0832001712683679
0,20469735474256
-0,0462317168869266
0,0277944080186798
-0,00203055672196479
-0,213068739843121
-0,135362508536951
-0,427473892889672
0,0364625219657975
-0,104802407897322
-0,10125053863094
-0,0682478813342899
0,455572296541246
0,225419520620768
0,223166461549373
0,160397988304505
0,115009655820837
0,242850325966222
0,273673398927541
0,00763608384656428
-0,544977975864187
-0,204452721759571
0,140918406329828
0,776240142386633
0,498657939424376
-0,04547038944817
0,141525099075644
0,168051838726342
-0,00878759006107895
0,0225614724656131
-0,0536850084194956
0,253541285190736
-0,552600920679989
-0,418493215888037
-0,465868459067246
-0,195014790955472
-0,512615261801633
0,278271256408196
0,116513628177249
-0,0547597251040527
0,204370208431829
0,460501188311432
0,337844733345308
0,09480626935469
0,605983563668328
0,500872854725656
0,223098605186003
-0,602786509880441
-0,274883231893997
-0,716834677231733
-0,261201720598499
-0,387935118378711
0,247767007581435
0,222193143031799
0,282713060549247
-0,488320514262435
-0,483128886014314
-0,36849820046171
0,278207408464648
-0,21370778132748
-0,0117444677067103
0,190219659930177
0,301449317858298
0,0992350092154159
0,300580639386689
-0,355048822004228
0,0843200381735265
0,217096557146044
0,25400152627092
0,142791067524853
-0,151523884076319
0,32668185315969
0,0875134102429321
0,0116324168183236
-0,144394611472647
-0,787275903325149
0,0691787365562957
0,348269214047845
0,225621981847065
0,0213291732975453
0,439098439677783
0,520240908211471
-0,6202828140414
0,0910310312371044
-0,356853479979189
-0,74894615140683
-0,548158014672825
0,0287951053907165
-0,211145083141822
0,316801767030153
0,0936617779515971
0,483897011719596
-0,321916614700047
-0,496598277637923
-0,458326797754828
0,1873704374584
-0,216837031162332
-0,0407819158653444
-0,161154859150682
-0,555861575026807
-0,0604222588669004
0,233110433937712
0,368126816709855
-0,101791882265407
-0,76371275458497
-0,392368811877728
0,00281516947470785
-0,0491990909382375
0,206533307994035
0,306376016614361
0,193964800394688
-0,175417989694251
-0,404571277819835
-0,309181951169146
-0,329955088878486
0,285037027069264
-0,210111487748749
-0,0555969141505853
0,0503240579507891
-0,00989857712290182
0,37369493782907
0,199410568528158
0,269199773592373
-0,248542286099861
-0,18827634913136
-0,00181249222829628
-0,306665150008918
0,0250894153701933
-0,0799947418931281
-0,152156932303145
-0,0469616057631156
0,129573570328672
-0,736935241957826
-0,701112414098566
0,0567342325069649
-0,205221106441621
0,14539853456129
-0,0948356534558978
-0,550986182476559
0,220748725533232
-0,492434126281559
0,041465228883097
0,327417031928625
-0,373556486586492
-0,0246533201897783
0,00866116538951932
-0,154354958168396
0,36052270879062
-0,0273148219279945
-0,109216835135346
0,0885179662598718
-0,310793020902342
0,0373508502020356
-0,482830474071239
-0,462179458184631
-0,0185225516523087
0,382288311840145
-0,151871505824673
-0,0189177346171863
-0,327240189175356
-0,227931626292952
-0,270700982412062
0,535279572918367
0,46008551224419
0,292438264117435
-0,0926719696816858
-0,801408272224294
-0,518570115688492
-0,189592622707915
-0,106434465317945
0,645538324941761
-0,46562945370299
-0,252080501168668
0,482837675381822
0,346023604667757
-0,484738759689377
0,455526000179413
-0,116902243559658
0,0163974515008639
-0,108345150454127
0,462457436359819
-0,409105479676859
0,191784669007565
-0,479865421264999
-0,143226210517349
0,420850694554566
-0,483727992744906
-0,449298156288252
-0,233996922806157
-0,143042162636067
0,256632630348955
0,268084933404198
-0,361311051347629
-0,103599986819535
0,109133702095012
0,0506117942616001
0,17144527388183
-0,20190564905565
0,332741371676081
0,240904089466868
0,374948356114505
-0,243365068084285
0,255241752953847
-0,154319807726107
0,204628397518899
-0,425045136855464
0,258421852772295
-0,337909900474334
0,220334529082094
0,279315412738906
-0,305712774204826
0,0763896219819293
-0,488600697298152
-0,253919073714193
-0,283737377190469
-0,00318830424864912
0,0806168231654596
-0,479731460825371
0,214848228963159
0,0454065549579225
-0,445908486958283
-0,370388679838294
-0,539072532839637
0,246961255201558
0,283366571951118
0,161736782475989
-0,575949960263494
-0,210559557893052
0,365224862658969
-0,144718175803666
0,368056093281161
0,189269110415722
0,188612210101755
-0,220026162155617
-0,400654117188822
0,382104212092374
0,14232582966537
0,165987001717785
0,023035353828972
-0,367230047185262
-0,140667812815058
-0,134301383194154
-0,428356901407574
0,194164467134745
0,324021309538292
-0,0256065439101909
-0,25638402833139
-0,106387495727486
-0,129864966479522
-0,218201249245696
0,114586853319333
-0,0644237321608471
-0,225718794566997
-0,177653180475509
0,189392801624077
-0,0484733481322217
-0,142221662264441
-0,0700703947954419
0,427846966277737
-0,0977960944165457
0,0875567584150611
0,296059422341972
0,311026306953735
-0,349380213796692
0,464547464261309
-0,206027382193789
-0,364046794324395
0,0563495937364339
-0,212753876145942
-0,222523903063824
-0,208189667687081
-0,289679562212976
0,0559032111580021
0,566914159250018
-0,421357848094435
0,0942825342762311
0,384588557051187
0,499939522029241
0,0327744843219167
0,21150016458632
-0,328995389003634
-0,406025747683313
-0,468746296849571
0,310346341427824
-0,386951556570783
0,0985110083587984
0,280299566118186
-0,0989861216391372
0,373740484743143
0,0665780154160414
0,180969305499598
-0,253815595315584
0,0612177520852264
-0,323660074310599
-0,354314989448947
-0,201642150102477
0,10982002576907
-0,537946974435572
-0,355838035669709
0,562269492474045
0,250548645103557
0,725537777368281
0,286869704006631
0,158288453942289
-0,334485211606937
0,414822939263257
0,171026769370364
-0,302887437994892
-0,245494196836046
0,429843843991251
-0,0943257080782016
-0,415028458211365
0,100338956738708
0,266029131024158
-0,451500125672435
-0,385990465938109
-0,487624869162129
-0,51609123623833
-0,407406856307333
0,259561514599768
-0,474585487499709
0,0168670218815897
0,31929549100891
-0,0433950245311601
0,171349725154717
0,626493588590845
0,247896161366917
-0,490711486995991
-0,338363957923595
0,253750792511203
0,255960779384141
-0,434654631677083
-0,497630790571547
-0,0485469308969558
-0,109168437247301
0,517301332927866
-0,183671904478263
-0,253292480602833
0,396649274946146
-0,0385928582193074
0,100043610754931
-0,40339122195886
0,00126208108908599
0,16523129756806
0,127988124245343
0,258282630374311
0,043503681848031
-0,108280687415544
-0,442138591498773
-0,25987006076724
0,186169924496225
0,80421464913857
0,752938193550749
0,614806318482457
0,732914603645905
0,530822026165826
0,0036326143532877
-0,164209597533803
-0,312358508414208
0,299259723321762
0,556191456733241
0,519604541874114
-0,201641234586634
-0,322878984289596
0,00267548939846898
0,200546437095213
0,484835851282643
-0,29525895546901
-0,346279819890056
-0,175305554026414
-0,284598280575405
-0,219913824796637
0,225075785408297
0,147566525754141
0,379326602034951
-0,328072927813745
-0,0815970058546835
0,256125239219541
0,0851506520586519
0,147902904395344
-0,173768176665461
0,278744836910838
0,680288317346562
0,717563665322887
0,648531827655559
0,0280088074456577
0,195059589903415
0,348207383500405
0,376844335884799
-0,375842239909352
-0,0537145185735639
-0,366102420182203
-0,318647228435116
-0,123676796642147
-0,413240687490636
-0,22812997071451
-0,0856885018691833
0,0770813620542555
0,0986195335158238
0,132572766687988
-0,181505619865612
-0,206159271511553
-0,326312789646233
0,472877836481336
0,00647089018810506
0,362054158882163
-0,126702705982338
-0,218602787146074
0,490810793355258
-0,255644293007968
0,337549032325704
0,365308625353997
0,477706922667928
0,242524876639342
0,418178266697023
-0,487742392227005
-0,114320070617135
0,0280749229866342
0,344487791927379
0,0699878003760302
0,272149836446458
-0,49680583367364
0,0731675919650573
0,321213353807672
-0,467825819723227
0,0599711800739035
-0,20914319749416
-0,185598693175986
0,314081283199639
-0,272978975340388
-0,26800714069528
-0,462093453950107
-0,221378788564219
-0,428450990244478
-0,0740107447600314
-0,364105842056889
0,132047553922791
0,312660550398563
0,496191745908278
-0,337419408638065
-0,366095935398654
0,44381252633225
0,143078493762111
-0,414765491045382
-0,386529872952619
0,368989544217095
0,321040854886607
-0,390209805569305
0,161462171832635
-0,230719362670105
0,229181777559771
0,444789472010354
0,0951962562255544
0,0206389289911086
-0,363429541170331
-0,164055547054883
-0,230527607132926
-0,315666277341389
0,079004583684264
0,360806836160858
-0,203834834423958
-0,444420466849768
0,0688561527284345
-0,22226934705254
-0,229246819660411
0,133274250255603
0,33285217044121
0,24726441576499
-0,415098328719345
-0,0726535530966964
0,0573336213359845
-0,298670931803657
0,0378681419084899
-0,000327207153074347
0,31937655611866
0,0149286084412265
0,191534749554254
-0,224396879190764
0,22049391489499
0,241646686448551
-0,206473588806798
0,388313253823814
-0,168261081757145
-0,300091503560586
0,0369385110852022
0,263066355494348
0,380327430498007
-0,46776309607912
-0,128962658172922
-0,326680593111869
-0,385383505320821
0,444672085784689
0,013117132947369
-0,346133547763402
-0,2008646753155
0,460624146256887
-0,391615397246375
-0,233642398721372
-0,425442557281555
-0,274119727673996
-0,128766909534469
0,464294897375766
0,137640188279394
0,0275389358995198
-0,162785507581563
0,45208466469873
0,486237296828179
0,26788215328375
0,0245591995886337
0,0312235092423966
-0,383763353286201
0,209592664479088
-0,06333609696633
0,315345204349302
-0,202328418242898
-0,486023368773062
0,303771243339298
0,163365196279886
0,131973421495395
-0,386241477861182
-0,364698699449231
0,219450152511735
-0,0272424861449946
0,0267823283979081
-0,403950913743588
-0,270526968304381
-0,281062372881987
0,451117155219874
0,0812529904573031
0,325291762979134
-0,338490011310628
-0,192054466416348
0,0983030032992344
0,109654000778521
-0,386116147453951
0,198209999919967
-0,416061039974941
-0,439170418278859
0,0786203153331859
-0,190046921693742
-0,219897010698867
0,0701782724681209
-0,401091743680226
0,16842285900769
0,217933645806244
0,298293513617615
-0,229143295776631
0,414575999097236
0,00789313209003787
0,140665498579454
-0,215408468411306
0,554066417498342
0,363549557274932
0,396668404695905
0,383836678185549
0,571102191087093
-0,103676018935317
-0,255432850875213
-0,160326767611699
-0,283999451232526
-0,125144208446465
-0,139493695962201
-0,149340842988688
0,259438390265889
-0,122317852742187
-0,0113878429454695
-0,376000445278362
0,432864375846863
-0,344200397769083
0,0249627644778055
0,116437163025344
0,275946679420744
-0,461862681657753
0,447014441378994
-0,286681617502917
-0,237521436084207
-0,355167296447116
-0,0881864513934008
0,302137190663186
0,457759224852234
0,119696518112588
0,489447718520942
-0,193549615604125
0,314853075147541
-0,0322605826727397
0,0779301630809625
-0,0697244871354991
0,232547850660943
0,00611535390202522
-0,364606530815381
0,160067937416674
0,0628715602508148
-0,466205758026897
0,346202103349474
0,398165465750809
0,0905936316543229
-0,088655498152904
0,112856369750973
-0,0499664189305532
-0,423733962167172
-0,0890309944598564
-0,331047320892847
-0,259781214174626
0,470207417926079
-0,570703780141136
-0,642715637232382
-0,520331694745566
-0,167061559365005
0,15450745906037
0,160904368681836
-0,0152351708373399
-0,303477501914295
0,141462686933875
0,328747696252235
0,35234729197419
0,322096952744892
0,225916331182914
-0,465906900770479
0,309866703651622
-0,312432600803711
-0,0603335390614036
0,18384599717513
0,35581710229433
-0,00687225512548922
0,425921198877469
-0,129083935098898
-0,430609607630158
0,22380171322238
-0,149523754047196
0,401073229341612
0,39214015574416
-0,0145849054639394
-0,540032732895513
0,246778903966636
-0,199770810423308
-0,0697103189639259
-0,24853511075401
0,395355051674736
-0,0440395638293976
0,155127801235788
0,217893755197186
0,519227226973564
0,213811446470219
-0,0966805271592032
0,481716907880718
0,395698918568798
-0,428362723335771
0,217956738056967
0,375845601485711
-0,37216209102057
0,335779947152259
-0,487631722813301
0,212076289910859
0,331285517136886
0,38526969917661
-0,124899305152216
0,308289209704246
-0,212933781259548
-0,0636325432640708
-0,225813173269411
0,441274444772281
-0,17348964512282
-0,271618289550808
-0,259367667505806
0,211967639357627
0,330239319361587
-0,569097091442539
0,118969313944817
0,149104647713981
-0,0832984605014925
-0,301032443914844
-0,112137221070515
-0,32567196339316
0,280750093230721
0,374051390007593
0,451171724033581
-0,00604847404296926
0,369733321880373
0,191054808297686
0,327594829177295
0,212703319553809
0,26030322439423
0,0785365323835385
0,468924556787169
-0,352397279027954
-0,354728210496053
0,227796522787572
-0,366271958455337
-0,321396920489138
0,0307988417734749
0,245901951047605
-0,216336671206849
-0,430355249183201
-0,0287737714272897
0,128469475810404
-0,581976835907147
-0,101945528556149
-0,163378485243143
-0,246583372441954
0,382682574900822
0,342437507696201
0,13883177693966
0,196182272875264
-0,0454331864056288
-0,00373264112625648
-0,506282557741363
0,293481212013159
-0,34435592305118
-0,133216268859278
0,241786030761045
-0,241554707355083
-0,374251545872741
-0,150612900383578
-0,304287981575173
-0,471209246689773
-0,129935329521166
-0,394921955519026
-0,0978419132866004
-0,606396759896071
-0,415253800084236
-0,574741324344699
-0,0586260282868024
0,0535972964968082
0,433340827327386
-0,340602496373829
0,406189576996825
-0,110908819377756
0,265464046038807
0,274592352907596
0,242675851143922
-0,355060940085464
-0,467169567057211
-0,21956590272513
0,168237348863966
-0,191603213405052
-0,0365784398709973
-0,52686447989818
-0,123486608055268
-0,285064199262996
0,0889348377602469
0,347539581287477
-0,0578653114427161
-0,57055329889308
-0,117344366188318
-0,0573538484045821
-0,353698007862658
0,10082552465727
-0,557914227920817
0,170986574098397
-0,0388641215688822
0,124343846903209
0,321393446723006
0,146496797409153
-0,471574720009619
-0,171992502018891
-0,421136146576221
-0,0690055217483972
0,185429523465121
-0,22680132115065
-0,113941258076693
-0,17731255697477
0,123746430791796
0,217810794579708
-0,156616040324957
-0,0665852128237046
0,319675606788589
-0,411738993607949
-0,263503720510509
-0,269856000552118
-0,296289886693427
-0,593428448600445
-0,348425158355275
-0,248928905532223
-0,348421637251491
-0,351417860716574
0,0754326251573271
-0,412994945850565
0,197829962301398
-0,485726290422805
0,166773342667657
-0,409281600889637
-0,259071640673855
0,0114337038845282
-0,516491768881131
-0,048583590442826
0,10137286351547
0,245598661837538
0,359042604479825
0,0626787769094961
-0,0145085796315729
0,198280059591997
-0,00475790701096779
-0,307426505996372
0,170976013210419
-0,250426521380504
-0,338829003438809
0,339148789039426
0,0566895898481992
0,226478524035993
0,0754823972541258
0,0197801379378235
-0,68109630883844
-0,0492599806984178
-0,342463793539939
-0,501789773146189
-0,270659067102685
0,441682289866277
0,258979576290774
0,237544225613712
-0,108910720148754
-0,344420253321352
0,260302699057765
-0,123743147262583
-0,0819266707354031
0,0690314068313256
0,0101930571926242
0,356985352986923
0,304952848611843
-0,313570808532448
0,259453100971623
0,385219144236064
0,395431998252667
0,295310890430475
0,105064497223511
-0,327137963181513
0,493193594418211
0,127067626398332
0,404280543897642
-0,395949411769471
-0,209497865317472
-0,322834368880329
-0,385130736984534
-0,0450917490556863
-0,437550851773845
-0,345842069160726
0,36037900531988
0,544172304454694
0,157668639401223
0,176295660989077
0,514907895919707
-0,226895962288509
-0,424898294037062
-0,136890790996916
0,189869819925125
0,358078620465869
0,288481141458783
-0,360378185222102
0,466044211744351
-0,0533572643053042
-0,231212687857244
-0,193034288631405
-0,299561695074044
0,55477406807561
-0,0235328659196648
0,10509834120295
0,480439850650156
0,18959440053226
0,288423814645866
0,441791922215102
-0,257469329151533
-0,300836967829789
0,385575106412642
0,560727370679258
-0,191656224203145
-0,346868802996429
-0,303679685921999
0,239090467003518
0,0181049905307268
0,435596822192196
-0,196639768437998
0,407277484455992
-0,389254869958918
0,0999680997445108
0,171359901745799
-0,194812724690332
-0,0706778446075869
-0,248358814466464
-0,333286269960989
-0,180952664533047
-0,0738135552945837
-0,225478302384964
-0,357136115160811
-0,0557668766887208
0,261396764653539
0,432994182229095
0,575720710291811
0,157061738479067
0,133129395782116
-0,402413193104032
0,0707184802708038
0,586603179331761
-0,161102589171472
0,418280671820011
0,0418337866595951
-0,25266329650732
0,21257485936524
0,408293511459952
-0,434262988006641
-0,190392585179811
0,128876074367972
-0,525585625528015
0,423833552829205
0,113594883872939
-0,172245897200073
-0,263776090217788
-0,350475862584582
-0,292734315257574
0,157604897625358
0,146278750759193
-0,0207744718172279
0,420344167830815
0,143519519122198
-0,243919951691964
-0,133176115531929
0,154392100025284
-0,0343173167143545
-0,00929129419899158
0,658576793613917
0,278735473070387
-0,236983374650538
0,457280223474738
-0,101387052196942
-0,129758274307656
-0,0487055908090426
0,412154933010774
-0,255923712165484
0,399493464245702
-0,020204142339546
-0,171939042825293
0,20508633319089
0,152337800083839
0,226261446590657
0,297136096312115
0,26257679582455
0,302363307071253
-0,446378955078269
0,307402927152089
0,226894682559352
0,000776965863443293
0,248603439558211
0,256204519532036
0,351276273059445
0,240035727525737
0,436892161594033
0,25082531111929
-0,0653578509123986
-0,226184680119619
0,350537700869552
0,527179030071258
0,257437996523913
0,234302427377572
0,00246114707490549
-0,546745761171908
0,185718147126625
-0,0148361290846636
0,393659818406269
0,392831552528383
0,0106511450192334
-0,460666283481133
0,442969634171095
-0,146493825501693
-0,0751600186266575
0,322232257906056
0,376549136645841
0,134318427036898
-0,615438952702319
-0,101167403403673
-0,398005873865119
0,254807426012702
0,0943817313725597
0,19150797319767
0,137478715229713
-0,012199327619978
0,188103176288173
-0,474323446831968
-0,482486369601054
-0,260278243015512
-0,432712855556558
-0,26669468367323
-0,460597539772102
0,241336800399935
-0,349981985362634
-0,160636249113603
0,293786316571549
-0,500660018450936
-0,297147986267935
-0,439001735737082
0,105634319878013
-0,056569096857394
0,415248895667691
-0,418919164103234
0,284437991143221
-0,065585809924534
0,0160064900170801
-0,35217745991848
0,172246792326289
0,0738295047489684
-0,105955207284601
0,161311606660298
0,395248714079471
0,148233380864227
0,0207596097575557
0,0440444991441435
-0,2483168207667
-0,0268027051605026
0,18068265780914
0,328339284322957
0,0197246043969518
0,343555918558019
0,181458136821145
0,355904329872448
0,0988970181929841
-0,0997417314672439
-0,121851459784071
0,468458806615537
0,265059453791501
0,387623825349457
-0,107887109194144
-0,0978784656199818
0,208565886216293
-0,107677280247917
0,121970435983765
-0,344574846209589
0,228067028458519
-0,232922624891969
0,226738772421625
-0,591137983599512
-0,340970446774323
0,217502571709052
0,600835283016988
0,176034859859053
-0,261328280334793
0,561861417378499
0,108272209602515
-0,230838025556409
-0,198601237807197
0,0401837442498703
-0,441315779970654
-0,345593455145615
-0,46046705399205
-0,283846963910953
0,312666390120655
-0,0788804239495101
0,0639609049837854
-0,47752964427424
0,16907408640719
-0,0153306985516171
-0,541261048792495
0,271994505040499
0,136852152788668
-0,181615493522804
-0,287073955898267
-0,280747510721441
-0,0866356194375469
-0,3692485388254
0,215119757784834
0,25073160904994
0,345102605088331
0,104096745084158
-0,359926595897118
0,401797201589427
0,389780009278906
0,18503908637044
0,461245598343598
0,242806109702634
-0,272582209131798
0,252861597212056
0,0686110874175733
-0,0821794424341395
-0,0639495340008054
0,352967192350406
-0,455328473334819
-0,144778443472056
-0,263553419796102
-0,336994782930404
-0,41333498038774
-0,495982326315085
-0,246176007236531
0,118714903311393
-0,434246506618341
0,303788341919896
0,405125502537189
0,261008459368977
-0,0493912220097763
-0,248930370362945
-0,508159105323855
-0,123337343455394
0,0214193739349668
-0,112962651631283
0,082048769651544
-0,304222290704286
0,14117370489173
0,000252608782074107
0,468297159034545
0,0351072525006577
0,0502085042884848
-0,409164763373329
0,479749358715373
0,104851434754604
-0,442798815175332
0,0319506232731291
-0,0755436031195561
0,29198495512504
-0,22095726646164
0,281660156622588
0,307051546130587
-0,0754243427179157
0,319143587894688
0,0619257814801107
-0,273968939294137
0,196103290022058
-0,11991374884358
-0,447067490641767
-0,277096847885252
0,537852698518493
0,386576997399836
0,0306891042966318
0,336730970764596
-0,292984624421209
-0,589294690564212
0,496808512314273
-0,301471002076533
-0,210004475250989
0,239718405293685
-0,473983876044339
-0,287088397325523
-0,470941686989247
0,261054968350127
-0,182935661841478
-0,0546627134999427
-0,280456980975149
0,0872586335643654
0,225094735775156
-0,19899401367237
0,190271950633218
-0,447269584886567
-0,44843013180214
-0,188633635277141
-0,244721016316458
-0,176329581425023
0,285954244401834
-0,474774536975057
0,339571599681591
0,128640102140285
-0,0212446658446206
-0,236239560031732
0,304319098889297
0,168819593989195
-0,269016857613171
-0,188694262017693
-0,16451811756771
0,114980058565261
-0,29470280548311
-0,180243979524935
-0,0585411370538833
-0,255888086164318
-0,430209984970377
0,175716307368858
-0,254634932034401
-0,0373597873099279
0,325988083257287
0,326911727760665
0,0120850883477956
0,191921521454171
-0,302966017512536
-0,278611375106179
-0,193537238553313
-0,140006497503896
0,082498073098574
0,150967517206031
0,0615027056456334
-0,334965171384204
-0,556237266615772
-0,456794114451642
-0,403125625086502
0,455017583787396
-0,161098074336985
0,481717314936843
-0,44576781511277
-0,105104386156939
0,435873619250894
0,229158519641104
0,130950563881058
0,440428013885593
-0,100873764418472
-0,0248355524068148
-0,275024461121124
-0,362475843836955
-0,0824670964264812
0,39799100186558
-0,374694703755178
-0,537079689559805
-0,305867118358519
-0,103725775251741
0,299045957195941
-0,166662441350632
-0,416794641167789
-0,174538232209324
0,0211780119001905
-0,370229991371245
0,311303956542166
-0,206192676935927
-0,348600909834866
0,120622900916203
0,406926647817178
0,177540504884646
0,0680597385804719
-0,169314258577914
0,267570470351526
0,275687414582673
0,486375511151913
-0,403321484524441
0,171946156151568
-0,261389247935428
-0,41889785391473
0,222896980514746
0,182569724441947
-0,33071709606137
-0,226649747210553
0,107192626948547
0,404314441192927
-0,330504945911394
-0,459041620768008
-0,0545803798753607
0,368212155008125
-0,348331112754915
-0,488326284718469
-2,38581062758504E-05
-0,438225863930191
0,447528161532696
0,0534866037520706
-0,498972987806339
-0,192471179817256
0,0115973818280003
-0,214078619943037
0,118331493632091
0,229278738484382
0,238886161585751
-0,25956290343756
-0,396165823049921
-0,276647574629936
0,380275403093675
0,349163120076602
-0,41288579786521
-0,0640138411656553
0,372628794445157
-0,0346294227059792
0,222204908890128
0,371492029318433
-0,308498081245235
-0,0969528343767336
0,066340039983238
0,237505595630804
-0,106056214596992
-0,419751427897923
0,232353795261677
-0,0464843303336647
0,241781938234948
-0,303771252652524
0,0279748349115135
-0,0694547600901941
-0,402924884996808
-0,313450144982641
-0,325652611360723
0,226021002850505
-0,381164663415945
0,231511678887304
-0,0445981759320005
-0,295346659512886
-0,00410001841564661
0,195665902316415
-0,480582221867788
-0,476545222092674
0,448199191106576
0,447430032746601
-0,124676017381566
0,368795105660705
-0,27334394667919
-0,461480023321453
-0,173664201830357
-0,219103308263749
-0,37325551867171
0,316627216905648
-0,288280637836214
0,333771167711248
-0,475961009494942
-0,00338222482399186
-0,303570285348022
-0,356224099107191
-0,3887578737404
-0,238316150260305
0,186538415349339
0,316307988397921
-0,167151035120315
0,350375008233997
0,0170101269693161
-0,258536589685146
-0,305091699028896
0,0856000308811665
-0,336620686965352
-0,173316711407768
-0,0319149631689838
-0,00978776417197091
0,388971005049055
0,322535961635466
0,456252828071749
-0,131831851150762
0,407449902024413
-0,0926453751017406
-0,140831284014948
-0,0839925175490499
-0,0501022032485524
-0,47670159400564
0,140513086449109
0,0505767634438702
0,237024816056212
0,349385215399938
-0,27471756179571
-0,0403624719662417
-0,496300438882923
-0,261781987157549
-0,312460803339472
-0,462653104198469
-0,319393210494608
0,0606202578920034
0,278048093327343
0,169176895948675
0,0613324728614336
0,177858461475865
-0,112430298520452
-0,47133175841129
0,0995813759973186
-0,465123526350078
-0,102836751431703
0,210603860824119
0,129828076410608
0,00210851197336517
0,277706569934416
0,225716554914968
0,0112696118686281
0,136563178533153
-0,14474430352916
-0,0953465093196157
0,324553885349307
-0,207628396240891
-0,0383884898007049
-0,378323928925585
-0,0512896373641163
0,234488534617465
0,373470310528516
-0,268158241067155
-0,40220449720612
-0,118693582070383
0,288930965954871
0,354732791359878
0,232716009362003
-0,358331490069984
0,323055647283835
-0,47274398829229
-0,305432730551596
-0,40993557268846
-0,366494132142597
-0,381343625475455
0,523493204787663
-0,103861038556384
-0,138953908959257
0,0358594944870234
0,271249348105077
-0,59574831946456
-0,0131329031739716
-0,16823069224753
0,238715450847385
-0,0305706281864374
-0,158216615352419
0,0624995105887238
-0,354746709975762
0,0743608016401347
0,143191980031874
0,289760833973885
0,0241556458753327
0,111399933980498
-0,173195621312221
0,304396541112539
0,280213631664735
0,232864103383
0,121341146113635
-0,181977789401514
0,519776754225667
-0,0890274545536442
0,298416809795496
0,127051278424363
-0,375689779418151
0,401116862864644
0,229518629295006
-0,0928313050268026
-0,315055115857915
-0,525208378352644
0,297829231630712
-0,427229946594984
-0,193158370008492
-0,538171469877015
0,138012260598272
0,418170904064083
-0,0670404876070873
0,0624239070166014
0,0942915503840388
0,483465602613737
-0,156291211329536
0,0888322510704548
0,0103060978777001
-0,02215803109264
-0,307935813172605
0,404989179851013
-0,347371830075526
0,315241631352122
0,377529732972867
-0,102022632801799
0,393751401313748
-0,000670944441204705
-0,372431741236624
0,0376890909199871
0,277911726408168
-0,197608396008251
0,309271482413161
-0,0322347634646236
0,142936032673391
-0,399320067721706
-0,379742174774706
0,112683612486206
0,39184215422265
0,348721032919755
-0,181917142076889
-0,429578984020499
0,275185030780353
-0,467621083821925
-0,445077660933639
-0,261264526639723
0,201885865021313
0,406446670014236
0,0985409520101353
-0,1120827024209
0,223754892282059
-0,196951834498177
-0,0297949261633674
-0,0688314412913898
0,0805959067332782
0,563048509503821
0,310242330983798
-0,411626097493078
0,459777361313299
0,189136435902564
-0,22114961822801
-0,417800763948483
-0,475867726715634
0,486178220305592
0,490190195459192
0,202608503956278
0,308960702624161
0,110821525924503
0,331236970230689
-0,515386072199561
-0,054973577054868
0,464223362954437
0,217523643615434
0,33520433309149
-0,133064016331924
-0,351034708779246
0,0586587094512666
-0,388990299490759
-0,346819115414738
-0,0949684794734134
-0,0709227966226752
0,183980090905597
0,0465586053774594
-0,0203392950233559
0,10663936183733
0,313839099276243
-0,175201467331329
-0,402933300440769
-0,121576209328296
-0,404452373552841
-0,0238920748865049
-0,109136449756998
0,258202861890672
0,0555372177414434
-0,127732218714042
-0,275232241659035
0,33297921664017
-0,282461334521197
-0,286465141004366
-0,147982756443314
0,312364673154598
0,217214942287936
0,0679927568165878
0,00947798949249826
-0,167500688156206
-0,196963006804768
-0,208163331058808
-0,155013895909748
0,450285822126267
0,479181566170395
0,533893938927436
-0,0778565837332405
-0,12093611855014
-0,0858883388323227
0,553167257006541
0,0533347400119465
-0,543024837816233
-0,544207213185814
-0,604497021607278
-0,301758661735454
-0,503702902574411
-0,362648737264681
-0,0585894482296876
-0,174725535266393
0,107758394159075
0,427728679922611
-0,144578107932852
-0,113213727536245
0,161879728525606
-0,113889077209909
-0,243062323937673
-0,331297783579109
0,0396380481908946
-0,0526024092625525
-0,301021248593603
-0,124106703464364
0,513463565988833
-0,206603922341695
-0,298663213004199
-0,33398567225086
0,526265921297238
0,514343802435408
0,285707350036614
-0,243694817021156
0,166842530818911
0,183181343507191
-0,0864374313037777
-0,327134884853722
-0,066530520917795
0,323170064145901
-0,184677913691582
-0,40826280265356
-0,0157590529866938
0,184666984902244
-0,0293395978069583
-0,354919896859173
-0,197507351826862
-0,351790141989248
0,49942864278936
0,116789589097351
-0,168885580663202
0,21564858542377
0,341199068898709
0,292459732006516
-0,17134822182751
-0,147268661828215
-0,0876879386803725
0,125367060871053
0,220387908005854
0,0530267613245429
-0,475560898350804
0,288399945629221
-0,210381470580412
-0,695857890875638
0,142770891399338
0,0265468061631018
-0,0358513015856411
0,123899261726948
-0,499487843816646
-0,0183889619391749
-0,256246526522397
0,283332090380094
-0,334692058542134
0,314113725821541
0,18026311028761
0,240049702939678
-0,255397660089795
0,256290442312938
-0,0563731759080599
-0,504810607036243
-0,602396566857611
0,397662314860452
0,134168745811305
0,236610566920308
-0,639418599251267
0,174185319668648
0,166377951385743
-0,0883119954916954
0,0394838498409296
-0,355427646042984
-0,373695068305382
-0,528182341273713
-0,666923761225465
-0,11747008309476
0,190383511776988
-0,556069483472967
-0,549689184285318
0,195527745883299
-0,0868816648474713
0,261341685782207
0,410883150021957
-0,18554447297265
0,491121876515039
-0,394841181062804
0,258383554115798
0,171999098039122
-0,402628033540935
0,494921332704799
-0,354599411182396
0,0410680860396213
-0,088625212270319
-0,277177133910393
-0,0410810480933945
0,193963554223152
0,321400588735072
0,0795002607819491
-0,178447489355468
-0,307647068572072
0,0459188346917676
-0,469575406173564
-0,351794323505997
0,125501420088273
0,0317961591484148
-0,171552172064719
-0,287040162347036
0,100048126094893
-0,161369204625735
-0,394536607197642
0,433947658658949
-0,42813300989947
-0,240236224951333
0,120740702813751
-0,0642756654133372
0,116502675541597
0,13909107839177
0,00985467165489344
-0,338965454643052
-0,160336550329831
0,00475918912221969
-0,396631778121256
0,00543724177174405
-0,0693255930816249
0,255456379967962
0,595755355757915
0,0616854466368491
-0,160902568004081
-0,200630455532723
-0,00930258518353715
-0,46495293849461
-0,499468268126537
-0,515994278967338
-0,367537286526928
0,40071752776832
-0,235654549252345
-0,066773916535355
0,378229544393173
0,152872393269513
0,237852366053431
-0,414261871443252
0,478936553601436
-0,142897487393747
0,261088206102484
-0,388429183425273
-0,415913740393672
0,106817741707104
-0,197892027756701
-0,30522744287649
0,239683926746491
0,282858983090445
0,348395514204785
0,0208178381560942
-0,364345333041783
0,0836547087383483
0,152504326040828
-0,0571790225269131
0,310370650850311
0,244933022531816
-0,0190487669480562
0,441473961297793
-0,241317590329645
0,383154312424038
-0,617335255728037
0,201712346904771
-0,170454711020131
-0,106566211433399
0,333693518225892
-0,345293412844321
-0,200451961077571
-0,0907578330257098
0,381985392753031
-0,266215228398942
0,0614226281297222
-0,137429014964112
0,31559473597325
-0,266458609068034
-0,0660273778381081
0,100717747895669
0,503034773907649
-0,457333004284596
0,554582625285213
-0,652225922043163
-0,0218279765471578
0,444853040488348
0,143505328990897
-0,259034210009119
-0,439626456762636
0,0469354681478724
-0,186854562844615
0,112639189247483
-0,445563070094472
-0,442832505263798
-0,213084598119692
0,122976524171889
-0,496328902429123
0,333531313032625
0,490442983195224
0,433095750836713
0,239747678515953
0,236870950549012
-0,163781131256453
0,454933305532668
-0,0324553071218557
-0,611977562978625
0,0871789929771547
-0,244107700380767
-0,0938411754549374
-0,506088610526752
-0,0175137460987318
-0,522035633780082
0,127370362431472
-0,562066817666288
-0,615755198637788
0,179193148414339
-0,286351251219604
0,394510906454799
0,304173589789079
0,439071705437066
0,145830843189457
0,178516494937936
0,120691610337631
0,357195336362918
-0,451130067441207
-0,331672804817405
-0,101216101896255
0,00771423413466136
0,160275110417076
-0,0530756582165339
0,270715641024447
-0,287658215806505
0,281666511050322
0,0659790765910837
0,288272360053577
0,450644046804868
0,0637850137002017
0,416651876877512
-0,475563752540354
0,335454464348931
-0,544542525503211
0,0935825259120998
-0,475654724891575
-0,176641318435381
0,0368874127896737
0,286736122664192
-0,253237282923673
-0,232749467680429
-0,413643724703735
0,0752677047833803
-0,240840420791974
-0,106302641091063
-0,25588860397967
0,476685418736509
0,184564337581782
-0,145626851995645
-0,314564191294356
-0,220327182364569
0,631481427444025
0,649438232550726
-0,265496373269013
0,0355062937131658
-0,0461735208875382
0,076428976832231
0,321815439631197
0,608481974959011
0,168808528689778
0,230719508089403
-0,27173603727462
-0,368426573732352
-0,40447656054719
-0,252763820540645
-0,453979495336053
-0,496916268955204
0,392713458827945
-0,399575323259891
-0,123253496185426
-0,124359015036177
-0,387076833640712
-0,0983175930913002
0,151043839124517
-0,32024059343163
0,247265892867146
0,388191596184339
-0,443922407181299
-0,428617884855429
-0,277929405757798
0,58241817942607
-0,0729548780516926
0,610045843015958
0,393946432704074
0,168330251849805
0,361567532513957
0,2300580332509
-0,137135363249478
-0,37163013934086
-0,197002807220379
0,0910047238526886
-0,293529635597784
-0,564424044671753
-0,0095776820455035
-0,239979136749216
-0,393033582858429
-0,29868241458344
0,383727333277318
0,0488170706376128
0,115423399833708
-0,0543279044471195
-0,0404863234332233
0,483670410692538
0,210525795990016
0,23162209676153
-0,0995753244200566
-0,338900018920336
-0,35227733436136
-0,120530063648898
0,360822497520107
-0,0918306364308514
0,729346546666304
0,339883559151305
0,0636553603194874
0,335676100339415
-0,0723915371733852
0,0657591673078123
-0,222336382520334
0,435204284388293
-0,532280413512675
0,210632981451746
0,00722016163420811
0,309422409912454
0,426826229595434
-0,360994298671562
0,00437267364981346
0,0901013582811894
-0,454532839996075
0,196029813352986
0,494830935259737
0,225336943159502
-0,116523725515794
0,0430638184663293
-0,251662888306248
0,454341893002759
0,50755943354946
0,560751016378182
0,630996405982192
0,388329498597782
0,49104206778336
0,195143249753156
-0,0831855814094491
-0,226970268303822
0,09282923786596
0,221796067258098
0,0186800962246663
-0,2213680730755
-0,516093803605111
-0,388199512000368
-0,316443604041035
-0,013370271211618
-0,0342888842431443
-0,294913855646433
-0,24022191121508
0,451994644746909
0,417942463838244
-0,157048774257791
0,386588030907599
0,19740605899012
-0,4949052045625
0,101295337972742
0,389700705486287
-0,151823994652037
0,0712174006240134
-0,184931675602749
0,228582157665214
-0,0913081965819944
-0,468258425479996
0,416915600188558
-0,23797342562162
-0,0511346529676121
0,266554063049012
0,301249530406929
-0,50715030073718
-0,155005000645183
-0,261928836087161
-0,185932511372261
-0,11063569343215
-0,241617144951834
0,372204400483211
0,357066495871429
0,397735686491505
-0,21219627751421
0,347325732666667
-0,321268830830822
-0,0673949627985223
0,460146195236662
0,137063420118841
-0,0034971401283194
0,353200341111345
0,0917945596050741
0,239828510352775
0,0831814167666133
-0,429759499859815
-0,263891187717441
-0,528064726783535
0,257126370991114
-0,529212297130516
-0,549395871524321
0,0363743267611003
0,297497058475468
-0,116033954090254
0,105408641850133
0,0722822843767464
-0,536623768056212
-0,301561627242847
0,230665466074525
-0,10911209960823
0,267795412320725
0,457369214200091
-0,294526238830074
-0,415644221899865
0,366402835988627
-0,237381096341359
0,0143442193578669
-0,118970229578656
-0,408671492161558
-0,206648096727575
0,347804431260034
-0,445800256043473
0,251375371262818
0,174642481710529
-0,103786625575485
-0,313929408028172
-0,307078444223973
0,158071721166545
0,177600574739133
-0,297853964564149
0,517100577675145
-0,351229709723653
0,282076707207472
-0,378324991659957
0,396676926970551
-0,414044031453069
0,249834722148322
0,145877177963477
-0,426342520752765
0,151762668472531
0,240195478657352
-0,110294132311965
0,328638667626604
-0,204973495427972
0,161927810712684
-0,173293584339923
-0,417221279172163
-0,399518880086561
0,045836115140185
-0,498592012758344
0,0110882082787639
-0,042444296899404
-0,141598319338732
0,109333648842758
-0,176246434743014
-0,109307720052182
0,0891087020071554
0,0539763295091226
-0,0400359706453579
0,55182266702171
-0,113763735595896
-0,155058736770149
0,477196495356871
-0,0757074351577357
-0,0147978683672906
0,337209628825013
-0,282898102456887
0,173296590071791
0,260828164760409
0,0279988164678211
-0,0764138296136697
-0,409176978705999
-0,297753640356359
0,191114115384926
0,384603128078239
0,285524512631188
0,305595521889559
-0,194842797803522
0,37528243527539
-0,0431793141457524
-0,490437499595247
-0,412776267222479
0,0177613171387705
0,0651931440750747
-0,0753150917725117
0,123101339239537
-0,307178862994658
0,492733698119134
-0,0413695830622895
-0,0197120307182261
0,518301116239691
0,439404427677643
-0,257820443338028
-0,308431995102956
0,0276163035689076
0,262208537553534
-0,242626417308406
-0,300885930564667
-0,137412797956454
-0,225603144488113
0,427741360816984
0,475490176573158
0,389872204926737
0,194347012180065
0,127028439470439
-0,313685286501252
-0,122779780041931
0,134456282069809
0,172614417358578
-0,0586544982643432
0,38221639967193
-0,469180340119765
0,0903786875729146
-0,169937532649676
-0,0930303957241481
0,272434214153799
-0,168532441700287
0,139853811704226
0,149414082954717
0,0911598692606947
-0,258998602050822
0,226673921442904
-0,111626445600589
-0,470291255028123
-0,104102444650653
-0,387096926983025
-0,122750693756505
0,460105148125489
0,296603596208898
0,351229272247864
-0,146455076824154
0,396851300213882
-0,270304398504228
0,316743177276451
-0,0216057438038316
0,359265383733094
-0,0526826016384562
0,0335702651802312
0,240373619711201
-0,0930138964173449
0,140521107539777
0,298915207758041
0,124993760895447
0,211224289010849
0,108750621606014
0,0193608359058205
0,282219033121233
-0,107013409774291
-0,108278196588288
0,272201401541103
0,307105923913003
0,458760087824781
-0,0732615439096752
0,393435544284729
0,165968070116811
-0,0828002577567474
-0,355625442161982
-0,196951595459577
-0,244298025380959
-0,103995618691666
0,108447092868596
0,0538388102100411
-0,410109853330119
0,284176165603183
0,135423302015021
-0,127829273706692
0,0109225772870306
0,266267583130983
-0,158408914004526
-0,234454127976945
0,488274063404751
-0,255785329052112
0,21191368797645
0,166048680547515
-0,243609402318941
0,157191819257794
-0,331535384540094
-0,373978722300529
0,45677397444694
-0,189918767516463
-0,261990129371169
-0,0899051072028955
-0,471234848709421
0,285345887199671
-0,165370427381885
-0,349345729616166
-0,042320071506463
-0,0725553774147087
-0,0897454971399836
-0,225846857170503
0,42130325824083
0,165975345608767
-0,0690167879541483
-0,357647566988448
0,465575872232877
0,0847721557534197
0,159206868127818
0,197114527366343
0,375264121551696
-0,353713895562084
-0,119294479323205
-0,0882739340853846
-0,287346964496795
0,148255912588424
0,47929599090362
-0,103758527445996
-0,444738743054129
0,294579434321203
0,00720503158271546
-0,391758972728513
-0,462631959916387
0,078170395725486
-0,369956302396001
-0,399722265964245
-0,418070131409015
-0,238455042586874
-0,0168735974081203
-0,278774515122465
-0,320995498882238
-0,0621933286729314
-0,407996023040218
-0,330155926758127
0,296693912583347
0,388653585736559
0,175955381306736
0,16347913293603
0,211599565460037
-0,0458022618251948
0,10748307775087
0,0955400356882356
-0,34433378053866
-0,238603772290878
-0,227269040545695
0,225609955551522
0,473037314917113
-0,428361999969034
-0,078412944720319
0,248363613965159
0,0515339973156964
-0,299806575663298
-0,434023744395945
0,340907169897532
0,144393498378058
-0,328609401837242
-0,288271526708899
0,179252630960281
0,372550938188228
-0,620208175468702
-0,402711456609656
0,313554211354526
-0,0468553440421441
-0,420872236825167
-0,193486847460013
-0,0458829790261182
0,308035476948796
-0,269902544573484
0,631731516753918
-0,124497959234313
0,29749085352295
-0,453462953098172
0,273616707173557
-0,236531153862533
-0,0358371723968215
0,108286095487431
0,0284693089229553
0,437441281479523
0,253396468122209
0,244710958443913
0,483198102090134
-0,20304214568019
0,165341688585219
-0,280163715567682
0,259364951438295
-0,0367953440862552
-0,149886709544476
-0,25108278074488
0,13152904427825
-0,341844652561353
-0,572760049967088
-0,1352508521931
-0,149527659449032
0,29962123336885
0,24125559082995
-0,424025610246571
-0,238742158358403
-0,255411647865052
-0,449423791875145
-0,0229264654480213
0,240395652298911
-0,544026472691102
-0,267474409209299
0,127032564277286
-0,371074329381865
0,497392979148806
0,259656220096935
-0,259554568566175
-0,21497851457213
-0,247639260137286
-0,0602060031324795
-0,391915332080627
-0,468806570385889
-0,57223642766435
-0,289820157801016
-0,32734368407369
0,0256637779620363
-0,543338448701939
-0,0284862436120442
-0,161136963063391
-0,0613727743972836
-0,397752523865011
0,176044440917037
-0,28052138943303
0,387936386353107
-0,46856565852423
-0,40623691753585
0,31007469072611
0,282112281259098
-0,0442350718456149
-0,126536574738326
0,442027587347836
-0,0274198468713043
-0,462206496055278
-0,258377229622395
-0,448782783443473
0,386437400656956
-0,432456804956753
-0,206414723910621
0,362408151326399
0,48736759735714
-0,0845439581569414
-0,146584859663931
0,177485963078073
-0,522984041956071
0,0246070463446621
-0,134140308214582
0,127371990275655
-0,404187359546275
-0,446458496309896
0,239164631139317
0,171762227610396
-0,213782792517711
0,0539229205817347
0,174251396945288
0,236857457329582
0,0743429012985001
0,165689518461706
-0,257250584818142
0,179081674146928
0,0380030370461296
-0,183711404724868
-0,0926739440597269
-0,308120525818374
0,324485877912718
0,366124198208934
-0,203770356566364
0,182428962660236
-0,485962871137513
-0,205975743586357
0,296881508181113
0,0428809653415654
-0,0627740748902313
-0,0544021079621549
0,219227741591473
-0,406193686271619
-0,123796046824415
0,423651786015175
-0,161247310058679
-0,244394032073901
0,339972027295317
0,125280927670418
0,127300618525093
0,348619275372296
-0,579093164981934
0,368795146179134
0,329856707601345
-0,258536751367251
-0,393003611936491
-0,391042180231856
0,118217348874648
0,363620135403993
-0,490498549169386
0,129515984112558
0,479531093059547
-0,379063482931141
-0,195155146191109
-0,0258138860137497
0,0206492968921427
-0,347418571891673
0,327067469593731
0,365707491867546
-0,302268415004113
-0,0805912688491905
-0,28352124905868
-0,252842567693607
0,161733959135655
0,298707434355489
0,53257629213543
-0,201981497242586
0,294752398501799
-0,115514501947059
-0,120096621845527
-0,506356080932824
-0,190727134754663
-0,0138741867911196
0,10672914949118
-0,456159489376056
-0,325238039170037
0,228208124511041
-0,249907050034213
0,228976711777181
-0,408467309880332
-0,0368739555144851
-0,249713560762851
0,207751195001864
-0,149211081303049
0,15549943087903
-0,197351620512886
0,249393367867062
0,0908897134499314
-0,36788084974185
0,235612676554385
0,241847656578385
0,490107849249161
-0,247078166256934
0,365289078391855
0,425830557725155
-0,411132017541549
0,0669053232562778
-0,27132109190858
-0,459126495133715
0,202004574862891
-0,22323629651911
0,32155023981484
-0,233181282843983
-0,290602018493508
-0,0130009951596153
-0,476131482970031
-0,142295444561488
-0,186421179915019
0,406262526467179
-0,308699780858155
-0,447412071243341
-0,134683221329854
0,401632122875045
-0,423911034835019
-0,0078157306501347
-0,0881397250962231
-0,431854935279947
0,146929031616254
-0,147238089307757
-0,228414688866569
0,456352589958255
-0,0926202433079494
0,041215932776338
0,341484024434916
-0,522749463944656
-0,451764500146957
0,389334116466363
0,36914643360733
0,552048314809089
-0,315340056890212
-0,227276394925802
0,0917179349771319
0,351981308707959
0,138004558923656
0,191052658902712
-0,0675744684005075
0,145740193015875
0,513933357970796
-0,166514857978252
0,193900362322727
0,311888478595822
0,466728986005162
-0,23133695423698
-0,213248551683222
-0,535988450931659
0,000975284539001307
-0,373135873602069
0,491447647670391
-0,107712876595012
-0,0156394365156557
0,333144271276547
-0,272275756761683
0,122093398208195
0,0257599738914695
-0,457102481070978
-0,123329040605155
0,393831369879945
0,350315222526803
0,398678744165485
0,124562940966683
-0,21114200200473
0,446674513605737
0,490014346636854
0,236739369916849
0,147304185409332
0,52168783976514
4,79787882547758E-05
-0,161178570625812
0,165485923591558
-0,26480201727369
-0,482435431116053
0,265895452598582
0,258346996912199
0,0770138907737385
-0,375548657876022
-0,192204288480954
0,258048278511037
0,375912094259013
-0,0984524411646229
-0,0403927274694972
-0,423871116838278
-0,0380610199332935
0,501561976968046
-0,323378611827158
-0,331464658765087
0,150386496658646
0,467107597541681
0,495461670329626
0,329083044002337
0,469530569840935
-0,355920885409658
-0,0500412316727138
0,230323126326888
0,0999909701725725
-0,0490134420857654
0,440372544739687
0,191206347966202
-0,274236446779023
-0,191239254271292
0,376044025286682
-0,0366622156609052
0,104645399944978
-0,139622876853702
-0,352117514188212
0,422535105985227
-0,205717195097901
0,15871923385177
0,393894697398166
0,252108057917181
0,20544129214149
-0,473455776216535
0,503858689209198
-0,184704583269759
-0,258002221192691
-0,141181066317889
0,143320884039392
-0,0723662025166518
-0,320076487408987
0,384444529946255
0,106372597867012
0,511378431759876
-0,409493870413243
-0,370133788147506
0,131984912341553
-0,112417229038476
0,487039174854653
-0,0222319097531752
0,00695179666360673
0,312858629028244
0,523053961786657
-0,24807869478136
0,790390086663349
-0,308819680414389
0,055994874866576
0,402250362797869
-0,079761353261775
-0,41848140042084
0,335125669275555
-0,500996795544651
0,429257332290821
0,333660490306092
0,276875173590248
-0,0918965225429726
0,393025375502744
0,167687790779252
0,150650462438655
0,41909041005943
-0,0207342798528948
-0,516159141591589
-0,403626846923446
-0,0293350926315565
-0,280977324255935
0,161730626675969
-0,198430523965684
-0,450686932255843
-0,316489699595354
0,318123993243959
-0,304960560500553
0,370975415288548
0,286605289582569
0,407677798476052
-0,274550700207588
-0,138799581384981
-0,273490865549708
-0,3888974424193
0,41812817357768
-0,256228315677025
0,389604649769756
0,286392928201154
-0,160551699545522
0,157066539383203
-0,460997675411785
0,491776145059511
-0,0841822598987176
-0,325964630936288
-0,0955913233772669
0,120322990655965
-0,0228091952345675
0,322165574739249
0,00522708913583157
0,174607484811175
-0,185037695780405
-0,028889035593421
0,358214977279921
-0,155732193233665
-0,174760795995059
-0,0611976424046443
-0,39301102774599
0,305275046377491
0,20755911106233
-0,0780647777325344
-0,115792431186642
-0,130848661949725
0,10626044268825
-0,47899880752408
0,554895706433769
0,114792050147722
0,406183729130161
-0,0698269201103286
0,341897237622214
-0,146265867467162
-0,48900503012771
-0,442749491461024
0,460621422463398
0,261354656589904
0,266654425297856
0,171988351793333
-0,457738337498546
0,2825375908718
0,243732492609384
-0,294076585369186
0,444512642485762
0,25531750857444
0,0846727815452504
-0,133606314707123
0,220798465211807
-0,664910444820961
-0,0694469056603754
0,111325308672266
0,397499671800225
0,386621196352537
0,182405793677216
-0,407731221190508
0,228199927723758
-0,479873166363724
-0,329123549032885
-0,43739795064983
-0,176059260232319
-0,37292043719111
0,153481895874013
0,403792407525163
0,265373843012047
-0,0801594188806881
-0,512938233723289
-0,300041355753491
-0,25432646856396
-0,0522599349656087
-0,207353979008927
0,0217152654854797
-0,426010193746811
0,347488150605414
0,0229206516650123
0,397205194854314
0,117888456223203
0,332234198423019
-0,0543221811608268
0,12773779383675
-0,342880196860635
-0,0440326432488811
-0,0259751030099451
-0,470267204122709
-0,34615328210493
-0,126724767731286
0,249183789544952
-0,478970483751406
-0,430101330243947
-0,116346549064082
0,477854729619741
0,0855463230915956
-0,297235425314371
0,430158700955727
0,212149526494942
0,35794036116623
0,111462104006351
0,0713992453853522
-0,15685538878774
0,033507652801591
-0,399454874152108
0,104959739868409
0,381210351149113
-0,431046202909729
-0,328270115637059
-0,141587812825364
-0,140516011765634
-0,292696025381343
0,425825708162029
-0,460623742952791
0,0370049230069294
-0,336571884728773
0,355894270211749
0,214257029779834
-0,341604617838324
0,189304117512343
-0,308883638497854
-0,2496463771675
0,263908946311059
-0,117021185585258
0,37854830104768
-0,00632994024979855
0,38878515390828
-0,194312230784384
0,266410643170422
0,182671786481816
-0,372697924010247
-0,304651235402731
-0,220671650634691
-0,199645616819733
-0,304618491643035
-0,445997955244027
-0,431802049261582
-0,170092359301148
0,128366710020428
-0,457606581001431
0,190964051853568
-0,48502625810478
-0,0134237370360272
0,0392666969244814
-0,0195994907995829
-0,0820889148534129
0,247590136979317
-0,364569927972415
0,345546804762234
0,3897591041819
-0,178128354101502
0,388254296950833
0,410075638649162
0,471886075888862
0,0914884976943688
-0,0776479094114572
-0,393153755198196
-0,0264553914679776
0,21081749164273
0,220483300504479
-0,198816807240839
0,253647534130845
0,00425030968549704
0,334987423483018
-0,342462062918637
0,0663522469793601
0,266387842330391
0,254590070806801
-0,0822264550586958
-0,326859108897674
-0,350430858464386
-0,390910965074867
0,482876087322789
-0,310313276427941
0,166355848235021
0,298843992858364
-0,0494080034780353
-0,087776846991748
-0,221050865352643
0,0622134526563522
0,357007753869325
0,348104773429229
-0,217896773634866
-0,098274685466359
0,0953458493162282
0,194250148062134
-0,439160639923867
0,362223924896378
0,383686597140206
-0,549230111785042
-0,491506659773239
-0,0696155370078835
0,39123954051349
0,313496112667639
0,271041632142141
0,338279453908697
-0,159993758515837
0,186636928548534
-0,273383541213519
